GIS
1
0.0
20
chunk:NP:B
chunk:VP:B
chunk:O
chunk:NP:I
chunk:VP:I
chunk:PP:B
chunk:AP:B
chunk:WH:B
chunk:PP:I
chunk:AP:I
chunk:QP:B
chunk:TP:B
chunk:QP:I
chunk:XP:B
chunk:MP:B
chunk:XP:I
chunk:WH:I
chunk:WP:B
chunk:MP:I
chunk:WP:I
324
1606 0
16 0 1
1 0 1 2
3 0 1 2 3 4
2 0 1 2 3 4 5 6
1 0 1 2 3 4 5 6 7 8 9
1 0 1 2 3 4 5 6 7 8 9 10 12
1 0 1 2 3 4 5 6 7 8 9 10 12 13 14 15 16
1 0 1 2 3 4 5 6 7 8 9 10 12 13 15 18
1 0 1 2 3 4 5 6 7 8 9 10 12 15 16
1 0 1 2 3 4 5 6 7 8 9 10 13 15 16 17
1 0 1 2 3 4 5 6 7 8 9 10 13 15 16 17 18
1 0 1 2 3 4 5 6 7 8 9 11 12 16 18 19
1 0 1 2 3 4 5 6 7 8 9 12 17 18
1 0 1 2 3 4 5 6 7 8 9 13 14 15
1 0 1 2 3 4 5 6 7 9
1 0 1 2 3 4 5 6 7 9 10 12 15
1 0 1 2 3 4 5 6 7 9 13 15 16
1 0 1 2 3 4 5 6 7 13 16 17
1 0 1 2 3 4 5 6 8
4 0 1 2 3 4 5 6 8 9
1 0 1 2 3 4 5 6 8 9 10 12
1 0 1 2 3 4 5 6 8 9 10 13
1 0 1 2 3 4 5 6 8 9 10 14
1 0 1 2 3 4 5 6 8 9 12 13
2 0 1 2 3 4 5 6 8 9 13 15
9 0 1 2 3 4 5 6 9
1 0 1 2 3 4 5 6 9 10
1 0 1 2 3 4 5 6 9 12
3 0 1 2 3 4 5 6 9 13
1 0 1 2 3 4 5 7 8
1 0 1 2 3 4 5 7 8 9 12
1 0 1 2 3 4 5 8
3 0 1 2 3 4 5 9
2 0 1 2 3 4 5 9 12
1 0 1 2 3 4 6 7 9
2 0 1 2 3 4 6 7 9 10
1 0 1 2 3 4 6 7 9 15
4 0 1 2 3 4 6 9
1 0 1 2 3 4 6 9 10
1 0 1 2 3 4 6 9 10 12 14 18
1 0 1 2 3 4 6 9 15
1 0 1 2 3 4 6 9 16
1 0 1 2 3 4 6 10 12 14
1 0 1 2 3 4 7 8 9 16
1 0 1 2 3 4 7 9 13 15
2 0 1 2 3 4 8 9
1 0 1 2 3 4 9
1 0 1 2 3 4 13
1 0 1 2 3 6 9 13
2 0 1 2 4
2 0 1 2 4 5
1 0 1 2 4 5 9
2 0 1 2 4 6 9
1 0 1 2 4 6 9 16
51 0 1 3
137 0 1 3 4
2 0 1 3 4 5
1 0 1 3 4 5 6
1 0 1 3 4 5 6 7 8 9
1 0 1 3 4 5 6 8
1 0 1 3 4 5 6 8 9
2 0 1 3 4 5 6 9
1 0 1 3 4 5 6 9 10
1 0 1 3 4 5 7 9 16
4 0 1 3 4 5 8
1 0 1 3 4 5 9
9 0 1 3 4 6
1 0 1 3 4 6 7
1 0 1 3 4 6 7 8 9 10 12 13 17
1 0 1 3 4 6 7 9 14 16
1 0 1 3 4 6 7 9 15
16 0 1 3 4 6 9
1 0 1 3 4 6 9 10
1 0 1 3 4 6 9 13
1 0 1 3 4 6 10 12
1 0 1 3 4 6 18
1 0 1 3 4 7
1 0 1 3 4 7 9
1 0 1 3 4 8
1 0 1 3 4 8 9
13 0 1 3 4 9
1 0 1 3 4 9 10 12 18
1 0 1 3 4 9 12
1 0 1 3 4 9 12 18
1 0 1 3 4 13
1 0 1 3 4 15
1 0 1 3 5
3 0 1 3 6
1 0 1 3 6 8
1 0 1 3 6 9
1 0 1 3 8 13
3 0 1 3 9
1 0 1 3 9 12
1 0 1 3 9 15
1 0 1 3 10
1 0 1 3 12
14 0 1 4
1 0 1 4 5
2 0 1 4 6
1 0 1 4 9
1 0 1 6 9
1 0 1 9
3 0 2
4 0 2 3
7 0 2 3 4
1 0 2 3 4 5 8
1 0 2 3 4 7
3 0 2 3 4 9
1 0 2 3 4 9 12
1 0 2 3 5 8
1 0 2 3 6
1 0 2 3 6 9
1 0 2 3 9
1 0 2 3 12
2 0 2 4
1 0 2 9
2106 0 3
226 0 3 4
1 0 3 4 5
1 0 3 4 5 6
2 0 3 4 5 6 8 9
1 0 3 4 5 6 8 9 10 12
1 0 3 4 5 6 9
6 0 3 4 6
1 0 3 4 6 7 17
25 0 3 4 6 9
1 0 3 4 6 9 12
1 0 3 4 7
1 0 3 4 7 8 9
1 0 3 4 7 9
2 0 3 4 8 9
36 0 3 4 9
1 0 3 4 9 10 12
1 0 3 4 9 12
2 0 3 4 10
1 0 3 4 10 13
1 0 3 4 10 14
4 0 3 4 12
1 0 3 4 16
1 0 3 4 18
1 0 3 4 19
5 0 3 5
1 0 3 5 6 8
1 0 3 5 6 8 9
2 0 3 5 8
1 0 3 5 8 9
2 0 3 5 9
21 0 3 6
13 0 3 6 9
1 0 3 6 10
1 0 3 6 10 12
4 0 3 7
3 0 3 8
1 0 3 8 12
43 0 3 9
3 0 3 9 10
1 0 3 9 10 12 18
2 0 3 9 12
1 0 3 9 12 18
1 0 3 9 18
31 0 3 10
13 0 3 10 12
1 0 3 10 12 14
1 0 3 10 12 18
1 0 3 11
16 0 3 12
2 0 3 12 14
1 0 3 13
1 0 3 16
2 0 3 18
48 0 4
1 0 4 5 8
4 0 4 6 9
3 0 4 9
1 0 5
3 0 5 8
12 0 6
2 0 6 9
6 0 9
1 0 10
2 0 12
2 0 15
921 1
8 1 2
3 1 2 3
5 1 2 3 4
4 1 2 3 4 5
1 1 2 3 4 5 6
1 1 2 3 4 5 6 8
3 1 2 3 4 5 6 8 9
1 1 2 3 4 5 6 8 9 15
1 1 2 3 4 5 7 8
2 1 2 3 4 5 8
3 1 2 3 4 5 9
2 1 2 3 4 6
2 1 2 3 4 6 9
1 1 2 3 4 6 9 15
1 1 2 3 4 6 13
1 1 2 3 4 8
1 1 2 3 4 8 9
3 1 2 3 4 9
1 1 2 3 5
1 1 2 3 5 6 7 8
1 1 2 3 5 9
8 1 2 4
2 1 2 4 5
1 1 2 4 5 6
1 1 2 4 5 6 9
1 1 2 4 5 9
2 1 2 4 6
1 1 2 4 6 9
2 1 2 4 6 13
1 1 2 4 7 9 13
1 1 2 4 9
2 1 2 4 13
1 1 2 5 6
1 1 2 5 7 8
2 1 2 6
1 1 2 6 13
1 1 2 9
4 1 2 13
156 1 3
556 1 3 4
4 1 3 4 5
1 1 3 4 5 6
1 1 3 4 5 6 8
3 1 3 4 5 6 9
4 1 3 4 5 8
1 1 3 4 5 8 9 12
3 1 3 4 5 9
26 1 3 4 6
1 1 3 4 6 8 9
36 1 3 4 6 9
1 1 3 4 6 13
1 1 3 4 7 13 16
25 1 3 4 9
8 1 3 6
8 1 3 6 9
1 1 3 6 9 13
1 1 3 6 13 15
1 1 3 8
5 1 3 9
1 1 3 9 18
727 1 4
3 1 4 5
1 1 4 5 8
21 1 4 6
1 1 4 6 8
22 1 4 6 9
1 1 4 7 17
15 1 4 9
2 1 4 13
29 1 6
8 1 6 9
13 1 9
1 1 9 13
1 1 13
107 2
9 2 3
3 2 3 4
1 2 3 4 5 8
1 2 3 4 5 8 13
1 2 3 4 6 9
1 2 3 4 7 16
1 2 3 4 16
1 2 3 6
1 2 3 13
7 2 4
1 2 4 5
1 2 4 5 8
2 2 4 6
1 2 4 9
1 2 4 13
4 2 5
3 2 5 8
1 2 6
1 2 8
1 2 9 13
4 2 13
4091 3
239 3 4
2 3 4 5
1 3 4 5 6 8
31 3 4 6
50 3 4 6 9
1 3 4 6 9 15
1 3 4 8 13
16 3 4 9
1 3 4 9 15
1 3 5 8
180 3 6
75 3 6 9
70 3 9
22 3 10
6 3 10 12
19 3 12
7 3 13
2 3 15
1 3 18
1163 4
2 4 5
1 4 5 10
52 4 6
1 4 6 7
19 4 6 9
18 4 9
3 4 13
12 5
1 5 7 13
469 6
90 6 9
4 7
1 7 13
2 8
1 8 13
266 9
40 10
3 10 12
14 12
57 13
3 14
16 15
1 17
14605
p0:bàn+viết
p0:vẻ+#
p0:hàng+hóa
p0:kilôgam
p0:chiều+hướng
p0:chu+văn+thiệp
p0:444+.+700
p0:điện+báo
p0:hạ+bộ
p0:700+.+000
p0:sớm+hôm
p0:tráp
p0:trán
p0:quán+ăn
p0:sứ+quán
p0:thường+phục
p0:100+tỉ
p0:hóc+môn
p0:truyền+đơn
p0:cổ+họng
p0:võ+danh+hải
p0:bản+thân+#
p0:thôn+xóm
p0:ngõ+cụt
p0:phích
p0:đại+nghĩa
p0:đá+bạc
p0:đề+can
p0:ama
p0:chiến+trận
p0:ba+lan
p0:văn+minh+#
p0:ống+#
p0:ngòi+nổ
p0:hộp+thư
p0:bây+chừ
p0:khăn+xếp
p0:cầu+thang
p0:vai+trò
p0:đây+đó
p0:lý+thuyết+#
p0:rơ+châm+kiến
p0:sở+chỉ
p0:kinh+nghiệm+#
p0:thước+đo
p0:chức+vụ
p0:360.000
p0:ông+xã
p0:chó+sói
p0:vai+#
p0:phần+nhiều
p0:chị+ta
p0:vườn+tược+#
p0:tiệc+tùng
p0:di+hài
p0:hội+đồng+#
p0:đặng+kỳ
p0:ông+ta
p0:phóng+viên+#
p0:hàng+chợ
p0:cửa+rả
p0:qui+chuẩn
p0:câu+hỏi
p0:xe+kéo
p0:luồng+#
p0:taekwondo
p0:nhà+sàn
p0:đại+hội
p0:trương+quang+quốc+dũng
p0:khí+chất
p0:không+trung
p0:hồng+nhung
p0:mảnh+#
p0:nhà+sản+xuất
p0:tổ+trưởng
p0:chồn+hương
p0:đế+quốc
p0:phóng+lợn
p0:vòi+hơi
p0:nay+mai
p0:bản+chính
p0:cấp+độ
p0:lợi+#
p0:dây+#
p0:tâm+nguyện
p0:b52
p0:nhà+tắm+#
p0:giao+lộ
p0:biên+bản+#
p0:bà+con+#
p0:trời+#
p0:máy+giặt
p0:kẻ+thù+#
p0:1.500
p0:chi+phí+#
p0:ðấy
p0:850.000
p0:a+lưới+#
p0:họ+tộc
p0:thùy+dung
p0:phép+tính+#
p0:thế+gian
p0:hành+lang+#
p0:11+,+9
p0:lối+#
p0:nhà+nghiên+cứu
p0:chị+gái+#
p0:cờ+đỏ+sao+vàng
p0:vi+tính+#
p0:tế+bào+#
p0:dân+chơi
p0:bàu+súng
p0:ngón+#
p0:con+nít
p0:cung+cách
p0:đế+#
p0:tất+#
p0:12+.+500
p0:người+đời
p0:tình+bạn
p0:nghiệp
p0:chiang+mai
p0:chí
p0:liên+quân
p0:quê+nhà
p0:2+.+820
p0:đỉnh+điểm
p0:hoa+tay
p0:nhà+#+nghỉ
p0:lời+lỗ
p0:phôi+thai
p0:hương+hồn
p0:lịch+#
p0:bì+thư
p0:bộ+dạng
p0:phạm+ngọc+thăng
p0:tạo+hóa
p0:loài+người
p0:sông+núi
p0:ban+ngày
p0:samsonite+#
p0:phụ+tá+#
p0:chiều+dài
p0:6.000
p0:huê+lợi
p0:đặc+quyền+đặc+lợi
p0:trương+xuân+đào
p0:hải+luận
p0:đầm+rong
p0:quảng+công
p0:xấp+xỉ+#
p0:tp+.+#
p0:triền+#
p0:36+.+000
p0:rồng+xanh
p0:tâm+khảm
p0:vong+hồn
p0:mai+bửu+minh
p0:linh+tính
p0:công+chuyện
p0:gia+cảnh
p0:cảnh+#
p0:lơ+xe
p0:khắp+nơi
p0:hồ+văn+kha
p0:hành+vi+#
p0:hành+khách+#
p0:pos:B
p0:thể+xác
p0:nhân+thân
p0:màn+kịch
p0:khả+năng+#
p0:nông+nghiệp+#
p0:biển+chết
p0:xứ+sở
p0:mê+linh
p0:xe+máy+#
p0:dải+phân+cách+#
p0:6+.+247
p0:chúng+nó+#
p0:tổng+bí+thư
p0:nền+móng
p0:thực+tế+#
p0:ốc
p0:phản+xạ
p0:chùa+chiền
p0:nước+miếng
p0:bi+kịch
p0:cá+chép
p0:giày+đinh
p0:người+dân
p0:box
p0:thế+vận+hội
p0:khí+thế
p0:tang+chứng
p0:đồng+hồ+mặt+trời
p0:ớt
p0:hoàng+văn+khoán
p0:máu+ghen
p0:đèn+#
p0:tòa+án+#
p0:công+cụ
p0:đồng+hới
p0:80+triệu
p0:luận+án
p0:lưỡi+câu
p0:xe+lam
p0:tập+tục
p0:pơ+thi
p0:lượng+#
p0:lộ+trình
p0:thực+dân
p0:danh+hiệu+#
p0:khách+sạn+#
p0:hồ+văn+trương
p0:đọt+#
p0:vali
p0:nội+bộ
p0:phân+nửa+#
p0:trước+đây+#
p0:chi+hội
p0:cậu+#
p0:cỏ+năng
p0:bữa+qua
p0:lãnh+tụ
p0:quy+cách
p0:đỉa
p0:đền+#
p0:thương+tích
p0:thiếu+lâm
p0:ha+long
p0:á+quân
p0:thiên+đường
p0:tấm+lòng
p0:mông+#
p0:xe+đẩy
p0:cơ+cấu
p0:target
p0:sự+thực
p0:xa+cam
p0:ai+nấy
p0:thần+khí
p0:trí+khôn
p0:nghề+tự+do+#
p0:250+.+000
p0:arsenal
p0:bấy+nhiêu
p0:nổng
p0:thái+độ+#
p0:bữa+tê
p0:tinh+#+thần
p0:hiện+thời
p0:hàn+quốc+#
p0:chiếc+#
p0:bệnh+trạng
p0:v+.+h+.
p0:tiềm+năng
p0:khoái+cảm
p0:táplô
p0:southern
p0:lũ+lụt
p0:phạm+văn+cội
p0:53
p0:55
p0:57
p0:5%
p0:88
p0:87
p0:77
p0:72
p0:củ+#
p0:phẩm+giá
p0:triền
p0:chất+nổ
p0:42
p0:gia+tài
p0:máu+#
p0:nặng+lãi
p0:tư+gia
p0:quán+quân
p0:danh+nghĩa
p0:miệng+#
p0:măng
p0:thi+sĩ
p0:phát+xít
p0:ngýời
p0:bãi+#
p0:hội+chứng
p0:92
p0:khu+công+nghiệp+#
p0:nguyễn+chương
p0:94
p0:thua+thien
p0:đạo
p0:cả+thảy
p0:bầu+trời
p0:mực+#
p0:má+mì
p0:1,58+triệu
p0:gà+chọi+#
p0:tàu+chiến
p0:trung+tướng
p0:australia
p0:oan+nghiệt
p0:đầu+óc
p0:kinh+#+#+nghiệm
p0:hen
p0:hàm+răng+#
p0:giờ+đây+#
p0:yàng
p0:một+tí
p0:192+.+000
p0:sắc+màu
p0:petr+tsevtov
p0:hiện+giờ+#
p0:biển+#
p0:chữ+viết
p0:800+triệu
p0:võ+văn+chương
p0:bề+dày
p0:khẩu+hiệu
p0:dột+nát
p0:tai+ương
p0:michel+owen
p0:cõn
p0:từ+điển+#
p0:tủ+lạnh
p0:tư+tưởng+#
p0:con+trâu
p0:thư+viện
p0:75+.+000
p0:bạn+trai
p0:trắm+cỏ
p0:ksor+buh
p0:bào+thai
p0:ưu+điểm
p0:đối+thủ+#
p0:ống+kính
p0:gs.
p0:sân+chơi
p0:tư+cách
p0:trường+thịnh
p0:trương+thị+thương
p0:tí+chút
p0:f+.4
p0:cõi
p0:tâm+trí
p0:lượt+#
p0:cuộc+chơi
p0:tử+địa
p0:gia
p0:nguyễn+văn
p0:số+lượng+#
p0:hành+tinh
p0:bục
p0:bốn+bề
p0:giò
p0:bằng+cấp
p0:nguyên+liệu+#
p0:đoàn+#
p0:sa+bồi
p0:triệu+chứng
p0:berlin
p0:hình+thức+#
p0:giấy+thông+hành
p0:nguồn+lực
p0:gián+điệp
p0:ov+.10
p0:trung+úy
p0:125+triệu
p0:bề+ngoài
p0:khí+phách
p0:bùa
p0:tiền+đề
p0:130+#
p0:tư+dinh
p0:cầu+#
p0:học+phần
p0:ngô+quyền
p0:bắc+ninh+#
p0:món+#
p0:đề+bài
p0:đụn
p0:giờ+phút
p0:hậu+phương
p0:xu+thế
p0:cần+giờ
p0:cảnh+trí
p0:giồng+lầu+già
p0:chiến+lược
p0:lương+tâm+#
p0:căngxe
p0:hướng+dẫn+viên
p0:bệnh+nghề+nghiệp
p0:dây+neo
p0:cụm+từ
p0:dã+tâm
p0:nốt+#
p0:thời+giá
p0:minh+hương
p0:băng+#
p0:đường+đạn
p0:mũ+tai+bèo
p0:lái+buôn+#
p0:nhà+cầu
p0:cá+tính
p0:con+nợ
p0:nền+#
p0:công+ty+tnhh+#
p0:thứ+hạng+#
p0:tung+tích
p0:tòa+#
p0:tư+pháp
p0:phòng+thí+nghiệm
p0:kodak
p0:bão+#
p0:thế+ấy
p0:1+.+600+#
p0:chắt
p0:nhan+sắc
p0:cơ+sở+#
p0:tác+nhân
p0:cây+trồng+#
p0:ghế+ngồi
p0:sảnh
p0:liên+ngành
p0:nhíp
p0:bóng+mát
p0:tiên+cảnh
p0:tay+cầm
p0:sản+phẩm+#
p0:giảng+viên
p0:miền+nam
p0:htx
p0:hàng+họ
p0:hường
p0:đàn+chị
p0:một+ít
p0:thủy+điện
p0:máy+nổ
p0:nhóc+tì
p0:tính+mạng+#
p0:ica
p0:romania
p0:trọng+hoàn
p0:nhạc+điệu
p0:kinh+tế+thị+trường
p0:đầu+nậu+#
p0:chủ+đề
p0:mùi+vị
p0:anh+ấy
p0:ân+nhân
p0:nguyễn+lê+nguyên
p0:tình+ý
p0:suny+#+rockport
p0:lê+minh+thành
p0:con+rể
p0:nguyễn+tất+thành
p0:ninh+bình+#
p0:thuốc+lào+#
p0:phần+đông
p0:400.+000
p0:rễ+#
p0:mái+hiên
p0:nhựa+đường
p0:thực+lực
p0:trang+sports
p0:căn+nguyên+#
p0:trương+thị+ái+vy
p0:thuyết+khách
p0:văn+phòng+#
p0:màu+#
p0:tùm+lum
p0:thiếu+tá
p0:1+,+2+triệu
p0:1+.+300+#
p0:nhị+tì
p0:jonah+levey
p0:mì+#
p0:tiến+dũng
p0:móng+vuốt
p0:háp
p0:mưu+kế
p0:kỳ+sơn+#
p0:72+.+000
p0:nghệ
p0:báo+#
p0:thầy+bói
p0:nàng+#+tiên
p0:ngân+hàng+dữ+liệu
p0:bản+lĩnh+#
p0:bản+năng
p0:bờ+giậu
p0:mù+sương
p0:đồng+răm
p0:vườn+ươm
p0:tử+huyệt
p0:khoá
p0:số+hiệu
p0:xuân+sắc
p0:phan+thanh+thạc
p0:mục+đích+#
p0:11+triệu
p0:quẹt
p0:hòm
p0:59+#
p0:kim+tiêm+#
p0:trọng+trách
p0:hương+nhang
p0:rơ+châm+yoih
p0:hồ+henri+martin
p0:tổng+biên+tập
p0:dấu+vết
p0:nguyễn+văn+dậu
p0:giêng
p0:ngày+kia
p0:banh
p0:sức+khoẻ
p0:mặt+phố
p0:diện+tích+#
p0:tối+tối
p0:lữ+#
p0:tổng+cục+trưởng
p0:cành
p0:cái+chết+trắng
p0:a+muối+#
p0:thể+trạng
p0:gân
p0:kh.
p0:pos:NC
p0:thuốc+lá+#
p0:quy+mô
p0:mai+đình+toàn
p0:độ+#
p0:vườn+quốc+gia
p0:mộ+phần
p0:khu+#
p0:pos:PH
p0:phúc+yên
p0:tiến+trình
p0:thuỳ
p0:casino
p0:hạ+long
p0:chiến+hữu
p0:nòng
p0:13+.+500
p0:sơ+sót
p0:thần+linh
p0:gia+tộc
p0:ktx
p0:www+.+#+#+anangquangnamfund+.+org
p0:quyền+lợi+#
p0:suyễn
p0:sức+lao+động
p0:thi+thể
p0:bệnh+lý
p0:chúa+sơn+lâm+#
p0:chú+#
p0:tổ+hợp
p0:ts+#
p0:tối+qua
p0:căn+cứ+#
p0:lĩnh+vực+#
p0:hình+dáng
p0:biên+lai
p0:sân+đấu
p0:kháng+sinh
p0:sa+mạc
p0:may+rủi
p0:hương+#
p0:sơ+yếu
p0:bồ+nhí+#
p0:đói+nghèo+#
p0:hộ+pháp
p0:hổ+#
p0:thời+bình
p0:bao+bì+#
p0:71+,+85
p0:nh.
p0:new
p0:chữ+quốc+ngữ
p0:thời+hạn
p0:vũ+bão
p0:nhãn+mác
p0:nỗi+niềm
p0:người+già
p0:chất+#+độc
p0:văn+bé
p0:tám+nhiều
p0:nông+trường
p0:nguồn+#
p0:web+#
p0:gian+hàng
p0:mệnh+lệnh
p0:hà+tĩnh+#
p0:côn+trùng+#
p0:hậu+quả+#
p0:tờ+rơi
p0:hen+suyễn
p0:chơn+thành
p0:lòng+đường
p0:biên+chế
p0:kiểu+dáng
p0:phe+cánh
p0:cơn+#
p0:cảm+hứng
p0:tiếng+nói
p0:svhs
p0:mức+nước
p0:quân+phục
p0:bà+xã
p0:phương+châm
p0:bà+cô
p0:sổ+đỏ
p0:bóng+dáng
p0:thương+hàn
p0:mour
p0:giá+thành
p0:hà+tây+#
p0:trợ+thủ
p0:đạm+#
p0:200.+000
p0:cảm+giác+#
p0:nguyễn+thị+viện
p0:thiếu+sót
p0:ampli
p0:nghĩa+vụ
p0:thư+ký
p0:lục+ngạn
p0:hiệu+lệnh
p0:dạng+thức
p0:dông+bão
p0:thú+dữ+#
p0:gậy+gộc
p0:đàm
p0:ðôi
p0:hà+hữu+đồng
p0:tàu+biển
p0:đêm+đêm
p0:ái+vy
p0:hệ+sinh+cảnh
p0:bí+quyết+#
p0:nhà+văn
p0:nguyễn+hải+yến
p0:trần+#
p0:dấu+tích
p0:phi+trường
p0:lá+ngón
p0:tình+trường
p0:nhan+đề
p0:mai+đây
p0:nghĩa+cử
p0:tiền+của+#
p0:lôcôt+#
p0:muội
p0:đảo+#
p0:vụ+kiện
p0:6+,+5
p0:trọng+tải
p0:cuộc+thi
p0:lai+lịch
p0:mày+#
p0:tiểu+đoàn
p0:gạch+men
p0:núi+non
p0:nghi+thức
p0:lòng+dạ
p0:nước+đá
p0:hàng+#
p0:bài+tính
p0:nghi+diên
p0:nguyễn+phước+thành
p0:cấp+ủy
p0:thư+điện+tử
p0:logic
p0:amoro
p0:nguyễn+hữu+chỉnh
p0:động+tĩnh
p0:ph.
p0:nhiệt
p0:mặt+nạ
p0:lê+đức+hà
p0:tâm+trạng
p0:dụng+cụ
p0:động+cơ
p0:sa+huỳnh
p0:cầu+nối
p0:phe
p0:1.000.000
p0:tích+tắc
p0:chiêu+thức
p0:lùm
p0:con+giống
p0:toàn+bộ+#
p0:mương
p0:đâu+đây
p0:bồ+kết
p0:đồng+bọn
p0:đặng+thái+huyền
p0:công+tắc
p0:lập+trình+viên
p0:búng
p0:chiến+khu
p0:lào+cai
p0:cửa+giả
p0:hồn+ma
p0:cổng+trắng
p0:nhà+trẻ
p0:khung
p0:tokyo
p0:cõi+đời
p0:thạch+cao
p0:hậu+họa
p0:tất+cả+#
p0:mahamas+bibi
p0:quân+ngũ
p0:đơn+kiện
p0:công+ăn+việc+làm
p0:giải+#
p0:600.000
p0:đám+tang
p0:an+toàn+lao+động
p0:omo
p0:chiến+lợi+phẩm
p0:tấm+bé
p0:giừ
p0:tư+thương
p0:thiếu+tướng
p0:biến+thế
p0:cuộc+đời+#
p0:tuýp+nước
p0:nhà+sử+học
p0:bạch+hồ
p0:hàng+ngũ
p0:hàng+quán+#
p0:cây+công+nghiệp
p0:tòa+sen
p0:vỉa
p0:lộc+điền
p0:nhân+cách
p0:gối+#
p0:ai+cập
p0:18.000
p0:bè+bạn
p0:sương+mù
p0:vòng+tay
p0:dạng+#
p0:tula
p0:bóng+tối
p0:vợ+con+#
p0:tazon
p0:thức+ăn+#
p0:tuoi
p0:găng
p0:sau+này+#
p0:ruột+rà
p0:ý+nguyện
p0:chợ+phiên+#
p0:nước+nôi
p0:tạp+hóa
p0:luật+pháp
p0:cuốn+#
p0:thổ+tả
p0:vương+tửu+quán
p0:tỉnh+lị
p0:bệnh+tật
p0:cớ+#
p0:hai+vạn
p0:143+.+000
p0:võ+văn+thành
p0:bao+nhiêu+#
p0:330
p0:thạc
p0:que
p0:thiên+duyên
p0:tình+đầu
p0:lãnh+đạo+#
p0:1+.+459
p0:nhà+báo
p0:quĩ
p0:lực
p0:phòng+thường+trực
p0:kinh+tế+#
p0:370
p0:tư+lý
p0:980.000
p0:tệ+nạn
p0:bộ+đồ+#
p0:3,5
p0:thần
p0:nguyễn+hoài+nam
p0:bắp+vế
p0:hầu+bao
p0:nguyễn+khắc+trường
p0:nguyễn+thị+diễm+quyên
p0:câu+lạc+bộ
p0:q+.9
p0:tia+sáng
p0:xe+hàng
p0:q+11
p0:khẩu+phần
p0:ða+số
p0:181+#
p0:ụ+#
p0:rọ+#
p0:vàm+láng
p0:navigos+group
p0:mục
p0:vé+số
p0:4.000
p0:đồng+ruộng+#
p0:màn
p0:hòm+thư
p0:đa+số+#
p0:lễ+tân
p0:củi+#
p0:bưu+thiếp
p0:bò+sát
p0:mệnh+đề
p0:tỉ+giá
p0:mức+sống
p0:quầng
p0:chân+rết
p0:ba+má
p0:thảm+cảnh
p0:nguyễn+cao+toản
p0:111+#
p0:thằng+mười
p0:460
p0:thú+dữ
p0:180+triệu
p0:bồ+nhí
p0:47%
p0:con+dấu
p0:bánh+đa
p0:dấu+hỏi+#
p0:bối+cảnh
p0:sam
p0:ngôn+từ
p0:da+thịt
p0:trên+dưới
p0:chái+#
p0:dolta
p0:cơ+quan+#
p0:tuổi+tác
p0:12+.+000+#
p0:420
p0:thông+tư
p0:bến+cát+#
p0:sóc+sơn
p0:rừng+già
p0:pacific+lutherial+university
p0:nguyễn+đình+hùng
p0:steve+maxner
p0:ia+phí
p0:tướng+quân
p0:tay+nghề
p0:rau+#
p0:l+.19
p0:lâu+nay
p0:tờ+mờ
p0:thảm+đỏ
p0:bộ+óc
p0:hòa+cường
p0:ôtô+#
p0:bằng+chứng
p0:ba+phần+tư
p0:6/17
p0:nhà+trường
p0:nước+lạnh
p0:giám+định+viên
p0:hiệu+quả+#
p0:không+khí+#
p0:máy+lạnh
p0:luật+gia
p0:texas
p0:chồng+chưa+cưới
p0:cổng+#
p0:sa+tô
p0:trời+đất
p0:điện+#
p0:dung+nhan
p0:84+#
p0:nguyễn+hữu+phi
p0:thị+t+rường
p0:chút+đỉnh
p0:lâm+sản
p0:song+#
p0:máy+bộ+đàm+#
p0:570
p0:tối+ngày
p0:phủ+lý
p0:khí+#
p0:sóng+gió
p0:1+.+619
p0:ý+định
p0:bao+lâu+#
p0:vĩnh+phúc
p0:th.
p0:tem
p0:tư+cách+#
p0:mã+tấu+#
p0:mồ+mả
p0:tần+số+#
p0:khách+#+hàng
p0:mỡ+máy
p0:1+.+634
p0:gió+#
p0:ma+túy+#
p0:phân+xưởng
p0:căn+bệnh
p0:kiên+giang+#
p0:kính+lúp
p0:thu+sports
p0:6+#
p0:nội+thất
p0:đất+trời+#
p0:bắp+chân
p0:thuốc+thang+#
p0:gỗ+xẻ
p0:lũ+ống
p0:tà+ý+#
p0:đông+đảo
p0:tà+lọt
p0:tuổi+trẻ+#
p0:chuyên+cơ
p0:nhà+vệ+sinh
p0:quạt+máy
p0:14g30
p0:sốt+rét+#
p0:quả+đấm
p0:cả+tú
p0:nạng
p0:neil
p0:trung+hạn
p0:chú+mày
p0:652
p0:p+.17
p0:ghẹo
p0:bấy+lâu+nay
p0:địa+phận
p0:672
p0:thời+tiết
p0:huyệt
p0:p+.+h
p0:dáng+#
p0:nguyễn+khuyến
p0:cao+bằng
p0:98+.+000
p0:toi
p0:màu+da
p0:701
p0:hoa+hồng
p0:sales
p0:tai+#
p0:giấy+mời
p0:thương+hiệu+#
p0:huyết
p0:ái+tử
p0:đường+sá
p0:bảng+vàng
p0:lâm+phận
p0:danh+tính
p0:hiện+trường
p0:bất+kỳ+#
p0:vô+khối
p0:quách+thị+m
p0:bom+đạn+#
p0:1+.+800
p0:quê+quán+#
p0:prince
p0:sức+#
p0:25+.+000
p0:trùng+dương
p0:trước+nay
p0:2+,+7
p0:quân+phiệt
p0:2+,+1
p0:nam+giới
p0:dòng+họ
p0:nguyên+văn
p0:anh+ta
p0:fulham
p0:đầu+hồi+#
p0:dao+#
p0:đám+#
p0:tháng+tháng
p0:cuống
p0:rượu+#
p0:quân+hàm
p0:carlyle+a+.+thayer
p0:100+#
p0:thắt+lưng+#
p0:hợp+#
p0:áo+lặn
p0:binh+pháp
p0:rêu+#
p0:vườn+#
p0:đồ+đạc
p0:michael
p0:rèm
p0:bát+ngát
p0:thượng+hải
p0:ngưỡng
p0:trang+web
p0:bãi+biển
p0:đu+đủ
p0:bão+lũ
p0:ý+chí+#
p0:sinh+viên+#
p0:cơ+nghiệp
p0:bút+chì
p0:cây+gỗ
p0:sọ
p0:bhling+cưng
p0:bùi+dũng
p0:nguyễn+đắc+la
p0:guồng+máy
p0:microsoft
p0:dụng+ý
p0:tớ
p0:con+cháu+#
p0:nồi+#
p0:chu+vi
p0:mụ
p0:chính+phủ+#
p0:anh+#+ta
p0:manh
p0:kết+quả+#
p0:khuynh+hướng
p0:thợ+may
p0:5000
p0:nhân+công+#
p0:sắn
p0:gang+tấc
p0:rượu+mạnh
p0:ao+#
p0:vế
p0:thời+cơ
p0:quần+hội
p0:khán+giả
p0:sổ+đỏ+#
p0:chiếu+#
p0:bìa+#
p0:nilan+#
p0:hình+ảnh+#
p0:cuộc+ðời
p0:bàn+ghế
p0:trang+lứa
p0:mãnh+thú
p0:dấu+hiệu+#
p0:công+nhật
p0:johor
p0:lời+lãi
p0:rào+cản
p0:y+cụ
p0:bài+thuốc
p0:bảo+hiểm+nhân+thọ
p0:công+chúa
p0:huyết+quản
p0:ngàn+vạn
p0:minh+hóa
p0:sứ+mệnh+#
p0:cẳng
p0:0+,+5
p0:hành+khách
p0:khổ+thơ
p0:đạn+bom
p0:chất+hữu+cơ
p0:sư+đoàn+#
p0:sản+lượng+#
p0:yaly
p0:chức+tước
p0:đĩa+mềm
p0:tật
p0:ngài
p0:giường+nằm
p0:lông+lá+#
p0:tòa+soạn+#
p0:nhớt
p0:phần+nào
p0:chúng+nó
p0:30+.+000+#
p0:ruột+gan
p0:thuốc+nam
p0:dòng+sông
p0:hắn+#
p0:1,+5
p0:đàn+#
p0:trước+sau
p0:trần+văn+sơn
p0:cơ+may
p0:hàng+phố
p0:vượn
p0:giai+đoạn+#
p0:152
p0:đòng
p0:tai+họa
p0:149
p0:nguyễn+văn+tường
p0:142
p0:phó+văn+phòng+#
p0:109
p0:ngòi+bút
p0:112
p0:mục+tiêu+#
p0:đòn+bẩy
p0:1/4
p0:vietnam
p0:giấy+phép
p0:vịnh
p0:tộc
p0:vành+#
p0:undp
p0:28+.+000
p0:khuỷu
p0:kẻ+thù
p0:120+#
p0:190
p0:nương
p0:tâm+can
p0:tâm+hồn
p0:170
p0:hu-1a
p0:bồ+#
p0:lập+luận
p0:ban+đêm
p0:sóc
p0:sói
p0:thế+kỷ+#
p0:www
p0:tân+trào
p0:môi+#
p0:gia+lâm+#
p0:nông+trang
p0:dư+luận+#
p0:võ+sư
p0:đức+#
p0:ý+#
p0:sản+vật+#
p0:quai+hàm
p0:cao+học
p0:2/3
p0:phần+mềm
p0:trợ+giảng
p0:giờ+hành+chính
p0:mặt+đất+#
p0:206
p0:thẩm+quyền
p0:vĩnh+linh
p0:đồng+hương+#
p0:hiệu+lực
p0:you
p0:25%
p0:quy+trình+#
p0:253
p0:hiên
p0:võ+đài
p0:ý+chí
p0:thần+thoại
p0:con+số+#
p0:kim+ngạch
p0:271
p0:270
p0:võ+văn+thành+#
p0:28%
p0:vải+lụa
p0:214
p0:ngọn+#
p0:chỉ+số
p0:mẹ+già
p0:225
p0:phạm+văn+hiếu
p0:sự+kiện+#
p0:án+#
p0:tâm+thần
p0:thị+liêu
p0:vầy
p0:246
p0:lý+do+#
p0:tài+công
p0:77+#
p0:biển+hồ
p0:philadelphia
p0:phương+hướng
p0:lập+trường
p0:nước+da+#
p0:động+vật+#
p0:quang+cảnh
p0:tang+ma
p0:tổ+ấm
p0:chiếu+lủng
p0:hình+bóng
p0:quốc+hội
p0:óc
p0:sida
p0:ót
p0:khán+ðài
p0:hữu+hạnh
p0:ðó
p0:quân+số
p0:đèn+măngsông
p0:khoảng+trống
p0:tiến+đạt
p0:chiến+sĩ+thi+đua
p0:tính+mệnh
p0:lịch+trình
p0:thủy+thần
p0:môi+#+trường
p0:anh+cả
p0:mặc+cả
p0:dấu+#
p0:bỉnh+sâm
p0:nguyễn+văn+hòa
p0:đường+mòn+#
p0:ngạnh+#
p0:di+hại
p0:phân+viện+trưởng
p0:277d
p0:lỗi+#
p0:ngấn
p0:gà+chọi
p0:ngải
p0:quebec
p0:lớp+lớp
p0:cần+đơn
p0:xung+quanh+#
p0:tiến+dũng+#
p0:xóc+đĩa
p0:bao+#
p0:cột+sống
p0:rác+#
p0:bùi+thanh+hiền
p0:quỳnh+long
p0:nhà+nhà
p0:quyền+lực
p0:tay+lái
p0:jimmy
p0:võng+mạc
p0:trách+#+nhiệm
p0:bài+toán
p0:rãnh
p0:địa+#+hương
p0:ấn+độ
p0:nội+ô
p0:chợ+trời
p0:hiện+thân
p0:dăm+bảy
p0:âm+phủ
p0:tiêu+chí
p0:găng+tay
p0:hạn
p0:thân+chủ
p0:của+cải
p0:viện+phí
p0:sứ+mạng
p0:brockport
p0:phong+san
p0:rượu+đế+#
p0:muôn+vàn
p0:2+.+354
p0:706+triệu
p0:bóng+#
p0:thuế+thân
p0:ông+cụ
p0:bảy+#
p0:cá+nhân+#
p0:toàn+diện+#
p0:31+.+000
p0:buôn+ma+thuột
p0:nụ+#
p0:nguyễn+văn+minh+tiến
p0:gấc
p0:xích
p0:danh+dự+#
p0:tài+phụ
p0:gió+mây
p0:hồ+văn+thông
p0:hạ+tầng+cơ+sở
p0:tuổi+xuân
p0:bóng+chày
p0:phi+công
p0:nguyễn+thị+dậu
p0:phong+độ
p0:ước+muốn
p0:kênh+truyền+hình
p0:biển+khơi
p0:độc+kế
p0:công+luận
p0:new+orleans
p0:khuôn+khổ
p0:ý+kiến+#
p0:máy+cày
p0:trính
p0:đồng+đất
p0:dân+quân
p0:trần+thị+hoàng+phượng
p0:dầu+nhớt
p0:chân+tướng
p0:hóa+đơn
p0:phnom+penh
p0:con+cái+#
p0:toàn+thể
p0:chấn+thủy
p0:phụ+nữ+#
p0:rạng+#
p0:phương+pháp+#
p0:tiềm+lực
p0:danh+hải
p0:bs+#
p0:đời+#
p0:para+games
p0:bị+can
p0:cố+hương
p0:viện+hàn+lâm+#
p0:quy+chế
p0:cầm+văn+kình
p0:150+triệu
p0:hương+vị
p0:toán+học
p0:tiến+độ
p0:5+.+000+#
p0:trắm
p0:bác+sĩ+#
p0:tổng+đội
p0:thỏ
p0:hiện+tượng+#
p0:chuôt
p0:lương+thực
p0:bên+nguyên+#
p0:bọc+#
p0:khái+niệm
p0:500+tỉ
p0:lý+lẽ
p0:công+dụng
p0:chỉ+thị
p0:gió+lào
p0:abraham+lincoln
p0:kho+bạc
p0:vui+cùng+hugo
p0:những+ai
p0:website
p0:thăng+bằng
p0:visa
p0:thể+chất
p0:bình+chánh
p0:phạm+ngọc+khải
p0:thần+trí
p0:tiếng+động
p0:khe+#
p0:nghĩa+tình
p0:dũng+sĩ+#
p0:mãnh+hổ
p0:túi+tiền
p0:khói+hương
p0:cành+#
p0:cò+#
p0:khán+đài
p0:2+.+100
p0:bao+tải
p0:đdv+#
p0:ðầu+tiên
p0:giảng+đường
p0:nội+thành+#
p0:của+chìm
p0:hợi
p0:toàn+thân
p0:cây+viết
p0:đầu+ra
p0:đa+phần
p0:thoạt+tiên
p0:gờ
p0:hệ
p0:quân+binh+#
p0:kênh+rạch
p0:tư+cách+pháp+nhân
p0:láng+giềng
p0:ngô+văn+hoàng
p0:kỷ+cương
p0:ngư+trường
p0:bản+chất
p0:đồng+lõa+#
p0:sách+báo+#
p0:diện+mạo
p0:ba+nghĩa
p0:cà-rem
p0:cổ+tay
p0:bả
p0:nhân+vật+#
p0:muỗi+mòng+#
p0:23.400
p0:ba+mẹ
p0:thi+hài
p0:cự
p0:chợ+lách
p0:8+.+000
p0:cớ
p0:hình+#
p0:nguyễn+tiến+đạt
p0:giây+lát
p0:dấu+ấn
p0:mối+hàng
p0:chân+lý
p0:bút+bi
p0:chủ+tọa
p0:kỹ+thuật+số
p0:giọng+#
p0:đó+đây
p0:tục+lệ
p0:somluck+khamsing
p0:thư+ký+riêng
p0:vị+trí+#
p0:gsts
p0:kì
p0:giải+phóng+#
p0:rocket
p0:robert
p0:tích+tắc+#
p0:đồng+cỏ
p0:mười+#
p0:y+bs
p0:điện+thoại+#
p0:quần+đảo
p0:trước+nhất
p0:thảm+trạng
p0:cường+#
p0:trần+ngọc+đoàn
p0:trình+tự
p0:vp
p0:nguyễn+văn+toàn
p0:bưu+điện+#
p0:bất+cứ+#
p0:ngôi+sao
p0:ts
p0:cửa+quan
p0:mé
p0:thời+gian+biểu
p0:lục+vân+tiên
p0:chế+phẩm
p0:sứ+mệnh
p0:t.
p0:nhà+trai
p0:45+.+000
p0:tờngôn+dâu
p0:ðối+thủ
p0:em+#+út
p0:không+lực
p0:chữ+#
p0:thủ+thiêm
p0:tampoi+#
p0:người+bệnh
p0:thợ+nề
p0:danh+bạ
p0:thành+lũy+#
p0:phẩm+chất
p0:kính+hiển+vi
p0:2+,+5+#
p0:vai+trò+#
p0:đại+học+thương+mại
p0:tỉ+lệ+#
p0:người+tình
p0:đồ+án
p0:tiếng+anh
p0:tranh+thủy+mặc
p0:huân+huy+chương
p0:bà+cháu
p0:nét+#
p0:anh+quân
p0:washington
p0:súng+đạn
p0:mặt+biển
p0:varennes
p0:tiền+túi
p0:gạch+#
p0:đạo+lý
p0:chất+nổ+#
p0:chứng+nhân+#
p0:ký+ức+#
p0:lửa+#
p0:nguyễn+thị+thanh+mai
p0:85%
p0:giấc+ngủ
p0:biểu+trưng
p0:lính+đánh+thuê
p0:lợi+thế
p0:tác+dụng+#
p0:864
p0:tiếng+lóng
p0:tuổi+thọ
p0:chữ+ký
p0:bấy+#
p0:cấu+tạo
p0:ước+mong
p0:paven+corsaghin
p0:thư+ký+#
p0:tin+vui
p0:dv+#
p0:giản+tư+trung
p0:nháy+mắt
p0:bán+kính
p0:đâu+đấy
p0:ống+kim+tiêm
p0:trống+quân
p0:87+#
p0:khổ+chủ
p0:đoàn+trưởng
p0:2+,+5%
p0:nhà+xuất+bản
p0:điểm+cao
p0:ơ
p0:nham+thạch
p0:tòng+phạm
p0:chuyên+khoa
p0:yết+hầu
p0:cồn+giá
p0:không+quân+#
p0:sắc+phục
p0:model
p0:kế+hoạch+#
p0:lý+#
p0:nét+mặt
p0:đốt+sống
p0:loa+thùng
p0:phật+bà
p0:tiết+diện
p0:nguyễn+trung+hiếu
p0:đồ+dùng
p0:nguyễn+văn+nhã
p0:tỉ+lệ+phần+trăm
p0:tiếng+nói+#
p0:linh+hồn
p0:vietnamworks+.+com
p0:thuốc+độc
p0:phần+mềm+#
p0:đồng+ruộng
p0:đấu+trường
p0:giấy+chứng+minh
p0:phần+mộ
p0:chủ+máy
p0:cố+nhân
p0:tân+binh
p0:tết+nguyên+đán
p0:hội+thảo+#
p0:khách+vãng+lai
p0:98%
p0:hồng+minh+vũ
p0:70+#
p0:máu+me
p0:n
p0:chương+#+t+rình
p0:phần+tử
p0:hầm+tàu
p0:cấp+cứu+viên
p0:tình+hình+#
p0:thuốc+trừ+sâu+#
p0:¼
p0:máu+mặt
p0:thằng+cha
p0:triết+lý
p0:tựa+đề
p0:công+lý
p0:á
p0:ngày+mai+#
p0:thái+dương
p0:nữ+giới
p0:quần+soóc
p0:sào+huyệt
p0:áo+dài
p0:năng+suất
p0:ngư+nghiệp
p0:lam+giang
p0:làng+xóm
p0:13+#
p0:chùm
p0:bộ+chỉ+huy
p0:tài+nghệ
p0:ruộng+vườn
p0:sang+nãm
p0:tin+đồn
p0:catalogue
p0:an+hiệp
p0:daklak
p0:chu+kỳ
p0:con+#+nhỏ
p0:pace
p0:điệp+khúc
p0:tất+thảy
p0:bác+tài
p0:lẽ+#
p0:johor+#
p0:của+nả
p0:cương+gián
p0:lưu+loát
p0:đêm+tối
p0:10+.+036
p0:chiều+cao
p0:thời+buổi
p0:muaythai+institute
p0:đôi+chút
p0:thâm+tâm
p0:thực+trạng
p0:vedan
p0:khoảng+cách+#
p0:hoằng+tân
p0:áo+phao
p0:nguyễn+thanh+tùng+#
p0:chăn+nuôi
p0:lĩnh
p0:bất+kể
p0:vừa+mới
p0:chính+#
p0:quan+niệm
p0:lệnh
p0:chủ+biên
p0:chài+lưới
p0:gáy
p0:tin+#
p0:chỉ+dẫn
p0:email
p0:tựa
p0:biến+động
p0:khát+khao
p0:ví+dụ
p0:ấy
p0:song
p0:'
p0:cũng+#
p0:thường
p0:bằng
p0:,
p0:pos:R
p0:pos:Mrk
p0:pos:T
p0:pos:P
p0:pos:X
p0:pos:N
p0:pos:V
p0:pos:C
p0:mà
p0:pos:A
p0:không
p0:sao
p0:chính
p0:"+#
p0:“
p0:chưa
p0:và
p0:đến
p0:cũng
p0:cả
p0:chỉ
p0:như
p0:"
p0:cùng
p0:còn
p0:vừa
p0:hoặc
p0:không+#
p0:nữa
p0:ngay
p0:cứ
p0:là
p0:đã
p0:,+#
p0:đang
p0:rất
p0:vẫn
p0:từ
p0:pos:E
p0:cho
p0:đây
p0:và+#
p0::
p0:pos:O
p0:-
p0:thì
p0:có
p0:;
p0:đâu
p0:pos:I
p0:nhưng
p0:lại
p0:lắm
p0:hơn
p0:pos:M
p0::+#
p0:vậy
p0:một
p0:thế
p0:thế+nào
p0:đấy
p0:...
p0:như+#
p0:như+vậy
p0:hầu+hết
p0:tức+là
p0:lập+tức
p0:đâu+#
p0:không+chỉ
p0:mãi
p0:nên
p0:hẳn
p0:hả
p0:mưa+#
p0:phân+#
p0:lý+do
p0:văn+phòng
p0:bình
p0:lợi+nhuận
p0:hội+họp
p0:bồ+bịch
p0:loan
p0:dàn
p0:khói
p0:quan+hệ+#
p0:chớp
p0:triển+lãm
p0:gùi
p0:công+tác+#
p0:chiếu
p0:hiệu
p0:hy+vọng
p0:phú
p0:vực
p0:đèo
p0:thu+nhập
p0:vô+số
p0:giáo+dục
p0:chi+phí
p0:dự+án
p0:giáp
p0:đề+xuất
p0:kiềng
p0:khát+vọng
p0:rọ
p0:vô+vàn
p0:lần+#
p0:suy+đoán
p0:tỉnh
p0:ngoại+giao
p0:mưu
p0:băng
p0:qui+hoạch
p0:đa+số
p0:tai+nạn
p0:thợ
p0:thẻ
p0:kệ
p0:kháng+chiến
p0:căn+cứ
p0:vướng+mắc
p0:vùng+#
p0:kỷ+niệm
p0:mọi
p0:bay
p0:bao
p0:kinh+doanh
p0:dịch
p0:trách+nhiệm
p0:yêu+cầu
p0:khơi
p0:giao+lưu
p0:phục+vụ
p0:khủng+bố
p0:xác+nhận
p0:cua
p0:bí+mật
p0:thành+công
p0:cấp
p0:đền
p0:cầu
p0:bàn
p0:báo
p0:đốt
p0:phiên
p0:đệm
p0:bọc
p0:đại
p0:tính
p0:điện
p0:sinh+hoạt
p0:đập
p0:đậu
p0:suy+nghĩ
p0:bẫy
p0:bắc
p0:cướp
p0:chủ+trương
p0:nhóm+#
p0:bảo+hiểm
p0:khóa
p0:chỉ+huy
p0:phong
p0:thăng
p0:yêu+thương
p0:lao+động
p0:dạo
p0:đội
p0:tổ+chức
p0:câu
p0:cột
p0:nghi+vấn
p0:thành
p0:đánh+giá
p0:môi+giới
p0:hướng
p0:chất
p0:mại+dâm
p0:đổi+mới
p0:lan
p0:chứng+minh
p0:quần
p0:hòa
p0:hiện
p0:phân
p0:phát
p0:pos:NP
p0:gác
p0:nhận+định
p0:kia
p0:vùng
p0:thông+tin
p0:gói
p0:ngã
p0:neo
p0:điện+thoại
p0:gánh
p0:đào
p0:cưa
p0:lát
p0:tưởng
p0:lãi
p0:kéo
p0:đấu+tranh
p0:đề
p0:du+lịch
p0:thắng
p0:hành+động
p0:cảm+giác
p0:tiến
p0:tin
p0:thu
p0:đi+lại
p0:sản+xuất
p0:than
p0:giải
p0:tự
p0:tâm+sự
p0:nợ
p0:sắp
p0:vẽ
p0:nỗ+lực
p0:thất+bại
p0:buộc
p0:hi+vọng
p0:mưa
p0:thu+hoạch
p0:vật
p0:thông+báo
p0:cống+hiến
p0:đá
p0:đại+diện
p0:gầm
p0:tranh
p0:mất+mát
p0:cuốn
p0:quan+hệ
p0:trụ
p0:thông
p0:sơn
p0:kẻ
p0:lộ
p0:lỗ
p0:cố
p0:bò
p0:mở+cửa
p0:bảo+vệ
p0:ký
p0:ảnh+hưởng
p0:báo+cáo
p0:xô
p0:thanh+tra
p0:khủng+hoảng
p0:thiết+kế
p0:công+tác
p0:chống
p0:kết+luận
p0:nhắn+tin
p0:mới+#
p0:mơ+ước
p0:thử+thách
p0:ngay+#
p0:vô
p0:luôn
p0:phải
p0:tới
p0:riêng
p0:càng
p0:chẳng
p0:mới
p0:gì
p0:đến+#
p0:giữa
p0:chỉ+#
p0:cả+#
p0:ra
p0:nắng
p0:cách
p0:xuôi
p0:toàn
p0:vốn
p0:nguyên
p0:hơi
p0:được+#
p0:kế
p0:những
p0:pos:L
p0:nào
p0:sẽ
p0:giống
p0:pos:S
p0:đầy
p0:khá
p0:khó
p0:hết+sức
p0:nhiều
p0:đủ
p0:quí
p0:quá
p0:nhỏ
p0:sớm
p0:ít
p0:đúng
p0:hết
p0:xa
p0:gần
p0:cứ+#
p0:gần+#
p0:quyết+định
p0:bao+giờ
p0:điều
p0:vòng
p0:đó
p0:chi
p0:gì+#
p0:thương
p0:bước
p0:cân
p0:loại
p0:này
p0:từng
p0:tập
p0:nhau
p0:hoạt+động
p0:học
p0:lời
p0:/
p0:lần
p0:đồng
p0:một+mình
p0:từng+#
p0:ven
p0:bình+quân
p0:quả
p0:sai+phạm
p0:ít+nhất
p0:an+toàn
p0:các
p0:tiếng
p0:phòng
p0:chuyến
p0:ngày+đêm
p0:ấn+tượng
p0:mỗi
p0:chín
p0:dự+kiến
p0:bầu
p0:cam+kết
p0:lao
p0:biểu+hiện
p0:men
p0:đề+nghị
p0:qui+định
p0:bảo+vệ+#
p0:nhận+xét
p0:tập+hợp
p0:cảnh+báo
p0:có+#
p0:ví
p0:sang+#
p0:sát
p0:mãi+mãi
p0:xúc+động
p0:rất+#
p0:thoáng
p0:khổ+nỗi
p0:duy
p0:học+lực
p0:sau+này
p0:vậy+#
p0:nhật
p0:i
p0:pos:Y
p0:thỉnh+thoảng
p0:hiv
p0:đời
p0:ông
p0:&
p0:b
p0:ngoài
p0:pos:Ny
p0:thế+#
p0:pos:Nc
p0:nhà
p0:người
p0:của
p0:hầu+như
p0:ngày
p0:trời
p0:ngôi
p0:thỉnh+thoảng+#
p0:vậy+mà
p0:rứa
p0:cheo
p0:dương+tuấn
p0:thái+mỹ
p0:chung+khảo+#
p0:giá+#
p0:quần+áo
p0:dân+chúng
p0:trâu
p0:trâm
p0:vợ+#
p0:nguồn+gốc
p0:số+lượng
p0:tui+#
p0:cường
p0:ngân+sách
p0:khách+sạn
p0:giấy+#
p0:ngư+dân
p0:bụi+bặm
p0:đêm+#
p0:chai
p0:phú+hữu
p0:chợ+#
p0:hoa+phượng
p0:biên+giới
p0:cà+phê
p0:bình+xuyên
p0:dịch+vụ
p0:thể+dục
p0:ban
p0:huân+chương
p0:trước+kia
p0:đàn+ông
p0:thủy+sản
p0:chủ+nhật
p0:đầu+nậu
p0:chi+cục
p0:ống
p0:miền+#
p0:bộ+phận
p0:kết+quả
p0:hòa+bình
p0:băng+ca
p0:trang+trại
p0:phổi
p0:dự+đoán
p0:anh
p0:nữ+#
p0:trưởng+phòng
p0:con+cháu
p0:thành+tích
p0:lòng+sông
p0:yersin
p0:đầu+mối
p0:hành+lang
p0:trúc
p0:chính+sách
p0:tây+ninh
p0:con+em
p0:hà+tĩnh
p0:con+bé
p0:cô+ta
p0:bộ+môn
p0:tác+giả
p0:luật
p0:người+ta
p0:cửa+sổ
p0:cửa+biển
p0:ads
p0:tuyến+#
p0:đỗ+quốc+việt
p0:thợ+săn
p0:loài
p0:quan+tài
p0:dntn
p0:qui+trình
p0:tỉnh+ủy
p0:muay+thái
p0:nhuận+đức
p0:trảng
p0:hồ+sơ
p0:cơ+ngơi
p0:thiên
p0:việc+làm
p0:chuyên+ngành
p0:wilson
p0:thập+kỷ
p0:gió+chướng
p0:miếng
p0:chị+em
p0:nghề+nghiệp
p0:viện+#
p0:kỹ+năng
p0:đường+hầm
p0:dấu+hiệu
p0:mã+đà
p0:ông+bà
p0:em+#
p0:âm+mưu
p0:hạt+#
p0:chiến+#+trường
p0:thương+mại
p0:đối+phương
p0:cờ+bạc
p0:nhân+vật
p0:virus+#
p0:tổng
p0:đinh+lễ
p0:hình+thù
p0:tiếng+tăm
p0:mươi
p0:êkip
p0:xe+hơi
p0:biểu+tượng
p0:sự+cố
p0:bà+con
p0:nguyên+tắc
p0:nay+#
p0:đdv
p0:đội+trưởng
p0:cây+bút
p0:phạm
p0:đĩa+#
p0:axan
p0:núi+rừng
p0:mười+bảy
p0:phấn
p0:giả+thiết
p0:tư+duy
p0:quần+áo+#
p0:ðại+học
p0:clb
p0:chuyên+gia
p0:cộng+tác+viên
p0:ðiện+thoại+di+ðộng
p0:tp.+hcm
p0:làng
p0:chà
p0:chú
p0:chó
p0:thanh+thiếu+niên
p0:300+.+000
p0:nhật+bản
p0:đồng+nai
p0:mức+độ
p0:pheromon
p0:liên+hoan
p0:công+trường
p0:ấp
p0:chân+dung
p0:tụi+#
p0:cty
p0:kiến+trúc+sư
p0:chúng+tôi+#
p0:mánh
p0:cảm+tình
p0:thế+nào+#
p0:virus
p0:phố+#
p0:ổ+#
p0:mặt+mày
p0:quân+#
p0:trần+văn+giàu
p0:nhà+hàng+#
p0:cửa+hàng
p0:xe+lăn
p0:long+thành
p0:tôi+#
p0:sơn+tây
p0:bạn+bè
p0:màn+hình
p0:nhân+sự
p0:bắc+ninh
p0:thân+hình
p0:website+#
p0:xe+máy
p0:đàn+anh
p0:cách+mạng
p0:chính+phủ
p0:ccv
p0:thủ+đoạn
p0:ba+châu
p0:600+.+000
p0:bến+xe
p0:tâm+trạng+#
p0:cam
p0:bất+kỳ
p0:xưa
p0:cha
p0:vợ+chồng+#
p0:koto
p0:chất+độc+#
p0:d+.
p0:thị+trường+#
p0:trung+tá
p0:củ+mì
p0:tài+sản+#
p0:khăm+xúc
p0:học+viện
p0:hoạn+nạn
p0:phận
p0:mỹ+#
p0:500.000
p0:bql
p0:mành
p0:nokia
p0:bom
p0:trung+tâm
p0:xuồng
p0:mãi+lộ
p0:tốc+độ
p0:quy+luật
p0:vùng+cao
p0:trường+hợp
p0:điện+thoại+di+động
p0:yoih
p0:lâm+nhi+#
p0:malaysia+#
p0:giấy+tờ
p0:hang
p0:nhà+văn+hóa
p0:buh
p0:ủy+viên
p0:tay+chân
p0:yếu+tố
p0:hiện+thực
p0:thể+loại
p0:đảng+bộ
p0:lâm+đồng
p0:nhơn+trạch
p0:bom+loọng
p0:cuối+#
p0:muôn
p0:bãi
p0:bão
p0:đông+dương
p0:h+.
p0:con+thơ
p0:đối+tượng+#
p0:du+kích+#
p0:nhiệt+độ
p0:trước+mắt
p0:bài
p0:đường+dây
p0:bây+giờ
p0:bò+#
p0:bát
p0:james
p0:bác
p0:thông+điệp
p0:sư+đoàn
p0:trụ+sở
p0:thù+lao
p0:fax
p0:bước+đầu
p0:bồn
p0:hóa+chất+#
p0:m+.+u
p0:đời+sống
p0:nước+biển
p0:đốm
p0:nguyễn+ái+quốc
p0:giám+đốc
p0:ổng
p0:thương+hiệu
p0:bảo+lâm
p0:bột
p0:nhà+máy
p0:công+sự
p0:phụ+nữ
p0:trần+hưng+đạo
p0:địa+chỉ
p0:pháo+kích
p0:phụ+huynh
p0:bọn
p0:bọt
p0:chương
p0:ngoại+ngữ
p0:cậu
p0:trà+vinh
p0:chặng
p0:ký+ức
p0:bêtông
p0:phóng+sự
p0:bưu+điện
p0:bản
p0:thiếu+úy
p0:súng+#
p0:chí+hướng
p0:chúng
p0:chủ+tịch
p0:suny+brockport
p0:em+út
p0:bà+cụ
p0:lúc+nào
p0:bản+thân
p0:cận+cảnh
p0:nhà+giam
p0:bầy
p0:viện+trưởng
p0:hộ+khẩu
p0:luật+sư+#
p0:điếu
p0:thái+độ
p0:địa+điểm
p0:tập+#+đoàn
p0:mì+tôm
p0:giáo+viên
p0:ước+mơ
p0:tích
p0:sáng+kiến
p0:công+vụ
p0:thanh+sơn
p0:bà+mẹ
p0:tác+giả+#
p0:lều+#
p0:chi+bộ
p0:cảnh+sát
p0:điệu
p0:san+hô
p0:67
p0:64
p0:68
p0:61
p0:quy+định
p0:gương
p0:56
p0:59
p0:chuồng
p0:52
p0:mâu+thuẫn+#
p0:80
p0:người+nhà
p0:chế+độ
p0:70
p0:long
p0:thực+đơn
p0:đồng+xoài
p0:23
p0:21
p0:26
p0:18
p0:miểng
p0:500+#
p0:16
p0:cha+con
p0:40
p0:41
p0:49
p0:47
p0:lồng
p0:39
p0:ccv+#
p0:nghị+lực
p0:vụ+việc+#
p0:36
p0:33
p0:sức+lực
p0:34
p0:29
p0:28
p0:học+bổng
p0:bậc
p0:kinh+phí
p0:hải+phòng
p0:nilông
p0:bọ+hà
p0:vùng+biển
p0:giây+phút
p0:đầm
p0:gia+súc
p0:nhà+nghỉ
p0:yên+bái
p0:thường+lệ
p0:đảo
p0:90
p0:97
p0:nông+sản
p0:nắng+mưa
p0:văn+chương
p0:ba+#
p0:trưởng+ban
p0:đạn
p0:bạn+bè+#
p0:con+người
p0:cước
p0:unilever
p0:dịp
p0:mồng
p0:chuông
p0:bản+đồ
p0:cụm
p0:vị+trí
p0:dệt
p0:nguyễn+văn+toại
p0:dân+làng
p0:triều+cường
p0:kiểu
p0:củi
p0:thói+quen
p0:ông+già
p0:thuốc+mê
p0:hcm
p0:kiến
p0:thuốc+lá
p0:đèn+pin
p0:kiếp
p0:chuẩn+mực
p0:heo
p0:trang+phục
p0:19+.+000
p0:dâu
p0:nhân+lực
p0:khóe
p0:vật+chất
p0:bút+danh
p0:fred
p0:rặng
p0:mười+minh
p0:dãy
p0:môi+trường
p0:hhc
p0:ba+phước
p0:công+nghệ
p0:đầu+gối
p0:xe+điện+ngầm
p0:trưởng+#
p0:bình+thuận
p0:thanh+hóa+#
p0:trường+hợp+#
p0:lẽ+phải
p0:khúc
p0:sông+rạch
p0:cơ+thể
p0:tin+tức
p0:ngõ+ngách
p0:túi+xách
p0:ụ
p0:mấy+#
p0:khiêm
p0:ổ
p0:điên+điển+#
p0:điện+tử
p0:người+#
p0:trái+tim
p0:con+nhỏ
p0:cói
p0:bản+#
p0:khăn
p0:lịch+sử
p0:châu+âu
p0:thành+viên
p0:thiếu+nhi
p0:mật+độ
p0:bức
p0:chồn
p0:hđxx
p0:không+gian
p0:sự+thật
p0:họ+#
p0:xuân+đám
p0:dầu
p0:hỏa+hoạn
p0:bụi
p0:sông+#
p0:cơ+quan
p0:gió
p0:chốn
p0:phó+giám+đốc
p0:lão+#
p0:nghĩa+địa
p0:phen
p0:trọng+tài
p0:dải
p0:khoai+#
p0:hđnd
p0:đông+hà
p0:đồi
p0:bướm
p0:nhân+dân+#
p0:phim
p0:quán+#
p0:danh+sách
p0:đỗi
p0:cán
p0:cái
p0:tư+nhân
p0:bưởi
p0:dáng+vẻ
p0:kỳ+quan
p0:hành+trang
p0:vòi+rồng
p0:ba+vạn
p0:đông+du
p0:bản+kẽm
p0:phao
p0:bom+đạn
p0:biệt+thự
p0:nhu+cầu
p0:bún
p0:bùn
p0:cha+anh
p0:khối
p0:kế+hoạch
p0:cồn
p0:thần+kinh
p0:thuyền+trưởng
p0:củ+chi+#
p0:cốc
p0:bìa
p0:thành+ủy
p0:bữa
p0:đức
p0:cọp
p0:đứa
p0:nhà+thơ
p0:khâu
p0:ô+tô
p0:đêm+ngày
p0:tường+#
p0:cọc
p0:pháp+lý
p0:xẻng
p0:động+mạch
p0:sơ+đồ
p0:thượng+nguồn
p0:hội+nghị
p0:đường+đất
p0:nhà+máy+#
p0:bangkok
p0:ghe+cào
p0:tử+tội
p0:chông
p0:khai+minh
p0:trái+đất
p0:nghị+quyết
p0:sương
p0:nhiên+liệu
p0:tp+#
p0:quần+đùi
p0:trẻ+con
p0:đối+tác
p0:hòa+châu
p0:hướng+#
p0:tp+.+hcm
p0:ba+hạo
p0:an+giang
p0:con+cái
p0:tiểu+thuyết
p0:thương+tật
p0:hội+đồng
p0:hiện+tượng
p0:mãng+cầu
p0:cánh
p0:phạm+vi
p0:tiêu+chuẩn
p0:già+làng
p0:giá+cả+#
p0:thằng
p0:quảng+trị
p0:dạng
p0:tp.hcm
p0:hán+đà
p0:đt+di+động
p0:đảng+ủy
p0:con+trai+#
p0:quê+hương
p0:bố+mẹ
p0:bùi+a
p0:trước+hết
p0:lã+thị+kim+oanh
p0:viện+kiểm+sát
p0:cedar+fall
p0:đĩa
p0:máy+bay+#
p0:hồ+hảo+hớn
p0:chữ+nghĩa
p0:chiến+sĩ
p0:dư+luận
p0:tín+dụng
p0:ruộng
p0:đồng+lương
p0:tín+hiệu
p0:nó+#
p0:người+mẹ
p0:đằng+#
p0:hormon
p0:máy+#
p0:phân+nửa
p0:vùng+đất
p0:giai+đoạn
p0:ibm
p0:trương+văn+lâm
p0:trận+địa
p0:giá+cả
p0:nhãn
p0:nhát
p0:hiên+#
p0:chảo
p0:trăng
p0:karaoke
p0:sea+games
p0:vũ+khí+#
p0:địa+chất
p0:em+trai
p0:con+số
p0:cửa+ngõ
p0:ngư+phủ
p0:nhà+giáo
p0:trường+#
p0:mặt+hàng
p0:tính+cách
p0:vientiane
p0:bác+hồ
p0:vũng+tàu
p0:xà+bông
p0:con+#+gái
p0:hôn+nhân
p0:dăm
p0:ngày+nay
p0:k+.
p0:phước+thành
p0:chợ+búa
p0:kẻ+#
p0:gốc+#
p0:k+#
p0:tỉ+phú
p0:thân+xác
p0:chiến+dịch+#
p0:thành+phần
p0:vợ+con
p0:công+trình
p0:khuôn+mặt
p0:lăng+cô
p0:chất+độc
p0:lương+bổng
p0:hiệu+trưởng
p0:luồng
p0:bấy+lâu
p0:phúc
p0:tuấn
p0:quận
p0:tuần
p0:tổng+cục
p0:thân+thể
p0:oxy+shop
p0:đường+biên
p0:xuân+hòa
p0:trung
p0:gạo+#
p0:quầy
p0:bạn+đọc
p0:nông
p0:khâm+đức
p0:nhân+viên
p0:tiền+bạc
p0:đạo+đức
p0:ký+túc+xá
p0:nghị
p0:tượng
p0:vỉa+hè
p0:đội+ngũ
p0:new+zealand
p0:lục+lạc
p0:thuế
p0:đại+dương
p0:thuở
p0:thạc+sĩ
p0:tương+lai
p0:quá+khứ
p0:đồn+bót
p0:thủ+phủ
p0:nhà+cửa
p0:ngày+mai
p0:liên
p0:cửa+khẩu
p0:con+trai
p0:thương+lái
p0:loa
p0:khoa
p0:lon
p0:thạch+bằng
p0:hòn
p0:chân+#
p0:lê+thị+thu+hiền
p0:nguyện+vọng
p0:hiệu+quả
p0:nhiệm+vụ
p0:hôm
p0:đường+bộ
p0:chuyện+#
p0:nước+da
p0:hằng+#
p0:hiền
p0:tổng+số
p0:ccnv
p0:bản+quyền
p0:hiệp
p0:đơn
p0:trẻ+em
p0:học+phí
p0:100+.+000
p0:minh
p0:kcn
p0:bánh
p0:địa+đạo+#
p0:pháo
p0:pháp
p0:kem
p0:keo
p0:khoán
p0:gái
p0:máy+phát+điện
p0:pos:Nb
p0:gàu
p0:m+.
p0:bài+#
p0:khu
p0:khu+phố
p0:kho
p0:chiếc
p0:khe
p0:kha
p0:xe+ôm
p0:bài+học
p0:diện+tích
p0:hùng+#
p0:chừ
p0:lúc+#
p0:loạt
p0:chữ
p0:đồng+bằng
p0:khí
p0:tầng
p0:chị
p0:bệnh+xá
p0:chỗ
p0:kích+thước
p0:bệnh+#
p0:tài+chính
p0:rừng+núi
p0:thuốc+phiện
p0:tình+thương
p0:đài+truyền+hình
p0:bình+sơn
p0:điều+khoản
p0:mưa+phùn
p0:lý+lịch
p0:góc
p0:mưa+lũ
p0:150.000
p0:trí+thức
p0:ngang+dọc
p0:tiền+lệ
p0:buổi+sáng
p0:du+học+sinh
p0:ngõ
p0:tân+thanh
p0:nhã
p0:an+ninh
p0:quảng+ninh
p0:nhu
p0:tảng
p0:mặt+bằng
p0:nhi
p0:nga
p0:hè+phố
p0:bảo+mẫu
p0:nem
p0:tường
p0:sơn+trà
p0:skindeoymp
p0:nai
p0:đối+thủ
p0:giải+pháp
p0:ngô+thị+bi+bi
p0:hồng
p0:bất+cứ
p0:nghĩa+trang
p0:thừa+thiên
p0:mặt+đất
p0:gia+lâm
p0:cáo+trạng
p0:hãng
p0:dây+điện
p0:hàm+răng
p0:chư+prông
p0:thương+binh
p0:nước+sạch
p0:vợ+chồng
p0:thời+kỳ
p0:tổ+#
p0:ngõ+#
p0:quân+đội
p0:nạn+nhân+#
p0:dầu+giây
p0:ý+nghĩ
p0:thâm+niên
p0:non
p0:đồng+lõa
p0:1+.+100
p0:hàng+quán
p0:diễn+đàn
p0:lịch
p0:ủy+ban
p0:tầm+súng
p0:lê+trung+thành
p0:cách+thức
p0:quần+thể
p0:thực+chất
p0:dòng+chảy
p0:lãi+ròng
p0:xuân
p0:mai
p0:máy+tính
p0:thành+cổ
p0:trần+văn+hợi
p0:500+.+000
p0:người+thân
p0:thời+vụ
p0:quảng+bình
p0:ôtô
p0:đàn
p0:đài
p0:phú+yên
p0:hiểm+họa
p0:ba+hạo+#
p0:6+.+000
p0:phía+#
p0:lượt
p0:đám
p0:nậm+ngừm
p0:biên+hòa
p0:đáy
p0:tổ+tiên
p0:sự+kiện
p0:sông+đà
p0:nong+tum
p0:sản+phụ
p0:công+sức
p0:muối
p0:phút+giây
p0:tháng+#
p0:lượng
p0:cienco
p0:toán
p0:thùy+trâm
p0:thủ+phạm+#
p0:mô+hình
p0:đường+ống
p0:thượng+tá
p0:phần+#
p0:anh+#
p0:bọn+#
p0:muỗi
p0:khu+vực
p0:con+gái
p0:con+#+trai
p0:hằng
p0:lđ+#
p0:kiểm+lâm
p0:bán+đảo
p0:công+dân
p0:phó
p0:khoang
p0:phà
p0:đùi
p0:cánh+tay
p0:vốn+liếng
p0:ung+thư+#
p0:vựa
p0:sự+#
p0:quang
p0:giáo+sư+#
p0:phan+thiết
p0:chiến+tranh+#
p0:mưu+chước
p0:tình+dục
p0:lân
p0:lúa+rẫy
p0:làn
p0:chiều+chiều
p0:đảng+viên
p0:nhật+#
p0:lái+xe
p0:vợt
p0:bộ+máy
p0:cầu+lông
p0:quảng+ngãi
p0:đồng+đăng
p0:biện+pháp
p0:300+triệu
p0:xưởng
p0:giấc+mơ
p0:lão
p0:nước+mắt+#
p0:đích
p0:giường
p0:nhà+thờ
p0:tình+trạng
p0:anh+trai
p0:tập+đoàn
p0:điện+tử+#
p0:khách+hàng
p0:hưng+long
p0:gia+định
p0:lạng+sơn
p0:giày+#
p0:nhà+thầu
p0:phó+chủ+tịch
p0:luyến
p0:nhà+trọ
p0:mặt+mũi
p0:internet
p0:buổi+#
p0:cổ+tích
p0:ntls
p0:tám+#
p0:cha+#
p0:anh+em+#
p0:chiến+trường
p0:sự+việc
p0:huế
p0:tổng+giám+đốc
p0:phu+cút
p0:dân+số
p0:tiếng+#
p0:sông
p0:các+#
p0:giỏ
p0:cát+bà
p0:kèo
p0:12+.+000
p0:ghế
p0:vịt
p0:qui+luật
p0:bốn+#
p0:bệnh+viện
p0:rạng
p0:lề+đường
p0:xuân+lộc
p0:ngày+sinh
p0:quyên
p0:cửu+vạn
p0:trýờng
p0:bình+phước
p0:phương+tiện
p0:tham+vọng
p0:dáng
p0:công+viên
p0:phương+thức
p0:biết+bao+nhiêu
p0:malaysia
p0:địa+bàn
p0:ống+nhòm+#
p0:hố+ga
p0:chủ+nhân
p0:đường+ray
p0:hai+bà+trưng
p0:văn+sĩ
p0:thứ+sáu
p0:bố+mẹ+#
p0:bánh+chưng
p0:triệu+phú
p0:dị+tật
p0:kíp
p0:dây+chuyền
p0:sầu+riêng
p0:thư+#
p0:máy+bộ+đàm
p0:cô+giáo
p0:tổng+thể
p0:copywriter
p0:chiến+hào
p0:liên+xô
p0:tang+lễ
p0:môn
p0:môi
p0:350
p0:nhân+chứng
p0:container
p0:nông+thôn
p0:món
p0:tình+nhân
p0:miền
p0:puma
p0:cộng+đồng
p0:đồ
p0:mùa
p0:công+nhân+viên
p0:huyện+lỵ
p0:mồi
p0:mồm
p0:mấy+mươi
p0:tòa+soạn
p0:năng+lực
p0:mối
p0:anh+chị
p0:anh+chị+em
p0:thầy
p0:dưa+hấu+#
p0:chúng+mình
p0:nếp
p0:phú+mỹ
p0:bút+lục
p0:tổng+thống+#
p0:ba+tơ
p0:học+trò
p0:thành+phố
p0:thảo
p0:thảm
p0:xã+hội
p0:đại+dịch
p0:300
p0:chừng+mực
p0:hiroshima+#
p0:lâm+tặc
p0:cánh+#
p0:mái
p0:mày
p0:mâm
p0:thầy+giáo
p0:vụ+án
p0:hệ+lụy
p0:loại+#
p0:trách+nhiệm+#
p0:tùng
p0:miệt
p0:cuộc+chiến
p0:du+kích
p0:tầm+nhìn+xa
p0:nagasaki+#
p0:mép
p0:nhân+phẩm
p0:nhân+viên+#
p0:sự+nghiệp
p0:cam+ly
p0:xác+#
p0:sân+khấu
p0:mức
p0:mít
p0:hàng+hành
p0:a+khâm
p0:vết+thương
p0:khoảng+cách
p0:công+lý+#
p0:cảnh+quan
p0:nón
p0:nóc
p0:quỳnh+lưu
p0:nội
p0:nồi
p0:tàn+quân
p0:hàng+loạt
p0:adidas
p0:bác+sĩ
p0:kỷ+lục
p0:mùa+#
p0:nút
p0:thị+trấn
p0:câu+thơ
p0:bảng+biểu
p0:phương+án
p0:dữ+liệu
p0:1+.+500
p0:khía+cạnh
p0:việt+minh
p0:tiền+lương
p0:400
p0:chư+pah
p0:nguyễn+kỳ+sơn
p0:trai+tráng
p0:đấu+sĩ
p0:nhân+công
p0:bình+thạnh
p0:cô+dâu
p0:tám+xáng
p0:bình+dương
p0:nhà+lầu
p0:nãm
p0:hình+thức
p0:nước+ngọt
p0:mạch+máu
p0:lũ+quét
p0:não
p0:đô+thị
p0:nứa
p0:đội+hình
p0:5+#
p0:âm+thanh
p0:đồng+đẳng+viên
p0:thằng+#
p0:nén
p0:phế+liệu
p0:chủ+nhiệm
p0:hương+rừng
p0:rob
p0:ron
p0:roi
p0:hành+trình
p0:tổng+công+ty
p0:tình+cảm+#
p0:ý+tưởng
p0:số+#
p0:trần+bạch+đằng
p0:bàn+tay
p0:cỏ+tranh
p0:speedo
p0:ngao
p0:tao
p0:tai
p0:thời
p0:máy+ảnh
p0:đầu+tàu
p0:máy+vi+tính
p0:thpt
p0:mẫu+mã
p0:con+người+#
p0:matxcơva
p0:động+tác
p0:hạ+tầng
p0:lộc+ngãi
p0:ngày+trước
p0:tiệc
p0:tiền+giang
p0:tiệm
p0:tia
p0:tiếp+viên
p0:nhà+bè
p0:nhà+ga
p0:sài+gòn
p0:hàng+xóm
p0:giới+tính
p0:nhà+riêng
p0:du+khách
p0:thái+bình
p0:phường
p0:buồng
p0:thửa
p0:tình+nguyện+viên
p0:củ+chi
p0:giàn
p0:tội+ác
p0:khu+chế+xuất
p0:địa+ngục
p0:chiên
p0:cô+gái
p0:mình+mẩy
p0:truyền+hình
p0:trạm+xá
p0:10+#
p0:sim
p0:quê+#
p0:công+cuộc
p0:thực+vật
p0:tuổi+#
p0:mặt+trận
p0:con+nước
p0:khung+cảnh
p0:quyền+anh
p0:tử+thần
p0:nhà+xe
p0:đài+loan
p0:địa+vị
p0:chứng+tích
p0:quân+đội+#
p0:1+,+5+triệu
p0:doanh+nghiệp
p0:hà+tây
p0:hải+sản
p0:boong
p0:tiên+sơn
p0:tân+bình
p0:thềm
p0:cao+su
p0:lựu+đạn
p0:giếng
p0:sức+khỏe
p0:ai+#
p0:hoạn+thư
p0:cuối+cùng+#
p0:việt+kiều
p0:ba+ba
p0:gia+đình+#
p0:phần+thưởng
p0:400+.+000
p0:hậu+quả
p0:ximăng
p0:ngân+hàng
p0:hàng+hiệu
p0:anh+em
p0:nhà+cái
p0:tướng
p0:dải+phân+cách
p0:toa
p0:xương+máu
p0:quân+dân
p0:ăcqui
p0:năm+ngoái
p0:linh+sơn
p0:40+#
p0:thợ+mộc
p0:tre
p0:thơ
p0:khách+hàng+#
p0:tro
p0:tp+.hcm
p0:hoàng
p0:thú
p0:công+việc
p0:tinh+thần
p0:rắn
p0:tp.
p0:nước+khoáng
p0:giấc+#+mơ
p0:rằm
p0:máy+ghi+âm
p0:sáu+#
p0:agrí
p0:vận+động+viên
p0:tự+thân
p0:2+,+5
p0:thcs
p0:lòng+#
p0:nhà+rường
p0:biển+lạc
p0:úc+#
p0:tui
p0:vật+liệu
p0:ung+thư
p0:mẹ+con
p0:thau
p0:đường+phố
p0:tên+tuổi
p0:phượng
p0:trọng+lượng
p0:tội+phạm
p0:vip
p0:lâm+trường
p0:liên+hiệp
p0:thuốc+lào
p0:nước+mặn
p0:hang+động
p0:thức+ăn
p0:ma+túy
p0:vks
p0:điều+tra+viên
p0:khởi+nghĩa
p0:áo+#
p0:sạp
p0:van
p0:sạn
p0:máy+khoan
p0:tình+hình
p0:đằng
p0:vành
p0:đôla
p0:rác
p0:võ+thuật
p0:đại+học+#
p0:giải+thưởng
p0:hàng+rào
p0:lô+cốt
p0:hai+#
p0:huế+#
p0:rộc
p0:sổ
p0:phong+cách
p0:bấy+giờ
p0:rổ
p0:giấc
p0:mạch
p0:rể
p0:khu+công+nghiệp
p0:đường+kính
p0:tờ
p0:giấy
p0:tủ
p0:nhựa
p0:sự
p0:sở
p0:nữ
p0:nụ
p0:lý+bỉnh+sâm
p0:mỹ
p0:mớ
p0:mỡ
p0:đồng+minh
p0:niềm+tin
p0:biệt+danh
p0:vũ+khí
p0:50+#
p0:chị+#
p0:mũ+bảo+hiểm
p0:dân+#
p0:họ+hàng
p0:hải+dương
p0:y+tế
p0:phở+#
p0:trước+đây
p0:trường+sơn
p0:mùa+khô
p0:quân+khu
p0:sắt
p0:cao+nguyên
p0:vụ
p0:vở
p0:hà+nội+#
p0:máy+móc
p0:vợ
p0:usd
p0:vỏ
p0:gạch
p0:trung+học
p0:ngựa+#
p0:đồ+nghề
p0:xế
p0:tầm+vông+#
p0:mạng+lưới
p0:niềm
p0:danh+hiệu
p0:tivi
p0:ngày+tháng
p0:mưa+gió
p0:thế+hệ
p0:điểm+nóng
p0:nhật+ký
p0:xe+cộ
p0:thủy+thủ
p0:wmc
p0:giới
p0:tấm
p0:ngôn+ngữ
p0:hậu+cứ
p0:70+.+000
p0:năm+học
p0:sếp
p0:quanh+năm
p0:lãi+suất
p0:ngón
p0:ngói
p0:thế+giới+#
p0:tp+.+hcm+#
p0:quả+#
p0:sàn
p0:trung+đoàn
p0:bạn+đọc+#
p0:sáu
p0:sân
p0:mỹ+nghệ
p0:vn+#
p0:sách+#
p0:nữ+sinh
p0:phú+quốc
p0:ý+muốn
p0:y+học
p0:sới
p0:thời+khắc
p0:bà+#
p0:tên+#
p0:đà+lạt
p0:mũ+#
p0:xã+#
p0:nguyễn+thanh+mỹ
p0:đa+dạng+sinh+học
p0:quốc+lộ
p0:ngựa
p0:rìa
p0:sốc
p0:nguy+cơ
p0:philippines
p0:bữa+#
p0:trần+minh+đức
p0:voi
p0:cù+lao
p0:giọt
p0:rựa
p0:hạ+nguồn
p0:móng
p0:lang
p0:trung+hữu
p0:đà+nẵng
p0:sức+ép
p0:nước+mắm
p0:bàu+cạp+#
p0:sọt
p0:quyền
p0:thùy
p0:kuala+lumpur
p0:lâm+nhi
p0:tuyết
p0:giá+rai
p0:gian
p0:nguyễn+ngọc+vinh
p0:quyển
p0:chúng+ta
p0:singapore
p0:giờ+đây
p0:trở+ngại
p0:hộ+chiếu
p0:đtdđ
p0:độc+dược
p0:phố
p0:lịch+sử+#
p0:phở
p0:phu+phả+xây
p0:một+số+#
p0:tuổi+thơ
p0:rmah+rô
p0:biển+số
p0:đơn+vị+#
p0:thóc
p0:cuộc+đời
p0:thói
p0:tâm
p0:tân
p0:thôn
p0:tàu
p0:110
p0:sợi
p0:khoai+lang+#
p0:la+gi
p0:tám
p0:tánh+linh
p0:125
p0:thủ+tục
p0:buổi
p0:thân+nhân
p0:vườn
p0:101
p0:võ+sĩ
p0:súc
p0:thanh+hóa
p0:ít+lâu
p0:người+yêu
p0:duy+trung
p0:nửa+#
p0:bí+thư
p0:xe+lửa
p0:bia+mộ
p0:mật+#
p0:dankia
p0:sữa
p0:tỉ+lệ
p0:kiến+thức
p0:chỉ+tiêu
p0:mảng
p0:mảnh
p0:tính+mạng
p0:kim+loại
p0:sức+sống
p0:nội+thành
p0:xe+đò
p0:đứa+#
p0:hôm+nay+#
p0:chính+quyền
p0:phong+trào
p0:hà+đông
p0:cửa+#
p0:đoàn
p0:giờ+#
p0:động+thái
p0:100.000
p0:bom+nguyên+tử+#
p0:cố+vấn
p0:cương+vị
p0:vật+dụng
p0:2+#
p0:2,2
p0:cần+cẩu
p0:vấn+đề+#
p0:vải
p0:đất+đai
p0:lông
p0:quãng
p0:thang
p0:thanh
p0:210
p0:20+#
p0:phiên+tòa
p0:220
p0:quái+vật
p0:đề+tài
p0:tụi
p0:làng+nghề
p0:phương+pháp
p0:50.000
p0:thép
p0:vài+#
p0:nam+bộ
p0:tài+nguyên
p0:tiến+sĩ
p0:thần+tượng
p0:quán
p0:vàng+pao
p0:tút
p0:viên
p0:túi
p0:ruộng+#
p0:cơ+chế
p0:vết
p0:cung
p0:định+quán
p0:gương+mặt
p0:quyền+#
p0:phần+lớn
p0:tôn
p0:lão+nông
p0:tóc
p0:chìa+khóa
p0:hecta
p0:thái
p0:trưởng
p0:thời+gian+#
p0:kênh
p0:biển+cả
p0:tính+chất
p0:tòa
p0:giao+liên
p0:nửa+đêm
p0:loong+chẹng
p0:cổng
p0:thị+xã
p0:ánh+sáng
p0:phòng+#
p0:dông
p0:tình+thế
p0:nam+#
p0:lao+động+#
p0:áp+lực
p0:quỹ
p0:tình+địch
p0:ngành+nghề
p0:tỉnh+trưởng
p0:toàn+cầu
p0:phiếu
p0:khả+năng
p0:đầu+máy
p0:công+suất
p0:sydney+#
p0:cảng
p0:chúng+tôi
p0:người+ta+#
p0:tiền+#
p0:nhà+đầu+tư
p0:nhân+tài
p0:ánh
p0:chương+trình
p0:trung+quốc
p0:mặt+nước
p0:mục+tiêu
p0:quyền+lợi
p0:bố+#
p0:cán+bộ
p0:mồ+hôi
p0:phóng+sự+#
p0:kỷ+vật
p0:ông+bầu
p0:đám+cưới
p0:hoa+văn
p0:ván
p0:hoàng+phượng
p0:ngoại+thành
p0:cạnh+#
p0:slogan
p0:ubdul
p0:cỏ+bàng
p0:xe+tải
p0:vân
p0:tổn+thất
p0:động+vật
p0:thú+y
p0:cuộc+sống+#
p0:út+sương
p0:17+#
p0:cuồng+phong
p0:đinh
p0:một+phần+tư
p0:thứ+#
p0:bộ+đàm
p0:tổ+quốc
p0:năm+long
p0:trái+cây
p0:ve+chai
p0:vài+ba
p0:hàng+xóm+#
p0:bộ+quốc+phòng
p0:dừa
p0:toàn+bộ
p0:úc
p0:một+nửa
p0:số+liệu
p0:sườn
p0:thuốc+#
p0:rừng+#
p0:vòm
p0:vòi
p0:đội+tuyển
p0:bàn+thờ
p0:rừng+phòng+hộ
p0:cám+dỗ
p0:4+.+000
p0:phong+tục
p0:stadium
p0:đà
p0:vôi
p0:đô
p0:đò
p0:đê
p0:1+tỉ
p0:phạm+ngọc+khang
p0:cách+#
p0:chỗ+#
p0:hai+long
p0:csgt
p0:đl
p0:đh
p0:đt
p0:nhà+#
p0:hải
p0:nội+tình
p0:20+.+000
p0:hoàn+cảnh
p0:đặc+điểm
p0:kiên+giang
p0:trưởng+thôn
p0:giao+tiếp
p0:ý+đồ
p0:công+văn+#
p0:tình+yêu
p0:toa+xe
p0:corporation
p0:cẩm+nhân
p0:lán+trại
p0:trung+ương
p0:bệnh+nhân
p0:hiệp+hội
p0:ghe+tàu
p0:đbscl
p0:200.000
p0:bộ+trưởng
p0:đại+ca
p0:chứng+cứ
p0:tay+trái
p0:trình+độ
p0:pháp+luật
p0:quan+điểm
p0:hiện+tại
p0:gấu
p0:nguyễn+thị+mửng
p0:sáng+mai
p0:bà+già
p0:cảnh+tượng
p0:16+#
p0:đồng+bào
p0:hiện+giờ
p0:ban+#
p0:bạn+#
p0:biên
p0:chúng+#
p0:hồ+chí+minh
p0:tiểu+đội
p0:chung+cư
p0:cá+tra
p0:quốc+gia
p0:binh+lính
p0:nàng
p0:chất+#
p0:điều+hòa+nhiệt+độ
p0:siêu+thị
p0:công+ty+#
p0:hoa+quả
p0:hôm+kia
p0:đâu+đó
p0:việt+nam
p0:xu+hướng
p0:đại+tá
p0:dân+tộc
p0:cơ+sở+hạ+tầng
p0:đại+lý
p0:đạ+tẻ
p0:hồi+#
p0:nông+nghiệp
p0:thế+này
p0:hẻm
p0:hội+thảo
p0:thái+lan
p0:trẻ+em+#
p0:khuyến+cáo
p0:công+việc+#
p0:chiều+tối
p0:đất+đá
p0:xăng
p0:việt+hùng
p0:cây+cối
p0:jimmy+phạm
p0:nước+ngoài
p0:xí+nghiệp
p0:hưng+nguyên
p0:tình+cảnh
p0:ngọn
p0:nhánh
p0:địa+chỉ+#
p0:lĩnh+vực
p0:trước+tiên
p0:xe+tăng+#
p0:hùng
p0:vật+tư
p0:kỹ+sư
p0:nhà+cung+cấp
p0:olympic
p0:campuchia
p0:một+ít+#
p0:huỳnh+đỗi
p0:thổ
p0:5.000
p0:thứ
p0:năm+#
p0:thọ
p0:cô+#
p0:ngụm
p0:mục+đích
p0:câu+#
p0:tình+huống
p0:xương+sống
p0:luật+sư
p0:tổng+thống
p0:nông+dân
p0:công+văn
p0:đầm+phá
p0:điều+kiện
p0:mẹ+#
p0:khối+lượng
p0:quỳnh+thanh
p0:hắn
p0:bằng+khen
p0:gốc
p0:bộ+đồ
p0:mông+sơn
p0:gươl
p0:chúng+ta+#
p0:đồng+danh
p0:dân+gian
p0:hội+#
p0:hội
p0:máy+fax
p0:nhà+vô+địch
p0:truyền+thống
p0:hột
p0:hộp
p0:chừng
p0:thời+gian
p0:nghệ+an
p0:trại
p0:phiên+tòa+#
p0:tài+xế
p0:phân+viện
p0:vinh
p0:tám+hòa
p0:chữ+nổi
p0:thủ+đô
p0:báo+chí
p0:nỗi+#
p0:mây+tre
p0:di+tích
p0:quốc+tịch
p0:ngôi+#
p0:sinh+viên
p0:ốc+đảo
p0:dioxin
p0:pakse
p0:đồng+chí
p0:sức+mạnh
p0:lương
p0:kinh+nghiệm
p0:cầu+cảng
p0:chiến+trường+#
p0:bảo+tàng
p0:ý+nghĩa
p0:đồng+tiền
p0:tác+phẩm
p0:hố
p0:hổ
p0:hồ
p0:họ
p0:đh+#
p0:cơm+nước
p0:đảng
p0:kẽ
p0:hàng+mành
p0:thám+tử+#
p0:nghệ+sĩ
p0:dông+tố
p0:mỏ
p0:nội+dung
p0:mẻ
p0:kỳ
p0:lọ
p0:đại+bác
p0:mả
p0:lệ
p0:lề
p0:đơn+#
p0:hốc
p0:giường+bệnh
p0:khoảng+#
p0:tư+thế
p0:bồ
p0:xung+quanh
p0:cống
p0:chuyên+môn
p0:hình+hài
p0:cừ
p0:hồi
p0:kredtrakarn
p0:hồn
p0:cỗ
p0:cổ
p0:chè+#
p0:cỏ
p0:củ
p0:cụ
p0:cờ
p0:cú
p0:danh+dự
p0:ga
p0:thanh+niên
p0:bình+minh
p0:h.
p0:bè
p0:sinh+nhật
p0:phương+#
p0:chàng
p0:dn
p0:nhà+khoa+học
p0:da
p0:việc+#
p0:cn
p0:cầu+thủ
p0:đông+nam+á
p0:cb
p0:bs
p0:đặc+sản
p0:thủ+tướng
p0:ao
p0:hồ+sơ+#
p0:bánh+mì
p0:nghiệp+vụ
p0:không+khí
p0:thực+phẩm
p0:xương
p0:lá
p0:ph
p0:thời+#
p0:kim+#
p0:nu
p0:mỗi+#
p0:căn+hộ
p0:ông+#
p0:phước
p0:ngày+xưa
p0:nh
p0:sinh+mạng
p0:ly
p0:ma
p0:2+.+000
p0:nhà+xưởng
p0:mi
p0:ky
p0:gã
p0:thung+lũng
p0:dì
p0:hs
p0:16+.+000
p0:hình+dạng
p0:sò
p0:wb
p0:tí
p0:hội+an
p0:đồng+hồ
p0:mũ
p0:ngón+tay
p0:750
p0:200+triệu
p0:vy
p0:dung
p0:canada
p0:tây+nguyên
p0:kịch+bản
p0:sv
p0:chữ+cái
p0:chức+năng
p0:tt
p0:tp
p0:tb
p0:th
p0:ta
p0:lđ
p0:mì
p0:thợ+hồ
p0:má
p0:lý
p0:pv
p0:lò
p0:thủ+đức
p0:giá+trị
p0:ri
p0:giặc+#
p0:đào+viên
p0:đồng+đội
p0:b+.52
p0:hồ+trọng+bình
p0:bóng+chuyền
p0:tài+liệu
p0:tâm+lý
p0:y+tá
p0:ngoại+ô
p0:bản+án
p0:heroin
p0:đồng+nghiệp
p0:hợp+tác+xã
p0:vé
p0:chính+trị
p0:ban+đầu
p0:trò+chơi
p0:suối+cạn
p0:lính+#
p0:thành+đoàn
p0:mái+tóc
p0:thứ+bảy
p0:y+khoa
p0:mọi+#
p0:ấp+#
p0:đài+bắc
p0:11+#
p0:hóa+học
p0:địch+#
p0:liệt+sĩ
p0:tôm+sú
p0:đỉnh
p0:chi+nhánh
p0:900
p0:tiểu+học
p0:tâm+tư
p0:cháu+#
p0:thông+tin+#
p0:mẫu+#
p0:kẽm
p0:đặc+khu
p0:xà+phòng
p0:máy+bay+trực+thăng
p0:cuộc+#
p0:bì+thư+#
p0:đường+#
p0:toàn+quốc
p0:hành+vi
p0:nhãn+hiệu
p0:vụ+#
p0:nhà+vườn
p0:20+.+000+#
p0:báo+điện+tử
p0:mặt+trời
p0:chông+gai
p0:bibi
p0:cựu+binh
p0:con+thoi
p0:tam+kỳ
p0:kính+hiển+vi+#
p0:đường+sắt
p0:cha+mẹ
p0:hạng
p0:hạnh
p0:hình+ảnh
p0:sâu+bệnh
p0:mộng
p0:bà+rịa
p0:hội+trường
p0:toản
p0:mầu
p0:nguyên+vật+liệu
p0:khoản
p0:thân+phận
p0:phản+quang
p0:bị+cáo
p0:mẩu
p0:nội+dung+#
p0:sốt+rét
p0:tài+năng
p0:mẫu
p0:biên+bản
p0:anh+chàng
p0:chế+tạo+máy
p0:dòng
p0:tuổi+trẻ
p0:lệ+phí
p0:thành+quả
p0:mour+#
p0:trật+tự
p0:trung+cấp
p0:ngành
p0:đại+sứ+quán
p0:lớp+#
p0:giáo+sư
p0:vầng
p0:chợ+phiên
p0:nam+du
p0:đất+#
p0:gia+cầm
p0:bóng+bàn
p0:quá+trình
p0:phổ+thông
p0:thiết+bị
p0:hài+cốt
p0:khách+#
p0:0
p0:thứ+trưởng
p0:@
p0:lối+thoát
p0:q
p0:p
p0:k
p0:l
p0:cây+#
p0:địa+phương
p0:f
p0:h
p0:ngách
p0:c
p0:d
p0:15+#
p0:công+chức
p0:nghi+xuân
p0:luân
p0:trị+an
p0:xiêng+khuảng
p0:nguồn
p0:khoảnh+khắc
p0:tải+trọng
p0:ama+công
p0:nòng+cốt
p0:rơ+châm+buh
p0:quảng+nam
p0:rau+muống
p0:căn+#
p0:huy+chương
p0:lứa
p0:ia+me
p0:khi+#
p0:năng+lượng
p0:sài+gòn+#
p0:nắp
p0:chùa
p0:hải+vân
p0:sà+lan
p0:nhà+đất
p0:spalding
p0:chông+#
p0:hồ+tôm
p0:mìn+#
p0:quí+#
p0:cơ+quan+chức+năng
p0:nông+nhàn
p0:vụ+việc
p0:tắk+pỏ
p0:nha+trang
p0:bạc+liêu
p0:văn+bản
p0:vấn+đề
p0:bảng
p0:nấy
p0:tôm+hùm
p0:khoa+học+#
p0:điều+#
p0:công+an
p0:lợn
p0:lộc
p0:học+sinh
p0:chiến+dịch
p0:thùng
p0:thám+tử
p0:hải+quan
p0:anh+hùng+#
p0:khu+tập+thể
p0:lang+co+beach+resort
p0:uy+tín
p0:lỗi
p0:phương
p0:minh+sang
p0:hôm+nay
p0:tiểu+khu
p0:chén
p0:lựu+đạn+#
p0:lối
p0:sáu+kế
p0:nvơnn
p0:phóng+viên
p0:chày
p0:con+bạc
p0:làng+#
p0:tòa+án
p0:án
p0:thị+trấn+#
p0:martin
p0:bài+thơ
p0:ý+kiến
p0:cháu
p0:chim
p0:hệ+thống
p0:lời+#
p0:lớp+học
p0:trùm
p0:cuộc+sống
p0:tình+cảm
p0:suối
p0:kiến+trúc
p0:đại+học
p0:kỷ+luật
p0:tác+động
p0:dao
p0:tác+dụng
p0:sân+bay
p0:công+nhân
p0:bia
p0:sách
p0:tay+#
p0:chiến+thắng
p0:xe+#
p0:khoai
p0:bến
p0:bếp
p0:thuyền
p0:hình
p0:bóng+đá
p0:bạn
p0:mâu+thuẫn
p0:xe+đạp
p0:lúa+nước
p0:nhà+hàng
p0:tình
p0:cửa
p0:cục
p0:thắng+lợi
p0:máy+bay
p0:dân
p0:căn
p0:tài+sản
p0:hình+sự
p0:dốc
p0:dấu
p0:giá
p0:đồn
p0:cây
p0:cát
p0:cáp
p0:chiến+tranh
p0:bút
p0:văn+học
p0:hương
p0:diện
p0:bao+cao+su
p0:đuôi
p0:nguyên+liệu
p0:súng
p0:chầu
p0:dúi
p0:miệng
p0:nhóm
p0:đội+#
p0:nhân+dân
p0:bàng
p0:hào
p0:sản+phẩm
p0:nghề
p0:đồng+hương
p0:balô
p0:chiều
p0:thời+điểm
p0:biển
p0:kim
p0:chợ
p0:chủ
p0:rượu
p0:thiên+nhiên
p0:nhang
p0:nam
p0:lãnh+đạo
p0:lưỡi
p0:cơm
p0:cơn
p0:lưới
p0:thể+thao
p0:công+nghiệp
p0:động
p0:một+chút
p0:phí
p0:ruột
p0:xe+khách
p0:lúa
p0:đèn
p0:trận+#
p0:sóng
p0:phán+quyết
p0:địa+đạo
p0:vi+tính
p0:oxy
p0:độ
p0:quê
p0:quà
p0:rau
p0:mình+#
p0:mùi
p0:ảnh
p0:mây
p0:màu
p0:máu
p0:máy
p0:mìn
p0:chứng+nhận
p0:núi
p0:aids
p0:số+phận
p0:kính
p0:giày
p0:mắt+#
p0:nhà+nước
p0:tin+học
p0:thịt
p0:rẫy
p0:thư
p0:thai
p0:trò
p0:trà
p0:giặc
p0:mạng
p0:đôi+#
p0:đống
p0:đất+nước
p0:thủ+phạm
p0:vẻ
p0:tổ
p0:chuyện
p0:vị
p0:rừng
p0:mũi
p0:tầm
p0:nước+mắt
p0:tuyến
p0:tên
p0:phỉ
p0:nơi
p0:con+#
p0:tết
p0:tài
p0:buồm
p0:chồng+#
p0:hợp+đồng
p0:vách
p0:dự+thảo
p0:liều
p0:cơ+sở
p0:quân
p0:tôm
p0:cảnh
p0:gạo
p0:bao+giờ+#
p0:giang+hồ
p0:giao+thông
p0:ubnd
p0:việc
p0:viện
p0:văn
p0:trang
p0:gậy
p0:kỹ+thuật
p0:xác
p0:cạnh
p0:cuốc
p0:hầm
p0:rơm
p0:trạm
p0:trận
p0:hộ
p0:gỗ
p0:chồng
p0:mẹ
p0:lễ
p0:bố
p0:bờ
p0:bộ
p0:phản+ứng+#
p0:cỡ
p0:cò
p0:cô
p0:cá
p0:em
p0:gò
p0:hè
p0:gà
p0:tù
p0:xe
p0:vn
p0:lũ
p0:nó
p0:bịch
p0:võ
p0:taxi
p0:thị+trường
p0:mầm
p0:đất+liền
p0:bà+ngoại
p0:hành+chính
p0:lều
p0:nước+#
p0:thúng
p0:công+ty
p0:ô
p0:địch
p0:ý
p0:lửa
p0:cơ+hội
p0:nạn
p0:lực+lượng
p0:chòi
p0:đầu+#
p0:lợi
p0:tư+tưởng
p0:hà+nội
p0:nghĩa
p0:bộ+đội
p0:bước+#
p0:áo
p0:tật+nguyền
p0:trước+#
p0:dọc
p0:sau
p0:trước
p0:trên
p0:suốt
p0:dây
p0:bóng
p0:tập+thể
p0:trần
p0:dư
p0:bệnh
p0:bao+nhiêu
p0:trái
p0:tròn
p0:cao
p0:sáng
p0:duy+nhất
p0:đầu
p0:khác
p0:phức+tạp
p0:khó+khăn
p0:lâu
p0:khổ
p0:đầy+đủ
p0:mạnh
p0:đông
p0:vàng
p0:sắc
p0:tội
p0:tự+nhiên
p0:thân
p0:đầu+tiên
p0:khắp
p0:hơn+#
p0:yên
p0:nhiều+#
p0:chút
p0:trẻ
p0:răng
p0:pos:Np
p0:ai
p0:đó+#
p0:mắt
p0:tất+cả
p0:hạnh+phúc
p0:phần
p0:giọng
p0:đất
p0:trưa
p0:thuốc
p0:ghe
p0:mình
p0:nhau+#
p0:lưng
p0:kinh+tế
p0:quanh
p0:đêm
p0:khuya
p0:đòn
p0:nước
p0:gia+đình
p0:lòng
p0:nét
p0:tay
p0:tiền
p0:vai
p0:số
p0:trường
p0:sức
p0:đường
p0:công
p0:đoạn
p0:hạt
p0:khách
p0:trọn
p0:ca
p0:mấy
p0:mặt
p0:chân
p0:hàng
p0:mộ
p0:30
p0:đôi
p0:có+khi
p0:ba
p0:cặp
p0:câu+chuyện
p0:nền
p0:lầu
p0:điểm
p0:đợt
p0:con
p0:hôm+qua
p0:bên
p0:bên+#
p0:phía
p0:ngoài+#
p0:trong
p0:dưới
p0:trong+#
p0:trên+#
p0:khi
p0:lúc
p0:huyện
p0:chi+tiết
p0:ấm
p0:khoa+học
p0:khoảng
p0:tiêu+cực
p0:hoa
p0:lý+tưởng
p0:còi
p0:thực+tế
p0:gian+khổ
p0:bé+#
p0:một+cách
p0:đời+thường
p0:tối+#
p0:xa+xưa
p0:đầu+tiên+#
p0:chín+#
p0:cuối
p0:hậu
p0:độc+lập
p0:y
p0:cuối+cùng
p0:gian+nan
p0:sai+lầm
p0:băn+khoăn
p0:cực
p0:già
p0:đơn+giản
p0:quý
p0:nguy+hiểm
p0:tây
p0:tối
p0:khách+quan
p0:qui+mô
p0:một+số
p0:nửa
p0:niên
p0:nguyên+nhân
p0:t+.
p0:bà
p0:nay
p0:xóm
p0:đức+phổ
p0:nạn+nhân
p0:lá+#
p0:những+#
p0:bụng
p0:anh+hùng
p0:đấy+#
p0:bạc
p0:chất+lượng
p0:cảnh+ngộ
p0:nơi+#
p0:dâm
p0:thế+giới
p0:đủ+#
p0:gai
p0:tiện+nghi
p0:nhàn
p0:cái+#
p0:trục
p0:lào
p0:phi
p0:mát
p0:nỗi
p0:tiểu
p0:tim
p0:bản+lĩnh
p0:chuẩn
p0:xứ
p0:ngực
p0:nội+địa
p0:tôi
p0:việt
p0:ngày+#
p0:cuộc
p0:thiên+hạ
p0:phong+phú
p0:lẽ
p0:bề
p0:bé
p0:biết+bao
p0:bao+lâu
p0:xã
p0:dưỡng+khí
p0:đây+#
p0:bệnh+tật+#
p0:1+.+000
p0:500
p0:100
p0:năm
p0:pos:Nu
p0:km
p0:tuổi
p0:m
p0:bốn
p0:62
p0:22
p0:27
p0:24
p0:25
p0:17
p0:10
p0:11
p0:13
p0:14
p0:15
p0:35
p0:37
p0:31
p0:40+.+000
p0:một+vài
p0:mười
p0:600
p0:10+triệu
p0:1+,+2
p0:160
p0:120
p0:200
p0:vài
p0:5+.+000
p0:200+.+000
p0:một+#
p0:95%
p0:3+triệu
p0:4+triệu
p0:bảy
p0:50
p0:19
p0:10.000
p0:ngàn
p0:5
p0:2
p0:3
p0:8
p0:9
p0:6
p0:7
p0:1
p0:hai
p0:trăm
p0:hiện+nay
p0:đơn+vị
p0:tháng
p0:12
p0:7+.+000
p0:chục
p0:phút
p0:lính
p0:giờ
p0:văn+hóa
p0:1+triệu
p0:100%
p0:tốp
p0:đối+tượng
p0:18+#
p0:ha
p0:10+.+000
p0:20
p0:4
p0:một+mình+#
p0:mực
p0:cư+dân
p0:lớp
p0:tất+tả
p0:phép+#
p0:toàn+#
p0:diễn+biến
p0:đề+tài+#
p0:màng
p0:chốt
p0:hợp+thức+hóa
p0:chức
p0:một+mạch
p0:ràng+buộc
p0:văn+khoa
p0:tác+hại
p0:lưng+#
p0:hàm
p0:phép
p0:lâu+#
p0:diễn+tiến
p0:vòng+#
p0:tổn+thương
p0:danh
p0:quả+tang
p0:lót
p0:tay+áo
p0:bộ+#
p0:giới+hạn
p0:chiêu
p0:lợi+ích
p0:thất+bại+#
p0:ít+nhiều
p0:thực+địa
p0:hồi+âm
p0:cá+bống
p0:ngày+ngày
p0:kinh+doanh+#
p0:phần+trăm
p0:máu+xương
p0:bản+vẽ
p0:ảnh+hưởng+#
p0:nguyên+#
p0:ki
p0:xung+đột
p0:thách+thức
p0:xe+buýt
p0:hoàn
p0:hành+động+#
p0:liên+hiệp+quốc
p0:dịch+bệnh
p0:tận
p0:thiệt+hại
p0:thuận+lợi
p0:mờ
p0:lắm+#
p0:bài+bản
p0:huyết+áp
p0:hẳn+#
p0:pos:Pb
p0:giữa+#
p0:từ+#
p0:tận+#
p0:thuận
p0:tay+trắng
p0:gan
p0:gan+#
p0:thăm+thẳm
p0:bạt+ngàn
p0:chút+ít
p0:khổ+đau
p0:giàu+có
p0:trục+trặc
p0:chi+chít
p0:tột+cùng
p0:đông+#
p0:thân+#
p0:năng+suất+#
p0:lô+nhô
p0:màu+sắc
p0:giống+#
p0:phố+phường
p0:câu+chuyện+#
p0:48
p0:pos:Q
p0:80%
p0:vùng+sâu+vùng+xa
p0:mang+nặng+đẻ+đau+#
p0:trèo
p0:chen
p0:thông+báo+#
p0:nếm+trải
p0:mắng+chửi
p0:bắt+gặp+#
p0:thao+tác+#
p0:trát
p0:chủ+mưu
p0:ưu+tiên+#
p0:hoang+mang+#
p0:vắng+mặt
p0:phủi
p0:thuật
p0:mê+mẩn
p0:sai+bảo+#
p0:đề+cao
p0:trót
p0:nén+#
p0:gườm+gườm
p0:phát+động+#
p0:cười+nhạt
p0:im+lặng+#
p0:trang+trải
p0:khó+lòng
p0:chăm+nuôi
p0:phân+bố
p0:ðều
p0:gợi+chuyện
p0:buông+lỏng
p0:săn+đón+#
p0:đột+phá
p0:sát+hại
p0:xướng
p0:nắm+bắt
p0:bỏ+mạng+#
p0:sục+#
p0:dọa+nạt
p0:thiêu
p0:cày+ải
p0:phân+vai
p0:thư+giãn
p0:luộc+#
p0:quơ+quào
p0:bày+đặt
p0:sát+phạt
p0:đơn+phương
p0:kiện+toàn
p0:tuyển+dụng
p0:chấm+#
p0:vui+cười
p0:giống+hệt
p0:che+khuất
p0:bơ+vơ
p0:phá+phách+#
p0:xen+lẫn+#
p0:ngớ+#
p0:cấp+#
p0:tập+kích+#
p0:mang+tiếng
p0:gây+dựng
p0:giữ+mình
p0:ngồi+chồm+hổm
p0:làm+thịt
p0:mắng
p0:lách
p0:luộc
p0:ước+chừng
p0:tưởng+chừng
p0:chỉ+huy+#
p0:dẫn+chương+trình
p0:dắt+#
p0:lộ+diện
p0:chuyên+#
p0:bày+tỏ+#
p0:nhờ+cậy
p0:hòng
p0:bãi+bỏ
p0:lâm+bệnh
p0:nhúng
p0:giáp+giới
p0:đàm+phán
p0:ấn
p0:cãi+lộn
p0:bổ+sung+#
p0:tạo+#
p0:đầu+thai
p0:nghiến
p0:thiết+kế+#
p0:phát+quang
p0:tiếc+nuối
p0:củng+cố
p0:bảo+nhỏ
p0:mòn+#
p0:nghẹn
p0:xuất+phát
p0:lên+đường+#
p0:bỗng+nhiên
p0:ngó+nghiêng
p0:giáp+mặt
p0:phối+hợp+#
p0:đợi+#
p0:chọn+lọc
p0:trúng+tuyển
p0:hất+#
p0:yêu+mến
p0:ríu+rít
p0:bỏ+lửng
p0:mua+đi+bán+lại
p0:phì+cười
p0:sáp+nhập
p0:rong+ruổi
p0:là+#+#
p0:trả+#
p0:ý+tứ
p0:che+phủ
p0:rụng+#
p0:hừng
p0:đi+đi
p0:chẳng+thể+nào
p0:tung+hoành
p0:xơi
p0:phản+ảnh
p0:nguôi+ngoai
p0:giao+phối+#
p0:biết+tỏng
p0:bèn
p0:bóp+méo
p0:mua+#
p0:khai+báo
p0:vinh+danh
p0:chùng
p0:ca+ngợi
p0:đẽo
p0:đồng+tình+#
p0:van+xin
p0:hỏi+cung
p0:lo+nghĩ
p0:cạy
p0:địu
p0:lầm+lạc
p0:trung+chuyển
p0:chao+đảo
p0:chích+choác
p0:thông+thoát
p0:bịa
p0:xoa+xoa+#
p0:cập
p0:dành+#
p0:trang+bị+#
p0:trò+chuyện+#
p0:tự+chủ
p0:tảo+tần
p0:xuống+đường
p0:ganh+đua
p0:phân+vân
p0:tăng+#
p0:câu+thúc
p0:nện+#
p0:lẩn+trốn
p0:kế+tục
p0:import-export
p0:chào+hỏi+#
p0:đem+#
p0:hùng+hồn
p0:lo+sợ
p0:chán+ngán
p0:dàn+xếp
p0:đánh+cắp
p0:ly+tán
p0:tha+thẩn
p0:bán+chạy
p0:hớn+hở
p0:hỏi+dò
p0:dìm
p0:thức+dậy
p0:thẩm+tra
p0:bán+rong
p0:tự+tử+#
p0:nửa+đùa+nửa+thật
p0:yên+chí
p0:chơi+đẹp
p0:tráng
p0:mách+bảo
p0:trúng+#
p0:tiến+hành+#
p0:nấn+ná
p0:dẫm
p0:phanh+phui
p0:dầm
p0:thì+thào+#
p0:mật+báo+#
p0:đỏ+đèn
p0:dấy
p0:nghĩ+bụng
p0:giã
p0:tham+ô
p0:trở+ra
p0:nổ+#
p0:ở+ẩn
p0:buộc+#
p0:bới
p0:am+hiểu
p0:chộp
p0:xúc+phạm
p0:giơ+#
p0:chứng+minh+#
p0:lôi+cuốn+#
p0:nhoáng
p0:mất+trắng
p0:khỏa
p0:bất+mãn
p0:xung+đột+#
p0:đau+yếu
p0:tự+vẫn
p0:diễn+tả
p0:cuốc+bộ
p0:dấn+thân
p0:bỗng+chốc
p0:bất+chấp
p0:sản+xuất+#
p0:dậm
p0:phạt+góc
p0:lảng
p0:ẩm+thực
p0:chọc
p0:chọi
p0:khai+trừ
p0:gây+lộn
p0:ăn+thông+#
p0:tham+dự+#
p0:mong+muốn+#
p0:cư+ngụ
p0:týờng+thuật
p0:đung+đưa
p0:ồ+ạt
p0:ngắm+nghía
p0:định+cư
p0:hoảng
p0:se+se
p0:gạn+hỏi
p0:ngạc+nhiên+#
p0:pos:RP
p0:tiên+quyết
p0:đập+#
p0:đột+kích+#
p0:đóng+kịch
p0:vạch+trần
p0:truy+quét
p0:lắng+nghe
p0:tọa+lạc
p0:gấp+#
p0:vượt+biên
p0:chào+hỏi
p0:phẫn+uất
p0:cạnh+tranh+#
p0:đổ+vỡ+#
p0:chữa+#
p0:phảng+phất
p0:ấp+iu
p0:quán+triệt
p0:gật+gù
p0:nhào
p0:cập+nhật
p0:tiếp+lời
p0:bỏ+xác+#
p0:ngã+vật
p0:kết+thân
p0:export-import
p0:tự+tin+#
p0:toan
p0:trưng+cầu
p0:lân+la
p0:tương+truyền
p0:quẩy
p0:liên+đới
p0:phún
p0:coi+#
p0:giao+khoán
p0:biến+đổi
p0:ngược+đãi
p0:nhe+#
p0:xà+xẻo
p0:lập+#+lại
p0:đào+xới
p0:khum
p0:lia
p0:ăn+nói
p0:sinh+nhai
p0:hãi
p0:chăm+chú+#
p0:hèn
p0:bao+cấp
p0:hòa+lẫn
p0:quặp
p0:lần+mò
p0:thôi+thúc
p0:cưỡng+ép
p0:tuyển+sinh
p0:quẹo
p0:bao+bọc
p0:cười+duyên
p0:xì+xào
p0:quắc
p0:quật
p0:gặt+hái
p0:minh+họa
p0:giương
p0:thiếp
p0:kiểm+sát
p0:hiềm
p0:họp+#
p0:quịt
p0:quệt
p0:nhằm+#
p0:phán
p0:gán
p0:kia+mà
p0:trộn+#
p0:lưu+danh
p0:phân+tích+#
p0:chả
p0:giày+xéo+#
p0:tránh+#
p0:xây+lắp
p0:giết+mổ
p0:ăn+đường
p0:lường
p0:trở+mình
p0:rượt
p0:ức+chế
p0:quàng
p0:đạo+diễn
p0:căn+vặn
p0:chạm+mặt+#
p0:mang+#+thai
p0:giải+bày
p0:lễ+phép
p0:căm+thù+#
p0:hàn+huyên+#
p0:đánh+đôi
p0:lao+đao
p0:gãi+gãi
p0:tặng+#
p0:đào+bới+#
p0:đánh+cuộc
p0:chợt+#
p0:cặp+bồ+#
p0:ước+lượng
p0:nương+náu
p0:tin+tưởng+#
p0:ám+chỉ
p0:nhận+dạng
p0:xảy+#
p0:cải+tạo+#
p0:bắt+cóc
p0:kèm+cặp
p0:thoi+thóp
p0:hòa+hợp
p0:giật+thót+#
p0:xưng
p0:chở+#
p0:cuốn+xéo
p0:bỏ+ngỏ
p0:tháp+tùng
p0:xối
p0:xốc
p0:lên+đồng
p0:diễn+#+ra
p0:bê+#
p0:phát+đơn+#
p0:cách+biệt
p0:đày
p0:phát+#
p0:hùn
p0:tuyên
p0:đoàn+tụ+#
p0:tóm+cổ
p0:cởi+mở
p0:động+chạm
p0:lo+ngại
p0:am+tường
p0:tưởng+#
p0:dang
p0:tham+chiến
p0:bồi+hồi
p0:làm+cỏ
p0:thay+đổi+#
p0:đút
p0:xắn
p0:dẹp+#
p0:lèn
p0:ngơi+nghỉ
p0:thường+trú+#
p0:bố+trí+#
p0:bi+bô+#
p0:vỡ+lở+#
p0:nhân+danh
p0:tan+rã
p0:lìa
p0:thả+sức
p0:nằm+bẹp
p0:phóng+#
p0:hôn+mê
p0:giả+#
p0:cơ+mà
p0:bào+chữa
p0:lùa
p0:lóe
p0:cười+cười
p0:xấu+hổ+#
p0:phù+phép
p0:diễn+thuyết
p0:thổ+lộ
p0:xót+thương
p0:kén
p0:chăm+bẵm+#
p0:kìm
p0:mở+mang
p0:kiểm+chứng
p0:chen+chúc
p0:hành+hạ+#
p0:dụ+dỗ
p0:động+#
p0:lao+#
p0:help
p0:mặc+sức
p0:giảm+thiểu
p0:huy+động+#
p0:lại+sức
p0:làm+oai
p0:vờn
p0:không+tài+nào
p0:cầm+#
p0:tụ+hội+#
p0:phát+hành
p0:song+hành
p0:bao+gồm
p0:chặc+lưỡi
p0:phát+nổ
p0:ăn+hỏi
p0:đẻ
p0:lập+#+tức
p0:mệnh+danh
p0:tần+tảo
p0:tập+kết+#
p0:quì
p0:chất+chứa
p0:loang+loáng
p0:điểm+danh
p0:thải
p0:rà+soát
p0:nẹp
p0:đào+bới
p0:quả+quyết
p0:trau+chuốt
p0:ám+chỉ+#
p0:tìm+hiểu+#
p0:trao+tặng
p0:thọc+sâu
p0:may+vá
p0:thực+thi
p0:thẹn
p0:làm+quà
p0:chia+#
p0:định+thần
p0:đội+lốt
p0:xềnh+xệch
p0:lục+đục
p0:coi+thường
p0:coi+trọng
p0:thích+ứng
p0:gào+thét
p0:nhảy+múa
p0:pha+trộn
p0:mạnh+dạn+#
p0:lim+dim
p0:nhập+#
p0:đồng+loạt
p0:phù+hộ
p0:nêm
p0:chắc+mẩm+#
p0:lên+cơn
p0:tỉnh+ngộ
p0:ra+mắt
p0:tích+góp
p0:đi+tới+đi+lui
p0:xao+#+xuyến
p0:run
p0:trả+bài
p0:chào+giá
p0:hưởng+thọ
p0:chạm+khắc
p0:mô+phỏng
p0:đả+đảo
p0:tự+xưng
p0:giày+vò
p0:chào+mừng
p0:mỏi+mong
p0:lâu+lâu+#
p0:bôn+ba
p0:ước+tính
p0:bất+thành
p0:lập+kế
p0:khinh+thường
p0:cợt+nhả
p0:nhận+lời+#
p0:lập+#+nghiệp
p0:áp+giải+#
p0:dồn+ứ
p0:chủ+động+#
p0:tự+tiện+#
p0:ao+ước
p0:thăm+viếng
p0:đóng+cửa
p0:cầu+may
p0:thẳng+thắn+#
p0:ngăn+#+cản
p0:minh+oan
p0:làm+gì+#
p0:phê+bình
p0:trở+thành+#
p0:mua+bán+#
p0:làm+nên
p0:tắm+rửa
p0:sạt+nghiệp
p0:nghiện+ngập
p0:nhét+#
p0:tra
p0:thọc
p0:rắc
p0:thối
p0:thấu+hiểu+#
p0:quẩn+quanh
p0:rảo+#
p0:du+nhập
p0:tăng+tốc+#
p0:thông+#
p0:giặm
p0:la+rầy
p0:réo
p0:phân+định
p0:rên
p0:lơi
p0:ngụ
p0:toại+nguyện+#
p0:cố+định+#
p0:mà+còn+#
p0:rèn
p0:giải+phẫu+#
p0:khoanh+vùng
p0:đón+#+tiếp
p0:đương+đầu
p0:cài+#
p0:rám
p0:rút+ruột
p0:sẻ
p0:tả
p0:rồ
p0:cách+ly
p0:theo+#+dõi
p0:tệ
p0:nỡ
p0:tậu+#
p0:xác+định+#
p0:cặm+cụi+#
p0:ngó+ngàng
p0:quáng+quàng
p0:trổ+tài
p0:mê+tín
p0:vờ
p0:thịnh+hành
p0:made
p0:lí+nhí
p0:vồ
p0:rịn
p0:kiểm+dịch
p0:thù+hằn
p0:hoảng+sợ
p0:tấu
p0:tấp
p0:giội
p0:kêu+la
p0:rồng+rắn
p0:tản
p0:dẫn+chứng
p0:kiểm+nghiệm
p0:rớm
p0:nói+dối
p0:dạy+học
p0:lặp+đi+lặp+lại
p0:chiếm+đóng
p0:ngửi
p0:rung+chuyển+#
p0:bật+#
p0:uýnh
p0:sa+sầm
p0:chiêu+tập+#
p0:hãy+#
p0:dứt+#
p0:bắt+bẻ
p0:ẩn+náu
p0:thòng
p0:đưa+đẩy
p0:dần+dần+#
p0:sủi
p0:sục
p0:xoi
p0:than+phiền
p0:gieo
p0:quyện
p0:giáp+trận
p0:rất+mực
p0:thòi
p0:tàn
p0:bao+gồm+#
p0:náo+động
p0:lấy+làm+#
p0:gây+hấn
p0:hạ+cánh
p0:hằn+#
p0:rút+#
p0:chạy+bàn
p0:nhậu+nhẹt
p0:sực
p0:xem+lại
p0:ước+chừng+#
p0:gắn+kết
p0:download
p0:chênh
p0:bỗng+dưng
p0:mừng+vui
p0:ngước
p0:giãi+bày
p0:liếc
p0:xen+kẽ
p0:cầm+đầu
p0:xì+xầm
p0:nhanh+chóng+#
p0:đơm+đặt
p0:bao+trùm+#
p0:ghim
p0:kết+nối
p0:tuyển+chọn
p0:yên+trí
p0:vấp
p0:rao+#
p0:nâng+đỡ
p0:phó+thác
p0:đãi+đằng
p0:ví+von+#
p0:làm+lụng
p0:c+ó+lẽ+#
p0:quát
p0:chín+tới
p0:tâm+niệm
p0:thức+tỉnh+#
p0:bỏ+hoang
p0:ngần+ngừ
p0:tóm
p0:dò+la
p0:sắp+#
p0:chưng+hửng
p0:ngoặt
p0:tòi
p0:tập+trung+#
p0:bảo+toàn
p0:hàm+oan
p0:hiến+#
p0:cưỡng+chế
p0:mặc+kệ
p0:ướp
p0:phì+phèo
p0:thẳng+tay
p0:tập+kích
p0:ngại+ngần
p0:giao+#
p0:cắm+cúi
p0:ắt+hẳn
p0:thở+phào+#
p0:vãn
p0:ngấm
p0:xuất+quân
p0:đày+ải
p0:bực+dọc
p0:cuống+quýt
p0:vén
p0:rợn+ngợp
p0:phòng+bệnh+#
p0:mừng+quýnh
p0:huýt+sáo+#
p0:đâm+đơn
p0:lùng
p0:thương+cảm
p0:lớn+#+mạnh
p0:quyết+tâm+#
p0:đào+đào
p0:nhún+vai
p0:ra+#+đời
p0:dẫn+đầu
p0:hóa+giải
p0:tỉnh+giấc
p0:thường+xuyên+#
p0:nhanh+nhảu
p0:phán+đoán+#
p0:trở+tay
p0:bịn+rịn
p0:viền
p0:khâm+#+phục
p0:nhuộm+#
p0:chỉ+định
p0:nhá+#
p0:hút+#
p0:rơi+vãi
p0:ngăn+cản+#
p0:khảo
p0:bổ+nhiệm
p0:nhổ+neo
p0:sưng+húp
p0:chạy+vạy
p0:liên+tục+#
p0:gần+như+#
p0:quen+quen
p0:hàn+huyên
p0:khổ+luyện
p0:đề+bạt
p0:góp+ý
p0:ngốn
p0:vùi+#
p0:cưng
p0:xáo
p0:xáp
p0:khiêng+#
p0:xâu+chuỗi
p0:hất
p0:văng+tục
p0:ủy+thác
p0:chú+tâm
p0:chán+#
p0:kéo+dài+#
p0:chới+với
p0:xót
p0:săn+bắn
p0:nói+năng+#
p0:vi+vu
p0:đựng+#
p0:reng
p0:quan+tâm+#
p0:gắn+bó+#
p0:giật+mình+#
p0:trữ
p0:xòa
p0:trợ
p0:trị
p0:trố
p0:cảm+thụ
p0:phần+lớn+#
p0:nghiêm+cấm
p0:nhăn+nhó
p0:đua+đòi
p0:phúng+điếu
p0:đau+ốm
p0:sơ+ý
p0:ngẫm
p0:chia+tay+#
p0:hướng+dẫn+#
p0:đứng+ngồi
p0:phong+tặng
p0:thay+vì+#
p0:gạ
p0:chứng+giám
p0:xung+phong+#
p0:hụ
p0:hủy+diệt+#
p0:mô+tả+#
p0:hoạt+bát
p0:đội+ơn
p0:hạ+nhục
p0:cắm+đầu+#
p0:hành+nghề+#
p0:thong+thả
p0:việt+hóa
p0:cắt+xén
p0:bế
p0:nghi+hoặc
p0:dọ
p0:bù
p0:yêu+thương+#
p0:bì
p0:trải+#
p0:bõ
p0:ghé+mắt
p0:khích+bác
p0:bắt+đầu+#
p0:lưu+danh+#
p0:mưu+sinh+#
p0:chuộc
p0:tranh+chấp
p0:chế+tạo+#
p0:bu
p0:sửa+#
p0:be
p0:sa+sút
p0:kê
p0:yểm+hộ+#
p0:hồi+tưởng
p0:thao+tác
p0:dựng+đứng
p0:thoảng
p0:nhoài
p0:ho
p0:khẳng+định+#
p0:lút+#
p0:sà
p0:sá
p0:chào+#
p0:va
p0:đóng+băng
p0:se
p0:hóng
p0:dặn+dò
p0:rỉ+tai
p0:sơ+kết
p0:dựng+#
p0:vơ
p0:chọc+ghẹo
p0:làm+bạn
p0:lôi+kéo
p0:vượt+cấp
p0:copy
p0:chìm+#
p0:ngắt+#
p0:rơ
p0:nhức+#
p0:bán+mạng
p0:lảm+nhảm
p0:dự+báo
p0:nín+nhịn
p0:biến+sắc
p0:phá+hoại
p0:thừa+nhận+#
p0:tái+hiện
p0:quăng+quật
p0:chiếm+đoạt
p0:bồi+bổ
p0:tổng+cộng
p0:lăn+lóc
p0:diễn+#
p0:tạm+ứng
p0:xuất+hiện+#
p0:sinh+sản+#
p0:hợp+thành
p0:bồi+tụ
p0:bới+#
p0:thất+thểu
p0:phê+phán
p0:chắp+vá
p0:lơi+lỏng
p0:quyết+chí
p0:giải+tán
p0:bài+trí
p0:vun+vén
p0:vơi
p0:yêu+cầu+#
p0:cứu+trợ
p0:mô+tả
p0:hướng+đạo
p0:cung+cấp+#
p0:làm+nên+#
p0:tạo+lập+#
p0:bầu+cử
p0:cảm+kích
p0:xối+#
p0:buồn+#+#
p0:lẻn
p0:e
p0:khởi+xướng
p0:thỉnh
p0:đon+đả+#
p0:trẻ+hóa
p0:lằn
p0:ôm+ấp
p0:chọc+tiết
p0:khám+xét
p0:trọng+dụng
p0:túm+tụm
p0:liên+quan+#
p0:khởi+động
p0:dẫn+#
p0:mỉm
p0:ðầu+tư
p0:tùy+ý
p0:nẩy
p0:yêu+thích
p0:cách+trở
p0:tóm+tắt
p0:khiến+#
p0:chúc
p0:ki+cóp
p0:tâm+đắc
p0:nại
p0:nâng+niu
p0:mong+mỏi
p0:đơn+cử
p0:lục
p0:nghiêng+ngả
p0:trở+dạ
p0:không+thể+nào
p0:tỏa+#
p0:chít
p0:bùng+nổ
p0:tự+ái
p0:mai+phục
p0:tăng+tốc
p0:đi+đứng
p0:chém
p0:làm+bếp
p0:phát+thanh+#
p0:ám
p0:khai+phá
p0:chúc+mừng
p0:đáng+lẽ
p0:bởi+thế
p0:như+thế+#
p0:có+lẽ+#
p0:không+những
p0:à+#
p0:đột+nhiên
p0:dù+sao
p0:,+,
p0:thì+#
p0:chẳng+hạn
p0:là+#
p0:nhé
p0:thực+hiện
p0:?
p0:à
p0:”
p0:nhờ
p0:tức
p0:rằng
p0:đồng+thời
p0:dù
p0:với
p0:rồi
p0:có+thể
p0:hay
p0:ở
p0:để
p0:về
p0:rồi+#
p0:nếu
p0:!
p0:chứ
p0:phổ+biến
p0:còn+#
p0:không+thể
p0:thôi
p0:đã+#
p0:...+#
p0:thậm+chí
p0:dần
p0:nghe
p0:mà+#
p0:dù+#
p0:vì
p0:với+#
p0:chứ+#
p0:nhưng+#
p0:nếu+như
p0:thường+#
p0:lỡ
p0:?+#
p0:kẻo
p0:không+thể+#
p0:để+#
p0:có+thể+#
p0:mà+còn
p0:hoặc+#
p0:cho+#
p0:dần+dần
p0:chợt
p0:đều+#
p0:hình+như
p0:lần+lượt
p0:làm+sao
p0:nên+#
p0:có+lẽ
p0:ngay+lập+tức
p0:bỗng
p0:tại
p0:tức+tốc
p0:lâu+lâu
p0:dường+như
p0:.
p0:thật+ra
p0:đến+nỗi
p0:nghĩa+là
p0:lẽ+ra
p0:ra+đời+#
p0:ghi+âm
p0:chăm+bẵm
p0:quen+#
p0:trinh+sát
p0:cá+cược
p0:tranh+chấp+#
p0:đấu+trí
p0:phàn+nàn
p0:tổng+kết
p0:quản+lý+#
p0:lênh+đênh
p0:boa
p0:đoàn+kết
p0:mở+màn
p0:bao+vây
p0:khoan
p0:bình+phục
p0:ước+ao
p0:giả+định
p0:chôn+cất
p0:tự+tạo
p0:kỷ+niệm+#
p0:ủ
p0:tiếp+nối
p0:chi+tiêu
p0:cài
p0:kết+bạn
p0:đam+mê
p0:chiến+đấu+#
p0:thực+hành
p0:hồi+sinh
p0:khai+sinh
p0:xuất+nhập+khẩu
p0:đích+thân
p0:vồn+vã
p0:lọc+lừa
p0:xa+#
p0:va+chạm
p0:chấm
p0:bán+dâm
p0:bảo+quản
p0:nhái
p0:tổn+thất+#
p0:nhất+định
p0:bán+lẻ
p0:nào+#
p0:khen
p0:sinh+sản
p0:kinh+hoàng
p0:gài
p0:ăn+tiền
p0:dường+như+#
p0:dao+động
p0:nhô
p0:nhá
p0:chua+chát
p0:truy
p0:truy+tìm
p0:học+hành
p0:phụ+giúp
p0:phụ+cấp
p0:nuôi+dưỡng
p0:bạo+lực
p0:ủng+hộ+#
p0:di+động
p0:thi+đua
p0:trôi+dạt
p0:phục+kích
p0:đọ
p0:múa
p0:liên+kết
p0:kiên+định
p0:tống+tiền
p0:báo+tử
p0:ăn+học
p0:hối+hả+#
p0:bồi+dưỡng
p0:ngờ+vực
p0:cứu+hộ
p0:mong+ước
p0:ăn+trộm
p0:dí+dỏm
p0:đắn+đo
p0:ứng+xử
p0:quảng+bá
p0:thi+đấu
p0:xầm+xì
p0:trực+thuộc
p0:trêu+chọc
p0:điều+phối
p0:yểm+trợ+#
p0:khống+chế
p0:thu+lượm
p0:luyện+tập
p0:báo+động
p0:chuyền
p0:mặc+#
p0:giao+dịch
p0:mổ
p0:thưởng
p0:tổng+tấn+công
p0:rượt+#
p0:nhồi
p0:đổ+#
p0:thay+thế
p0:trở+#
p0:kêu+gào
p0:vằn
p0:thác
p0:tiêu+xài
p0:bảo+trợ
p0:tuần+tra
p0:khuất
p0:đoạt
p0:đu
p0:trằn+trọc
p0:tinh+nghịch
p0:cấm+đoán
p0:thẳng+thắn
p0:diệt+#
p0:thương+lượng
p0:nguyện
p0:xát
p0:gần+như
p0:hận
p0:trợ+giúp
p0:mất+mùa
p0:xăm
p0:dĩ+nhiên
p0:ngoại+tình
p0:ốm+đau
p0:dự
p0:bổ
p0:điên
p0:ok
p0:tôn+kính
p0:cải+trang
p0:nghi+#
p0:thường+trực
p0:liệt+kê
p0:điều+trị
p0:cưu+mang
p0:chĩa
p0:lọc
p0:minh+chứng
p0:di+cư
p0:vươn
p0:rang
p0:chăn
p0:than+thở
p0:quản+trị
p0:ham+muốn
p0:phạm+tội
p0:chói
p0:lợp
p0:so+sánh
p0:tình+nguyện
p0:tràn
p0:đỡ+#
p0:đe+dọa
p0:chiếm+lĩnh
p0:quan+sát
p0:xét+nghiệm
p0:mày+mò
p0:chui
p0:đào+tạo
p0:mở+đầu
p0:trôi
p0:đánh+cá
p0:tháo+gỡ
p0:chia+rẽ
p0:chia+sẻ
p0:cổ+phần+hóa
p0:thiệt+mạng
p0:bù+đắp
p0:quan+tâm
p0:dò+tìm
p0:thể+hiện
p0:xô+đẩy
p0:trả+thù
p0:phá+án
p0:bắt+buộc
p0:làm+ruộng
p0:giữ+#
p0:trò+chuyện
p0:chứng+kiến
p0:đem
p0:đan
p0:theo+dõi
p0:nghiện
p0:nguôi
p0:quảng+cáo
p0:coi
p0:đua
p0:tách
p0:rong
p0:ẩn
p0:hỗ+trợ
p0:sạt+lở
p0:tuyệt+vọng
p0:phát+hiện
p0:khảo+sát
p0:cạnh+tranh
p0:xuất+hiện
p0:chỉ+đạo
p0:ẵm
p0:lấn+chiếm
p0:hình+thành
p0:cá+độ
p0:ốm
p0:ốp
p0:trao+đổi+#
p0:dùng
p0:nằm+xuống
p0:cảm
p0:chọn+lựa
p0:nghi+ngờ
p0:giảng+dạy
p0:cầm
p0:cần
p0:lãnh
p0:chế+tạo
p0:an+ủi
p0:phản+đối
p0:đặt
p0:qua+đời
p0:làm+thuê
p0:cạp
p0:thi+công
p0:ủi
p0:tạo+lập
p0:đọc
p0:bịt
p0:vận+động
p0:kính+trọng
p0:vang
p0:kinh+ngạc
p0:cắt
p0:bại
p0:bạt
p0:bấm
p0:bất
p0:đánh
p0:đáng
p0:nuôi
p0:lựa+chọn
p0:đẩy
p0:điều+tra
p0:đấm
p0:bắn
p0:đạt
p0:đạp
p0:cưới
p0:kiện
p0:sử+dụng+#
p0:bị+thương
p0:tồn+tại
p0:dọn
p0:an+nghỉ
p0:khép
p0:kết+thúc
p0:để+ý
p0:kiếm
p0:chơi+vơi
p0:khóc
p0:cười
p0:nạo+vét
p0:photo
p0:kiện+#
p0:cúi
p0:thoát
p0:bố+trí
p0:tránh
p0:liên+quan
p0:sở+hữu
p0:đứng
p0:dẫn
p0:gom
p0:đánh+bắt
p0:phân+biệt
p0:đợi
p0:xuất+khẩu
p0:đổi
p0:càn
p0:cào
p0:dạy
p0:đăng
p0:ghi
p0:xoay
p0:làm+#
p0:bóp
p0:hiểu+biết
p0:khỏi
p0:dặn
p0:chinh+phục
p0:chửi
p0:chữa
p0:bóc
p0:dắt
p0:đứt
p0:ra+đời
p0:chứa
p0:khám
p0:ghi+chép
p0:dập
p0:dậy
p0:dâng
p0:tham+quan
p0:bám+#
p0:giới+thiệu
p0:nuốt
p0:chết
p0:giải+phóng
p0:xuyên
p0:diễn
p0:diệt
p0:vận+chuyển
p0:pos:Vb
p0:làm+ăn
p0:đồng+ý
p0:đóng+góp
p0:khuyên
p0:canh+tác
p0:chảy
p0:chạm
p0:giúp+đỡ
p0:dành+dụm
p0:kiểm+tra
p0:hỏi+#
p0:phát+triển
p0:khao+khát
p0:yêu+quí
p0:lau
p0:can+thiệp
p0:cho+phép
p0:ủng+hộ
p0:uống
p0:hái
p0:hát
p0:nghỉ
p0:hàn
p0:quản+lý
p0:trực
p0:bơm
p0:bơi
p0:thắc+mắc
p0:canh
p0:hiểu
p0:khai
p0:khai+thác
p0:thi+#
p0:thăm+dò
p0:bán+#
p0:thờ+phụng
p0:gây
p0:trồi
p0:chở
p0:trốn
p0:chờ
p0:chưa+#
p0:biến
p0:biết
p0:cư+trú
p0:sinh+sống
p0:hoang+mang
p0:ăn+ở
p0:qua+lại
p0:chiến+đấu
p0:hướng+dẫn
p0:treo
p0:quay
p0:kiểm+soát
p0:trao
p0:tham+gia
p0:phát+sinh
p0:xây+dựng
p0:đổi+đời
p0:đẻ+#
p0:đâm
p0:đáp
p0:phòng+chống
p0:xem+xét
p0:mua+sắm
p0:xới
p0:mua
p0:đặt+hàng
p0:đánh+#
p0:làm+ngơ
p0:phá
p0:quyến+rũ
p0:ruốc
p0:lâm
p0:lái
p0:làm
p0:ký+kết
p0:nhiễm
p0:lùi
p0:có+mặt
p0:đón
p0:thu+hẹp
p0:ăn+uống
p0:quyết+định+#
p0:nảy+sinh
p0:gây+#
p0:kèm
p0:kêu
p0:giữ
p0:ngụy+trang
p0:tính+#
p0:luyện
p0:phản+ứng
p0:nướng
p0:xảy
p0:ăn+mặc
p0:quy+tập
p0:móc
p0:mưu+sinh
p0:hy+sinh
p0:mòn
p0:đổ
p0:nằm
p0:rao
p0:nhận+#
p0:lên+tiếng
p0:bỏ+qua
p0:mở+rộng
p0:mời
p0:liên+lạc
p0:đồng+hành
p0:đuổi
p0:đuổi+#
p0:tiếp+cận
p0:xin+lỗi+#
p0:nói
p0:hoàn+thiện
p0:nghĩ
p0:tham+dự
p0:làm+giàu
p0:buông
p0:vui+chơi
p0:du+học
p0:hiện+diện
p0:tiếp+xúc
p0:mượn
p0:nghi
p0:thủ+công
p0:giúp
p0:đối+chất
p0:tan
p0:tiếc
p0:hành+nghề
p0:ăn+#
p0:tiếp
p0:viết+#
p0:tiễn
p0:tiếp+thị
p0:thi
p0:đượm
p0:thua
p0:soi
p0:buôn
p0:thuê
p0:tốt+nghiệp
p0:chu+cấp
p0:khám+phá
p0:thán+phục
p0:ô+nhiễm
p0:ghép
p0:thanh+toán
p0:lên+#
p0:trân+trọng
p0:dính
p0:xin+lỗi
p0:thổi
p0:truyền
p0:thỏa+thuận
p0:ngả
p0:mua+bán
p0:đối+diện
p0:phấn+đấu
p0:hội+nhập
p0:chuẩn+bị
p0:tường+trình
p0:nhỉ
p0:ngủ
p0:nhổ
p0:nhớ
p0:vay
p0:tiết+lộ
p0:cảm+thông
p0:trả+lời
p0:giảm
p0:rủ
p0:vận+hành
p0:rẽ
p0:nở
p0:nổ
p0:mở
p0:chuyển
p0:vọng
p0:giật
p0:vỡ
p0:sập
p0:vỗ
p0:tài+trợ
p0:liên+hệ
p0:rụt
p0:tạo
p0:giải+tỏa
p0:vi+phạm
p0:lưu
p0:gọi+#
p0:rút
p0:xách
p0:rít
p0:tắt
p0:tắm
p0:tỉa
p0:phụ+trách
p0:giao
p0:sụp
p0:xét+xử
p0:phụ
p0:lang+thang
p0:kỳ+thị
p0:mua+dâm
p0:xin
p0:vượt
p0:phân+tích
p0:xem
p0:điều+tra+#
p0:tiêu
p0:trang+trí
p0:nhắm+mắt
p0:thay+đổi
p0:sót
p0:sửa
p0:lan+truyền
p0:hoạt+động+#
p0:vắt
p0:tuyên+bố
p0:đóng
p0:bó+tay
p0:tìm+hiểu
p0:qui+tập
p0:tức+giận
p0:đền+bù
p0:tiến+hành
p0:học+tập
p0:tiếp+theo
p0:tiêu+thụ
p0:tùy
p0:quên
p0:hạn+chế
p0:mong+đợi
p0:khẳng+định
p0:ôm
p0:tố+cáo
p0:ước
p0:thượng+đài
p0:dựa
p0:lây+nhiễm
p0:tìm+kiếm
p0:quyết+toán
p0:dựng
p0:vác
p0:vây
p0:trồng
p0:chết+#
p0:vét
p0:đau+#
p0:hoàn+lương
p0:chạm+trán
p0:tập+huấn
p0:dứt
p0:gặp
p0:đè
p0:khấn
p0:vút
p0:bồi+thường
p0:đo
p0:hại
p0:đề+phòng
p0:phối+hợp
p0:huấn+luyện
p0:dọn+dẹp
p0:nghiên+cứu+#
p0:làm+việc
p0:viết
p0:sinh
p0:gặp+#
p0:bắt+đầu
p0:hợp+tác
p0:gật
p0:hết+#
p0:lắc+đầu
p0:nhặt
p0:đầu+tư
p0:đăng+ký
p0:xây
p0:ngồi
p0:cuộn
p0:xảy+ra
p0:chơi
p0:nhắn
p0:nhập
p0:nhận
p0:nhậu
p0:tiếp+#
p0:rơi
p0:đi+#
p0:gọi
p0:buôn+bán
p0:xóa
p0:khắc+phục
p0:trả
p0:trở
p0:trọ
p0:kêu+gọi
p0:khủng+bố+#
p0:lên+đường
p0:đòi+hỏi
p0:xung+phong
p0:vạch
p0:tuyên+truyền
p0:ngập
p0:nghiên+cứu
p0:xấu+hổ
p0:thẩm+định
p0:kể
p0:họp
p0:yêu
p0:tặng
p0:chăm+sóc
p0:lở
p0:hốt
p0:xuất+bản
p0:hỏi
p0:nhảy
p0:gửi
p0:bỏ
p0:sáng+tạo
p0:phiêu+bạt
p0:lặng
p0:phân+phối
p0:hô
p0:trưng+bày
p0:lo
p0:thu+mua
p0:thương+yêu
p0:mơ
p0:phát+triển+#
p0:sa
p0:mê
p0:hứa
p0:vá
p0:lấy
p0:thử+#
p0:tập+kết
p0:cảm+ơn
p0:làm+quen
p0:lạc
p0:kết
p0:bàn+tán
p0:thống+nhất
p0:kẹp
p0:xử+lý
p0:trồng+#
p0:đối+đầu
p0:trình
p0:nhớ+thương
p0:hi+sinh
p0:khám+nghiệm
p0:phúc+thẩm
p0:tập+trung
p0:sử+dụng
p0:bảo+hộ
p0:ngập+ngừng
p0:duyệt
p0:thu+giữ
p0:cứu+#
p0:trở+về
p0:bảo+lãnh
p0:động+viên
p0:phiên+dịch
p0:nấu+ăn
p0:sắp+xếp
p0:quyết+tâm
p0:mất
p0:giám+định
p0:lặn
p0:tranh+đấu
p0:ngậm+ngùi
p0:lật
p0:nói+chuyện
p0:tấn+công
p0:khuyến+khích
p0:nắm
p0:lưu+thông
p0:sống
p0:xóa+sổ
p0:chôn
p0:chia+tay
p0:cấp+cứu
p0:nấu
p0:phẫu+thuật
p0:vật+lộn
p0:tăng
p0:giải+thích
p0:mặc
p0:cháy
p0:xuống+#
p0:thuộc
p0:nhân
p0:in
p0:lại+#
p0:sang
p0:đều
p0:hay+#
p0:liền
p0:về+#
p0:ở+#
p0:theo
p0:vào
p0:qua
p0:xuống
p0:lên
p0:ra+#
p0:đau
p0:trực+tiếp
p0:chẳng+#
p0:xong
p0:vẫn+#
p0:kéo+dài
p0:sinh+tử
p0:ưu+tiên
p0:chân+thành
p0:chuyên
p0:đói
p0:say
p0:chắc+chắn
p0:tạm
p0:ngửa
p0:tái
p0:đang+#
p0:ngược
p0:chung
p0:hạ
p0:bị
p0:miệt+mài
p0:chăm
p0:chìm
p0:vĩnh+viễn
p0:ầm+ầm
p0:được
p0:tuyệt+đối
p0:đau+đớn
p0:chủ+yếu
p0:vô+cùng
p0:tha+thiết
p0:bán
p0:tự+hào
p0:bận
p0:hoàn+toàn
p0:liên+tục
p0:chính+thức
p0:ngang
p0:quá+#
p0:thiếu
p0:bất+ngờ
p0:quen
p0:may
p0:khó+chịu
p0:đỡ
p0:thật
p0:thật+sự
p0:sẵn
p0:vui
p0:buồn
p0:vắng
p0:nghiêng
p0:vất+vả
p0:ổn+định
p0:gấp
p0:ngạc+nhiên
p0:im+lặng
p0:dễ
p0:rõ
p0:công+khai
p0:rách
p0:lớn
p0:có+vẻ
p0:ra+sao
p0:thôi+#
p0:hấp+dẫn
p0:nhìn
p0:chạy
p0:hóa
p0:cảnh+giác
p0:quen+biết
p0:hút
p0:tư+vấn
p0:trở+lại
p0:thấy
p0:nổi
p0:thừa
p0:thay
p0:nữa+#
p0:xử
p0:giam
p0:tìm
p0:ăn
p0:thuyết+phục
p0:đi
p0:hẹn
p0:thở
p0:lo+lắng
p0:hoàn+chỉnh
p0:thương+mến
p0:tình+cờ
p0:ưu+đãi
p0:liên+tiếp
p0:ngày+một
p0:lúng+túng
p0:bưng
p0:bất+lực
p0:nhẹ+nhàng
p0:vui+vẻ
p0:khủng+khiếp
p0:sai
p0:quá+tải
p0:thành+thạo
p0:chuyên+nghiệp
p0:quyết+liệt
p0:ngày+càng
p0:như+thế
p0:cũng+như
p0:hoàn+toàn+#
p0:phấn+khởi
p0:hừng+hực
p0:sôi+động
p0:hà
p0:tác+chiến
p0:phát+động
p0:đặt+cược
p0:kiên+nhẫn
p0:chậm+rãi
p0:tráo
p0:lên+lớp
p0:chia
p0:giăng
p0:trúng
p0:nhìn+#
p0:trao+đổi
p0:chăm+lo
p0:loay+hoay
p0:nghe+#
p0:kéo+theo
p0:thành+lập
p0:trút
p0:xuất+thân
p0:điều+khiển+#
p0:tiếp+tục
p0:chặt+#
p0:tự+nguyện
p0:chuyển+giao
p0:xúc+động+#
p0:nổi+nóng
p0:ngồi+#
p0:chạy+#
p0:gồng+gánh
p0:bảo+#
p0:trở+#+về
p0:thương+#
p0:tăng+trưởng
p0:giúp+#
p0:lập+tức+#
p0:vòng+quanh
p0:nghỉ+tay
p0:tử+nạn
p0:khởi+tố
p0:lóng+ngóng
p0:hủy+hoại
p0:lo+âu
p0:đảm+bảo
p0:nghi+ngờ+#
p0:sửa+chữa
p0:trà+trộn
p0:đành
p0:luồn
p0:chống+chọi
p0:đeo
p0:trình+bày
p0:nhắc+#
p0:từ+từ
p0:sàng
p0:ập
p0:chê
p0:rẽ+#
p0:ráp+nối
p0:lặn+lội
p0:lênh+láng
p0:giành
p0:yêu+#
p0:cưỡng+hiếp
p0:biến+dạng
p0:trị+giá
p0:sáng+lập
p0:ly+dị
p0:che
p0:sánh
p0:ra+vào
p0:tàn+phá
p0:bắt+gặp
p0:nhớ+#
p0:làm+chứng
p0:lý+giải
p0:tắt+thở
p0:áp+dụng
p0:ới
p0:nghẹn+ngào
p0:đếm
p0:cõng
p0:bén
p0:cấy
p0:trở+thành
p0:cất
p0:cấm
p0:giúp+đỡ+#
p0:chọn+#
p0:công+bố
p0:triệt+tiêu
p0:tranh+thủ
p0:yên+vị
p0:bình+chọn
p0:sống+chết
p0:dâng+hiến
p0:huy+động
p0:bám
p0:bày
p0:làm+quen+#
p0:khuyên+can
p0:ấp+ủ
p0:thấp+thoáng
p0:nói+thẳng
p0:nhất+quyết
p0:đốn
p0:hỏi+thăm
p0:chuẩn+bị+#
p0:cạn+kiệt
p0:nuôi+#
p0:dáo+dác
p0:khiến
p0:cắm
p0:bày+tỏ
p0:cắp
p0:cắn
p0:bảo+tồn
p0:bốc
p0:bảo
p0:kiêm
p0:phong+tỏa
p0:trục+vớt
p0:bổ+sung
p0:kéo+#
p0:chứng+tỏ
p0:đắp
p0:đột+nhập
p0:đánh+dấu
p0:sẽ+#
p0:nhờ+#
p0:nhận+thấy
p0:hoàn+trả
p0:giao+phối
p0:bắt
p0:bật
p0:cứu
p0:dừng
p0:đụng
p0:kiểm
p0:thành+#
p0:chực
p0:thu+gom
p0:ghiền
p0:di+chuyển
p0:dám
p0:dán
p0:chấp+nhận
p0:cởi
p0:dời
p0:đối+mặt
p0:thu+#
p0:ham
p0:dồn
p0:giơ
p0:phun
p0:phóng
p0:quẳng
p0:ăn+nhậu
p0:thách
p0:ghé
p0:lau+chùi
p0:dạt
p0:thuê+#
p0:cầu+cứu
p0:chấm+dứt
p0:cãi
p0:mời+#
p0:bớt
p0:xác+minh
p0:chụp
p0:phai
p0:đứng+#
p0:quyên+góp
p0:bít
p0:tính+toán
p0:nhận+thức
p0:vượt+#
p0:kháo
p0:chịu
p0:chọn
p0:tình+nguyện+#
p0:giới+thiệu+#
p0:tung+#
p0:phát+hiện+#
p0:chẳng+thể
p0:tiếp+nhận
p0:chặn
p0:ruồng+bỏ
p0:tuột
p0:khai+thác+#
p0:rung
p0:chắn
p0:chứa+đựng
p0:vỡ+lở
p0:hiến
p0:phê+duyệt
p0:giác+ngộ
p0:tự+#
p0:nhét
p0:khai+trương
p0:hòa+quyện
p0:ngăn
p0:xông
p0:kể+#
p0:đón+đầu
p0:cảm+phục
p0:làm+thân
p0:cảm+nhận+#
p0:tưởng+tượng
p0:lấy+#
p0:bảo+đảm
p0:nối+đuôi
p0:quấn
p0:quất
p0:cố+tình
p0:tước+đoạt
p0:phân+phát
p0:đon+đả
p0:leo
p0:len
p0:tuân+thủ
p0:phán+đoán
p0:hét
p0:nối+liền
p0:chạy+chữa
p0:hít
p0:cất+giữ
p0:bàn+bạc
p0:ngăn+cản
p0:khoe
p0:lui
p0:tốn+kém
p0:làm+công
p0:bao+trùm
p0:lắp+đặt
p0:hưởng
p0:làm+chủ
p0:giảm+sút
p0:ken
p0:thất+nghiệp
p0:khoác
p0:gìn+giữ
p0:chiếm
p0:xoáy
p0:khởi+nghiệp
p0:uống+#
p0:sang+tên
p0:chớ
p0:xin+phép
p0:hoàn+thành
p0:tạo+hình
p0:biếu
p0:trộm
p0:trộn
p0:chú+ý
p0:thu+dọn
p0:lê+la
p0:góp
p0:thông+qua
p0:sống+#
p0:thưa
p0:ngó
p0:trợ+cấp
p0:cương+quyết
p0:giữ+gìn
p0:hồi+hộp
p0:bắn+#
p0:giấu+#
p0:thừa+kế
p0:lật+đật
p0:miễn+phí
p0:thấu+hiểu
p0:thi+hành
p0:giải+quyết+#
p0:giải+quyết
p0:duy+trì
p0:trang+bị
p0:biểu+diễn
p0:chờ+#
p0:mong
p0:chứng+kiến+#
p0:thành+đạt
p0:đục+khoét
p0:lượn
p0:lượm
p0:hoành+hành
p0:ngăn+chặn
p0:tằn+tiện
p0:phản+ánh
p0:hi+sinh+#
p0:muốn
p0:dạy+dỗ
p0:trăn+trở
p0:xộc
p0:quăng
p0:làm+bộ
p0:dành
p0:cắt+#
p0:khoanh
p0:dừng+#
p0:ấp+úng
p0:cải+thiện
p0:thoắt
p0:cải+cách
p0:vứt
p0:pha
p0:xếp
p0:thu+nhận
p0:làm+mướn
p0:trọ+#
p0:kết+hợp
p0:sặc+sụa
p0:cần+#
p0:đạp+#
p0:chiếu+cố
p0:xem+#
p0:dặn+#
p0:góp+phần
p0:lôi
p0:đánh+dấu+#
p0:xin+#
p0:luôn+#
p0:cố+tình+#
p0:vọt
p0:giở
p0:diễn+ra
p0:nâng+cấp
p0:nhiễm+#
p0:ngất+xỉu
p0:gõ+cửa
p0:ghi+nhận
p0:tung
p0:vớt
p0:phân+công
p0:thu+hồi
p0:cầm+cự
p0:phá+hủy+#
p0:ban+hành
p0:đựng
p0:sang+tay
p0:đỗ
p0:tụ+tập
p0:thạo
p0:lựa
p0:quay+#
p0:cung+cấp
p0:thầm
p0:mong+muốn
p0:múc
p0:reo
p0:mở+đường
p0:ngừng
p0:thấm
p0:lập+nghiệp
p0:thắp
p0:cơ+mà+#
p0:thanh+lý
p0:lăn
p0:tuyên+dương
p0:tỏ+vẻ
p0:thấy+#
p0:rơi+#
p0:oằn
p0:nối
p0:chăng
p0:chốc+chốc
p0:phù+hợp
p0:ngoi
p0:nộp
p0:đẩy+mạnh
p0:nói+#
p0:hỏi+han
p0:ăn+uống+#
p0:nhận+ra
p0:bộc+lộ
p0:chờ+đợi
p0:trùng
p0:nứt
p0:chú+trọng
p0:làm+đồng
p0:giật+mình
p0:ra+mặt
p0:thì+thào
p0:ném
p0:nép
p0:đặt+chân
p0:nêu
p0:nín
p0:thuộc+#
p0:xử+#
p0:chạm+mặt
p0:mướn
p0:đổ+xô
p0:lên+án
p0:giã+từ
p0:xong+#
p0:tha
p0:len+lỏi
p0:lọ+mọ
p0:thức
p0:chuyển+hướng
p0:đánh+đập
p0:lăn+lộn
p0:triển+khai
p0:thở+dài
p0:chịu+thua
p0:phơi
p0:đong
p0:báo+hiệu
p0:nằm+#
p0:sắm+vai
p0:rùng+mình
p0:chế+biến
p0:tin+tưởng
p0:chấp+thuận
p0:đáp+ứng
p0:hòa+đồng
p0:cầu+mong
p0:gửi+#
p0:xây+xẩm
p0:rải
p0:thêm+#
p0:hoàn+tất
p0:ách+tắc
p0:phát+huy
p0:thò
p0:hoan+nghênh
p0:thốt
p0:cải+tiến
p0:trú
p0:đảm+nhiệm
p0:làm+gương
p0:cộng
p0:nối+tiếp
p0:thực+hiện+#
p0:xử+phạt
p0:chép+miệng
p0:xâm+nhập
p0:tứ+tán
p0:giải+trình
p0:bám+trụ
p0:chăm+chú
p0:ngỡ
p0:chấp+nhận+#
p0:kết+thúc+#
p0:ươm
p0:nhấn+mạnh
p0:rộ
p0:giấu
p0:sốt+ruột
p0:có+thai
p0:tụ
p0:tỏ
p0:sờ
p0:sợ
p0:bồng
p0:muốn+#
p0:mang
p0:giẫm
p0:đùm+túm
p0:sắm
p0:phá+#
p0:xẻ
p0:tham+khảo
p0:đưa
p0:vuốt
p0:che+chắn
p0:khánh+thành
p0:công+nhận
p0:mang+#
p0:chập+chờn+#
p0:giục
p0:khôi+phục
p0:rớt
p0:rời
p0:thừa+nhận
p0:nhốt
p0:trông
p0:rót
p0:rủ+rê
p0:đưa+#
p0:ngâm
p0:lắc+đầu+#
p0:xói+lở
p0:tậu
p0:kết+nạp
p0:tổ+chức+#
p0:rửa
p0:đổi+#
p0:tắm+#
p0:che+chở
p0:tuyển
p0:phủ
p0:săn
p0:đeo+đuổi
p0:la+cà
p0:lò+dò
p0:quyết
p0:ưa
p0:tiêm
p0:rón+rén
p0:đấu+thầu
p0:tốn
p0:thăm
p0:cận+kề
p0:bắt+tay
p0:tỏa
p0:ra+sức
p0:thể+hiện+#
p0:tiêu+diệt
p0:lợi+dụng+#
p0:vẫy
p0:đoán
p0:đóng+#
p0:tăm
p0:giận+hờn
p0:vẫy+vùng
p0:truy+tố
p0:bắt+chuyện
p0:tụt
p0:trấn+an
p0:tham+nhũng
p0:quây
p0:thèm
p0:bực+mình
p0:túa
p0:uốn
p0:đặt+#
p0:tháo
p0:quét
p0:phấn+đấu+#
p0:ôn
p0:mở+#
p0:tập+luyện
p0:thúc+đẩy
p0:tìm+#
p0:mất+tích
p0:ép
p0:ngất
p0:tiếp+tế
p0:dùng+#
p0:tiếp+thị+#
p0:vướng
p0:dậy+#
p0:gợi+ý
p0:úa
p0:ùa
p0:từ+chối
p0:cười+#
p0:nghỉ+việc
p0:vót
p0:gặt
p0:học+hỏi
p0:vùi
p0:hài+lòng
p0:cảm+nhận
p0:khắc
p0:tiếp+thu
p0:có+mặt+#
p0:nhập+khẩu
p0:xuất
p0:ra+hiệu
p0:cố+ý
p0:xâm+hại
p0:gắn
p0:nhuốm
p0:đi+khách
p0:góp+#
p0:gộp
p0:trở+nên
p0:che+giấu
p0:nói+nhỏ
p0:trích
p0:thả
p0:nhắm
p0:nhắc
p0:thở+phào
p0:xài
p0:trông+cậy
p0:thị+sát
p0:thồ
p0:chuyển+#
p0:thăm+#
p0:thử
p0:xét
p0:bỏ+#
p0:say+mê
p0:ghen+tuông
p0:ứng
p0:loại+bỏ
p0:săn+bắt
p0:hắt
p0:thú+thật
p0:gia+nhập
p0:hằn
p0:trừ
p0:gồm
p0:trổ
p0:nói+năng
p0:giải+đáp
p0:tận+dụng
p0:thèm+khát
p0:trải
p0:chôn+#
p0:đồng+thanh
p0:phân+trần
p0:ngắm
p0:lạm+dụng
p0:ngậm
p0:đề+cập
p0:khóc+#
p0:chấn+chỉnh
p0:nhẩm
p0:cung+ứng
p0:gắn+bó
p0:bươn+chải
p0:hề
p0:gỡ
p0:kiếm+ăn
p0:kề
p0:nhấc
p0:nhặt+#
p0:đổ+thừa
p0:cố+gắng
p0:bẻ
p0:tập+thể+dục
p0:cử
p0:nâng
p0:ào+ạt
p0:bó
p0:đặt+cọc
p0:tiến+#
p0:tàn+sát
p0:co
p0:trung+thành
p0:mất+#
p0:lê
p0:hò
p0:gõ
p0:gí
p0:dò
p0:đo+#
p0:rành
p0:hứng
p0:dám+#
p0:rà
p0:tăng+cường
p0:so
p0:chuyên+môn+hóa
p0:mò
p0:chào+hàng
p0:chào+đời
p0:ký+tên
p0:thu+hút
p0:xé
p0:nhảy+#
p0:vò
p0:rũ
p0:tra+tấn
p0:lẩn
p0:sắp+sửa
p0:bộc+bạch
p0:phát+biểu
p0:lầm
p0:sửng+sốt
p0:lấn
p0:lấp
p0:biết+#
p0:sàng+lọc
p0:cải+tạo
p0:kẹt
p0:nhắc+nhở
p0:chịu+#
p0:thờ+cúng
p0:giả+vờ
p0:sợ+#
p0:thú+nhận
p0:dòm+ngó
p0:trách+móc
p0:mần
p0:lọt
p0:sụp+đổ
p0:siết
p0:ồ+ạt+#
p0:chắt+chiu
p0:đánh+hơi
p0:phân+cấp
p0:học+lỏm
p0:lặp
p0:gặp+mặt
p0:cảnh+giới
p0:chạnh+lòng
p0:ðược
p0:dắt+díu
p0:cảm+thấy
p0:chết+đứng
p0:bị+#
p0:thất+thần
p0:lập
p0:nghĩ+#
p0:cặm+cụi
p0:móm+mém
p0:lắp
p0:ngã+#
p0:định
p0:vui+mừng
p0:mọc
p0:thất+lạc
p0:nản+lòng
p0:thắng+#
p0:lừa
p0:nảy
p0:nạo
p0:vang+vọng
p0:hẹn+hò
p0:thông+cảm
p0:nấp
p0:lội
p0:theo+dõi+#
p0:chèo
p0:chèn
p0:nuôi+nấng
p0:đón+nhận
p0:mắc
p0:ào
p0:áp
p0:châm
p0:theo+đuổi
p0:thi+thoảng
p0:theo+#
p0:cốt
p0:vào+#
p0:nhằm
p0:vật+vờ
p0:hồ+hởi
p0:đột+ngột
p0:cạn
p0:lầm+lũi
p0:hãy
p0:gãy
p0:chủ+động
p0:dứt+khoát
p0:ào+ào
p0:cảm+động
p0:vội
p0:thường+xuyên
p0:tận+mắt
p0:xôn+xao
p0:thật+tình
p0:tương+đương
p0:dã+ngoại
p0:chưa+thể
p0:vật+vã
p0:nhầm
p0:đừng
p0:âm+thầm
p0:vừa+#
p0:lặng+lẽ
p0:bình+tĩnh
p0:chặt
p0:chắc
p0:căng
p0:mệt+mỏi
p0:sẵn+sàng
p0:kiên+quyết
p0:mừng
p0:tất+bật
p0:tiện
p0:nhanh+chóng
p0:dễ+dàng
p0:yên+tâm
p0:cẩn+thận
p0:tràn+ngập
p0:gắt
p0:kịp
p0:phải+#
p0:chán
p0:liệu
p0:chững+chạc
p0:khát
p0:ầm+ĩ
p0:khẩn+trương
p0:thất+vọng
p0:đòi
p0:vội+vã
p0:ân+hận
p0:thích
p0:thêm
p0:tự+tin
p0:hình+dung
p0:kiên+trì
p0:nhất+thiết
p0:xác+định
p0:làm+gì
p0:thay+vì
p0:tràn+lan
p0:càng+ngày+càng
p0:ngày+một+#
p0:ngơ+ngác
p0:thiếu+thốn
p0:thích+thú
p0:xởi+lởi
p0:lớn+khôn
p0:đăm+đăm
p0:cần+mẫn
p0:toác
p0:băng+băng
p0:quá+sức
p0:buồn+buồn
p0:xứng
p0:lừ+đừ
p0:xuôi+ngược
p0:điềm+nhiên
p0:chóng+vánh
p0:dễ+bề
p0:cùng+#
p0:tự+túc
p0:kiệt+quệ
p0:chán+nản
p0:xui
p0:tươi+cười
p0:quả+là+#
p0:râm+ran
p0:đáng+giá
p0:chăm+chỉ
p0:bức+xúc
p0:ùn+ùn
p0:sung+sướng
p0:sôi+nổi
p0:kiệt+sức
p0:chịu+khó
p0:mệt
p0:thậm+chí+#
p0:mãn+nguyện
p0:băm
p0:cứ+thế
p0:nhấp+nháy
p0:thản+nhiên
p0:hối+hả
p0:vinh+dự
p0:hào+hứng
p0:hụt
p0:tò+mò
p0:biết+mấy
p0:tiết+kiệm
p0:có+vẻ+#
p0:dội+#
p0:huống+hồ+#
p0:vì+vậy+#
p0:pằng
p0:thành+ra
p0:như+#+vậy
p0:vâng+#
p0:tuy+nhiên
p0:cho+nên
p0:rốt+cuộc
p0:ủa
p0:nào+ngờ
p0:!+!
p0:quả+thật
p0:ừ
p0:ồ
p0:…
p0:dần+dà
p0:"nếu
p0:hèn+nào
p0:thế+rồi
p0:pos:XP
p0:may+sao
p0:”+"
p0:thường+thường
p0:huống+hồ
p0:đôi+khi
p0:rằng+#
p0:tóm+lại+#
p0:vì+thế+#
p0:.+#
p0:.+.
p0:ờ+#
p0:coi+bộ
p0:lại+nữa
p0:...+...
p0:vì+vậy
p0:thế+mà+#
p0:thế+ra
p0:thế+mà
p0:số+là
p0:ðồng+thời
p0:bỗng+#
p0:thế+nhưng
p0:chả+thế+mà
p0:biết+đâu
p0:vả+lại
p0:kìa
p0:vậy+mà+#
p0:như+#+thế
p0:tuy+vậy
p0:tuy+#
p0:chừng+như
p0:thế+là+#
p0:vì+thế
p0:giá+như
p0:nghen
p0:thì+ra
p0:mặt+khác+#
p0:nghe+đâu
p0:trên+hết
p0:tức+khắc
p0:đành+rằng
p0:bởi+vì
p0:không+những+#
p0:ví+như
p0:vậy+thì
p0:rùi
p0:quá+lắm
p0:quả+là
p0:vâng
p0:huống
p0:huống+gì
p0:dù+vậy
p0:chắc+hẳn
p0:hơn+nữa+#
p0:tóm+lại
p0:vậy+là
p0:ôi
p0:trái+lại
p0:không+lẽ+nào
p0:nếu+không
p0:ngoài+ra
p0:ngoài+ra+#
p0:dẫu+vậy+#
p0:không+chừng
p0:dù+là+vậy
p0:dẫu+cho
p0:hễ
p0:nếu+#
p0:bởi+vậy
p0:nghĩa+là+#
p0:xí
p0:do+đó
p0:tức+thì
p0:dù+sao+#
p0:riết
p0:r+gì+#
p0:mà+sao
p0:hễ+#
p0:quả+tình
p0:bất+giác
p0:đã+vậy
p0:thí+dụ
p0:chi+bằng
p0:tuy+nhiên+#
p0:hay+là
p0:nếu+vậy
p0:ấy+#
p0:bất+chợt
p0:ạ
p0:-+#
p0:-+-
p0:tuy
p0:ơi
p0:dạ
p0:a
p0:mặc+dù
p0:nha
p0:nè
p0:đối+với
p0:nhất+là
p0:nhất
p0:hở
p0:ư
p0:đương+nhiên
p0:như+vậy+#
p0:ngược+lại
p0:xiết
p0:nổi+#
p0:như+thể
p0:thế+là
p0:do+vậy
p0:;+#
p0:cho+dù
p0:do
p0:!+#
p0:chắc+#
p0:chao
p0:thôi+thì
p0:do+#
p0:dẫu
p0:bởi+#
p0:ðể
p0:bởi
p0:của+#
p0:vì+#
p0:ui
p0:với+lại
p0:hơn+nữa
p0:hóa+ra
p0:được+cái+#
p0:dẫu+sao
p0:mặt+khác
p0:điện+minh
p0:thung+vình
p0:nguyễn+văn+tuấn
p0:hạng+mục
p0:chủ+nghĩa
p0:trân+trọng+#
p0:trắng+tinh
p0:sử+thi
p0:dưa+hấu
p0:nguyễn+văn+đẳng
p0:hoàng+sĩ+hải
p0:nhập+viện
p0:trận+đánh
p0:đại+sứ
p0:chi+đoàn
p0:ruột+tượng
p0:triều+phú
p0:st+#
p0:cai+lậy
p0:rách+nát
p0:nguy+kịch
p0:tư+cậm+#
p0:trãi
p0:định+vị
p0:trân
p0:điện+bàn
p0:hóa+an
p0:kỳ+châu
p0:gian+ác
p0:trần+văn+minh
p0:tân+xuân
p0:quân+sự+#
p0:ðứa
p0:dự+thính
p0:napalm
p0:pháp+#+lý
p0:bóng+loáng
p0:lăng
p0:tràm
p0:đặng+văn+cự
p0:dinh+dưỡng
p0:phó+văn+phòng
p0:sở+thích
p0:bch
p0:ma+trơi
p0:hồ+duyến
p0:nixon+#
p0:azit
p0:diên
p0:đại+lộ
p0:ngũ+tuần
p0:lunacy
p0:2+.+523
p0:núi+rừng+#
p0:beo
p0:ben
p0:53+-z340.+.+.
p0:chiến+tích
p0:định+kỳ
p0:chat
p0:cố+thủ
p0:đì+đùng
p0:airbus
p0:hoa+#
p0:john+woodward
p0:đèn+đỏ
p0:trê+#
p0:bí+mật+#
p0:suy+tưởng
p0:trịnh+thanh+lâm
p0:biến+cố
p0:lê+xuân+quyền
p0:bar
p0:ác+#
p0:nguyễn+huy+hoàng
p0:tân+kỳ
p0:tiểu+xảo
p0:cam+ranh
p0:chum
p0:rác+rưởi
p0:tình+nghĩa
p0:dankia+resort
p0:đỗ+đạt
p0:bộ+tư+lệnh+#
p0:nguyễn+công+trứ
p0:giác+đấu
p0:bẩn+thỉu
p0:hố+#
p0:quế+xuân
p0:ung+bướu
p0:cần+thơ
p0:70+.+000+-+150+.+000
p0:chị+em+#
p0:cận+chiến
p0:ngoại+hạng
p0:c+.
p0:mặt+tiền+#
p0:ngắn+ngủi+#
p0:định+chế
p0:cá+mập
p0:kịch
p0:núi+ông
p0:kỹ+nãng
p0:phú+hội
p0:ngàn+#
p0:văn+miếu
p0:hu+-+#+1a
p0:nhũ+đá
p0:an+cư+đông
p0:tương+dương
p0:2002+#
p0:ngọc+hương
p0:trần+thanh+nghị
p0:cầu+gỗ
p0:cao+quí
p0:ngon+lành
p0:tân+an
p0:đàn+đá
p0:sáng+#
p0:sông+cầu
p0:and
p0:tam+hoàng
p0:ang
p0:nguyễn+hữu+cầu
p0:phật+giáo+#
p0:xóc+chéo+#
p0:tuoi+tre
p0:nghèo+túng
p0:nghi+lễ
p0:kaymarn+sor+ubdul
p0:phục+vụ+#
p0:tâm+nhang
p0:trong+lành
p0:lê+trực
p0:nguyễn+thị+ngọc+hạnh
p0:sổ+tay
p0:cửa+kính
p0:hột+#
p0:mãnh+thú+#
p0:jurong+environment+engineering
p0:hoàng+phủ+ngọc+tường
p0:đài+nam
p0:tours
p0:trịnh+tùng
p0:160.000
p0:trợ+lý
p0:bàn+đạp
p0:trống+không
p0:tâm+hôn
p0:họng
p0:chức+vị
p0:phú+thạnh
p0:say+xỉn
p0:dân+phòng
p0:thiên+cung
p0:atlanta
p0:luận
p0:ngặt+nghèo
p0:thứ+bảy+#
p0:ross+miller
p0:chu+văn+minh
p0:phạm+thanh+tâm
p0:cô+tô
p0:nguyễn+văn+chí
p0:ngoại+cảm
p0:máy+xách+tay
p0:cần+thơ+#
p0:ngày+xưa+#
p0:sư+thầy
p0:900+.+000
p0:du+côn
p0:ketmany
p0:xô+viết
p0:qui+#+trình
p0:tháng+tám
p0:bộ+đội+#
p0:camry
p0:hồn+vía
p0:đỏ+chót
p0:căngtin
p0:quân+dân+#
p0:hình+chữ+nhật
p0:nuối+tiếc
p0:newyork
p0:cửa+mở
p0:phản+lực+#
p0:tốc+hành
p0:sáu+chí
p0:hòa+khánh+bắc
p0:mừng+tuổi
p0:bình+đào
p0:kim+chi
p0:lạc+long+quân
p0:phát+ngôn
p0:phi+lao
p0:khắc+hùng
p0:tuyết+mai
p0:huyền+trân+công+chúa
p0:ngoài+trời
p0:đàm+khắc+lĩnh
p0:ghi+hình
p0:hoàng+gia
p0:hưng+đạo+vương
p0:công+trạng
p0:bảy+núi
p0:đại+cương
p0:chợ+gạo
p0:nước+máy
p0:tà+ôi+vân+kiều
p0:attila
p0:2003+#
p0:lý+sơn
p0:văn+tưởng
p0:phú+vang
p0:xhcn
p0:bàu+cát
p0:râu+tóc
p0:cư+xá
p0:tỏ+tường
p0:chân+đất
p0:nhắm+mắt+xuôi+tay
p0:phẫu+thuật+#
p0:nguyễn+thanh+đoàn
p0:ha+#
p0:chúc+#+mừng
p0:đoạn+#
p0:hệ+sinh+thái
p0:kinh+hoàng+#
p0:ngoại+tệ
p0:lào+#
p0:gian+lao
p0:yêng+hùng
p0:soạn+thảo
p0:thần+kỳ
p0:cao+tốc
p0:alzheimer
p0:cotton
p0:cồn+lá
p0:nguyễn+thị+liên
p0:tp+.+#+hcm
p0:hội+ngộ
p0:âu+lo
p0:ayun
p0:bóng+ma
p0:thất+thập+cổ+lai+hi
p0:bình+hiên
p0:xá+xị
p0:triệu+triệu+#
p0:hô+hấp
p0:ðấu
p0:hoàng+đạt
p0:trắc+ẩn
p0:hoảng+loạn
p0:pháp+chế
p0:hiểm+nghèo
p0:mực+ống
p0:logic+#
p0:rang+#
p0:urani+#
p0:091386315…
p0:công+thương
p0:rào+chắn
p0:nvonn
p0:hiếu+học
p0:bình+phẩm
p0:nguyễn+văn+hồng
p0:lành+mạnh
p0:khác+#+lạ
p0:an+phú
p0:hân+hoan+#
p0:hương+ước
p0:thượng+thặng
p0:cá+đối
p0:lạ+mắt
p0:trung+tả
p0:hột+vịt+lộn
p0:hoàng+xuân+đường
p0:sở+hữu+trí+tuệ
p0:huênh+hoang
p0:bấy+#+giờ
p0:bẫy+#
p0:1979
p0:1977
p0:1976
p0:ổ+voi
p0:13-11
p0:man+rợ
p0:1980
p0:1981
p0:1987
p0:1988
p0:cường+tráng
p0:chu+quốc+ân
p0:1993
p0:1994
p0:1995
p0:1991
p0:1999
p0:1998
p0:1997
p0:xóm+#
p0:bòng+bong
p0:nhà+riêng+#
p0:ích
p0:nguyễn+trọng+nhân
p0:thủ+lĩnh
p0:tập+làm+văn
p0:lê+thánh+tôn
p0:moa+#
p0:1937
p0:dương+gian
p0:atâu
p0:thư+điện+tử+#
p0:đai
p0:inrs-energie+et+materiaux
p0:1940
p0:thương+gia
p0:tang+vật
p0:bộ+ðàm
p0:1946
p0:1947
p0:1943
p0:nông+đức+mạnh
p0:đen+trắng
p0:1952
p0:f+#
p0:lâm+thời
p0:tàn+nhẫn
p0:nguyễn+quỳnh+lộc
p0:4+.+800
p0:1956
p0:1954
p0:1959
p0:1963
p0:1961
p0:1960
p0:trần+văn+lợi
p0:1964
p0:1965
p0:càn+quét
p0:1966
p0:1969
p0:1970
p0:đao
p0:đinh+xuân+cường
p0:hiệp+định
p0:1974
p0:học+xá
p0:mỹ+hiệp+sơn+#
p0:phú+nhuận
p0:cil
p0:kỳ+tích
p0:tuyết+nhi
p0:khệt+phằn
p0:người+lớn
p0:karate
p0:giúp+việc
p0:dream+#
p0:rơmooc
p0:2004+#
p0:nguyễn+thị+thu
p0:hầm+#
p0:ckc
p0:&+#
p0:dũng+khang
p0:chì
p0:áo+thun
p0:chè
p0:phan+thế+minh+hùng
p0:cuốc+#
p0:đại+thắng
p0:ghê+gớm
p0:thuốc+nổ
p0:2+.+827
p0:địa+chính
p0:đinh+bộ+lĩnh
p0:máy+điện
p0:ngóc+ngách+#
p0:com
p0:lời+lẽ
p0:nguyễn+minh+phụng
p0:2+.+800
p0:sâu+hoắm
p0:cát+lái
p0:trứng
p0:sri+lanka
p0:ám+hiệu
p0:quan+sơn+#
p0:chính+cung
p0:vĩnh+an
p0:lê+minh+quang
p0:khai+cuộc
p0:đường+phố+#
p0:nho+quan
p0:chơ
p0:ấu
p0:600.+000
p0:lê+duẩn
p0:ctp
p0:phù+long
p0:cơ+quan+hành+chính
p0:43+tỉ
p0:khiếm+thị
p0:mến+thương
p0:đa+#
p0:giao+chiến
p0:mở+-+bán+công
p0:an+lão
p0:giao+nhận
p0:nguyễn+thanh+huy
p0:resort
p0:cà+vạt
p0:sách+vở
p0:hồ+văn+hiền
p0:vô+hiệu
p0:châu+á
p0:class+action+lawsuit
p0:suy+giảm
p0:lifebuoy
p0:tầm+vóc
p0:hồng+ngoại
p0:thủ+công+nghiệp
p0:bình+tuy
p0:nước+nhà
p0:nguyễn+văn+quí+#
p0:nguyễn+hường
p0:thứ+năm
p0:hành+quân+#
p0:kiên+hải
p0:mường+pẹt
p0:bùi+thị+nhàn
p0:vô+vọng
p0:phước+lộc
p0:ăn+đậu+ở+nhờ+#
p0:nguyễn+công+hùng
p0:lươn
p0:thánh+paul
p0:silver+award+for+ctp+technology
p0:pepsi
p0:phan+chánh+tâm
p0:hạ+hồi+#
p0:bổ+ích
p0:hi+vọng+#
p0:cai
p0:3+.+500+#
p0:vài+ba+#
p0:đỏ+đen
p0:khán+phòng
p0:2+–+2005
p0:trang+thiết+bị
p0:thương+trường
p0:11+-+8
p0:vô+tội
p0:nguyễn+văn+minh
p0:kiều+bào
p0:muông+thú
p0:đất+đỏ
p0:quảng+ngạn
p0:lâm+nghiệp
p0:cfo
p0:giordan
p0:phễu
p0:ceo
p0:tác+quái
p0:bạn+hàng
p0:sinh+hoạt+phí
p0:bin
p0:hoành+phi
p0:công+ước
p0:đơn+#+#+giản
p0:nguyên+đơn+#
p0:ba+gác
p0:hội+chữ+thập+đỏ
p0:cần+xé
p0:1.725+.+000
p0:thượng+vàng+hạ+cám+#
p0:trần+ngọc+kim
p0:tuổi+già+sức+yếu
p0:cổ+thụ
p0:3.600
p0:đấu+thủ
p0:thủy+tinh
p0:phước+hương
p0:58+.+000
p0:áo+quan
p0:6+-+2004
p0:ưu+thế
p0:bờm+xờm
p0:lý+thuyết
p0:quan+khách
p0:lâu+nay+#
p0:lầy+lội
p0:núi+#+kiếp
p0:phật
p0:tuýp
p0:25+-+27
p0:yêu+chuộng+#
p0:phản+lực
p0:gợi+cảm
p0:trọng+yếu
p0:chatuchak
p0:ồn
p0:năm+kiếm
p0:gình
p0:xuân+giang
p0:đông+nam
p0:cam+kết+#
p0:bt2
p0:spacy
p0:boy
p0:châu+#
p0:cúm+gia+cầm
p0:bot
p0:lơ+lớ
p0:chục+vạn
p0:bơm+kim+tiêm
p0:nguyễn+hữu+vinh
p0:tổng+lãnh+sự
p0:quê+quán
p0:võ+công+sơn
p0:tây+sơn
p0:thành+viên+#
p0:quá+giang
p0:phan+văn+quán
p0:nissen
p0:nguyễn+văn+trỗi
p0:làm+việc+#
p0:kem+kjang
p0:hoàng+ngọc+lân
p0:huyết+mạch
p0:hoàng+minh+trường
p0:fokin
p0:thương+nghiệp
p0:tiểu+tư+sản
p0:bét
p0:độc+ác
p0:nhân+sĩ
p0:út+#
p0:cá+chạch
p0:natsteel
p0:fob
p0:liền+#
p0:kính+cận
p0:trai+trẻ
p0:nước+ối
p0:31+-+12+–+2004
p0:lưỡi+búa
p0:yên+sở
p0:nhớ+nhung
p0:cảm+động+#
p0:phu+nhân
p0:thủy+lợi
p0:cẩu
p0:bách+khoa
p0:tạp+chí
p0:bàn+phím
p0:nguyễn+đình+thân
p0:giảm+xóc
p0:cũ+nát
p0:hoàng+hôn
p0:1+,+9+#
p0:hưng+lịnh
p0:hàng+tiêu+dùng
p0:sáng+mắt
p0:dự+thính+#
p0:quan+san
p0:nội+vụ
p0:đặc
p0:nhè+nhẹ
p0:truyện+ngắn
p0:thí+điểm
p0:công+binh
p0:tư+liêm
p0:tuềnh+toàng
p0:lê+vãn+trãng
