GIS
1
0.0
21
pos:N
pos:Np
pos:Mrk
pos:M
pos:R
pos:A
pos:L
pos:P
pos:V
pos:Nc
pos:E
pos:C
pos:T
pos:Ny
pos:Nu
pos:Nb
pos:I
pos:X
pos:Vb
pos:Y
pos:B
2881
5505 0
234 0 1
17 0 1 2
5 0 1 2 3
2 0 1 2 3 4
1 0 1 2 3 4 5 6 7
10 0 1 2 3 4 5 6 7 8 9 10
31 0 1 2 3 4 5 6 7 8 9 10 11
29 0 1 2 3 4 5 6 7 8 9 10 11 12
17 0 1 2 3 4 5 6 7 8 9 10 11 12 13
7 0 1 2 3 4 5 6 7 8 9 10 11 12 13 14
5 0 1 2 3 4 5 6 7 8 9 10 11 12 13 14 15
1 0 1 2 3 4 5 6 7 8 9 10 11 12 13 14 15 16
6 0 1 2 3 4 5 6 7 8 9 10 11 12 13 14 15 16 17
2 0 1 2 3 4 5 6 7 8 9 10 11 12 13 14 15 16 17 18
4 0 1 2 3 4 5 6 7 8 9 10 11 12 13 14 15 16 17 18 19
26 0 1 2 3 4 5 6 7 8 9 10 11 12 13 14 15 16 17 18 19 20
1 0 1 2 3 4 5 6 7 8 9 10 11 12 13 14 15 16 17 18 20
4 0 1 2 3 4 5 6 7 8 9 10 11 12 13 14 15 16 17 19
2 0 1 2 3 4 5 6 7 8 9 10 11 12 13 14 15 16 17 19 20
2 0 1 2 3 4 5 6 7 8 9 10 11 12 13 14 15 16 17 20
12 0 1 2 3 4 5 6 7 8 9 10 11 12 13 14 15 17
4 0 1 2 3 4 5 6 7 8 9 10 11 12 13 14 15 17 18
1 0 1 2 3 4 5 6 7 8 9 10 11 12 13 14 15 17 18 19
1 0 1 2 3 4 5 6 7 8 9 10 11 12 13 14 15 17 18 19 20
1 0 1 2 3 4 5 6 7 8 9 10 11 12 13 14 15 17 18 20
6 0 1 2 3 4 5 6 7 8 9 10 11 12 13 14 15 17 19
3 0 1 2 3 4 5 6 7 8 9 10 11 12 13 14 15 17 19 20
1 0 1 2 3 4 5 6 7 8 9 10 11 12 13 14 15 17 20
1 0 1 2 3 4 5 6 7 8 9 10 11 12 13 14 15 19
1 0 1 2 3 4 5 6 7 8 9 10 11 12 13 14 16 17
16 0 1 2 3 4 5 6 7 8 9 10 11 12 13 14 17
1 0 1 2 3 4 5 6 7 8 9 10 11 12 13 14 17 19
1 0 1 2 3 4 5 6 7 8 9 10 11 12 13 14 19
1 0 1 2 3 4 5 6 7 8 9 10 11 12 13 14 20
6 0 1 2 3 4 5 6 7 8 9 10 11 12 13 15
4 0 1 2 3 4 5 6 7 8 9 10 11 12 13 15 16 17
1 0 1 2 3 4 5 6 7 8 9 10 11 12 13 15 16 17 18 20
1 0 1 2 3 4 5 6 7 8 9 10 11 12 13 15 16 17 19
1 0 1 2 3 4 5 6 7 8 9 10 11 12 13 15 16 17 20
19 0 1 2 3 4 5 6 7 8 9 10 11 12 13 15 17
1 0 1 2 3 4 5 6 7 8 9 10 11 12 13 15 17 18
1 0 1 2 3 4 5 6 7 8 9 10 11 12 13 15 17 18 19
1 0 1 2 3 4 5 6 7 8 9 10 11 12 13 15 17 18 20
3 0 1 2 3 4 5 6 7 8 9 10 11 12 13 15 17 19
1 0 1 2 3 4 5 6 7 8 9 10 11 12 13 15 17 19 20
4 0 1 2 3 4 5 6 7 8 9 10 11 12 13 15 17 20
1 0 1 2 3 4 5 6 7 8 9 10 11 12 13 15 18
3 0 1 2 3 4 5 6 7 8 9 10 11 12 13 15 19
4 0 1 2 3 4 5 6 7 8 9 10 11 12 13 16
6 0 1 2 3 4 5 6 7 8 9 10 11 12 13 16 17
32 0 1 2 3 4 5 6 7 8 9 10 11 12 13 17
5 0 1 2 3 4 5 6 7 8 9 10 11 12 13 17 19
3 0 1 2 3 4 5 6 7 8 9 10 11 12 13 17 20
1 0 1 2 3 4 5 6 7 8 9 10 11 12 13 19
3 0 1 2 3 4 5 6 7 8 9 10 11 12 14
3 0 1 2 3 4 5 6 7 8 9 10 11 12 14 15
1 0 1 2 3 4 5 6 7 8 9 10 11 12 14 15 16
1 0 1 2 3 4 5 6 7 8 9 10 11 12 14 15 16 17
1 0 1 2 3 4 5 6 7 8 9 10 11 12 14 15 17
2 0 1 2 3 4 5 6 7 8 9 10 11 12 14 16 17
9 0 1 2 3 4 5 6 7 8 9 10 11 12 14 17
6 0 1 2 3 4 5 6 7 8 9 10 11 12 15
8 0 1 2 3 4 5 6 7 8 9 10 11 12 15 17
5 0 1 2 3 4 5 6 7 8 9 10 11 12 16 17
19 0 1 2 3 4 5 6 7 8 9 10 11 12 17
2 0 1 2 3 4 5 6 7 8 9 10 11 12 17 18
1 0 1 2 3 4 5 6 7 8 9 10 11 12 17 20
2 0 1 2 3 4 5 6 7 8 9 10 11 12 19
14 0 1 2 3 4 5 6 7 8 9 10 11 13
2 0 1 2 3 4 5 6 7 8 9 10 11 13 14
1 0 1 2 3 4 5 6 7 8 9 10 11 13 14 15
1 0 1 2 3 4 5 6 7 8 9 10 11 13 14 15 17
1 0 1 2 3 4 5 6 7 8 9 10 11 13 14 15 17 19
3 0 1 2 3 4 5 6 7 8 9 10 11 13 14 17
5 0 1 2 3 4 5 6 7 8 9 10 11 13 15
1 0 1 2 3 4 5 6 7 8 9 10 11 13 15 17
1 0 1 2 3 4 5 6 7 8 9 10 11 13 15 17 18
1 0 1 2 3 4 5 6 7 8 9 10 11 13 16 19
8 0 1 2 3 4 5 6 7 8 9 10 11 13 17
2 0 1 2 3 4 5 6 7 8 9 10 11 13 19
1 0 1 2 3 4 5 6 7 8 9 10 11 13 20
8 0 1 2 3 4 5 6 7 8 9 10 11 14
1 0 1 2 3 4 5 6 7 8 9 10 11 14 15
1 0 1 2 3 4 5 6 7 8 9 10 11 14 15 17
1 0 1 2 3 4 5 6 7 8 9 10 11 14 16 17
2 0 1 2 3 4 5 6 7 8 9 10 11 14 17
1 0 1 2 3 4 5 6 7 8 9 10 11 14 20
8 0 1 2 3 4 5 6 7 8 9 10 11 15
1 0 1 2 3 4 5 6 7 8 9 10 11 15 16
1 0 1 2 3 4 5 6 7 8 9 10 11 15 19 20
1 0 1 2 3 4 5 6 7 8 9 10 11 16
12 0 1 2 3 4 5 6 7 8 9 10 11 17
3 0 1 2 3 4 5 6 7 8 9 10 12
1 0 1 2 3 4 5 6 7 8 9 10 12 13
1 0 1 2 3 4 5 6 7 8 9 10 12 13 15 17 19
1 0 1 2 3 4 5 6 7 8 9 10 13
1 0 1 2 3 4 5 6 7 8 9 10 13 14
1 0 1 2 3 4 5 6 7 8 9 10 14 15 20
2 0 1 2 3 4 5 6 7 8 9 10 14 17
3 0 1 2 3 4 5 6 7 8 9 10 15
2 0 1 2 3 4 5 6 7 8 9 10 17
2 0 1 2 3 4 5 6 7 8 9 11
1 0 1 2 3 4 5 6 7 8 9 12
1 0 1 2 3 4 5 6 7 8 9 12 13 15 17
1 0 1 2 3 4 5 6 7 8 9 13
6 0 1 2 3 4 5 6 7 8 10
11 0 1 2 3 4 5 6 7 8 10 11
11 0 1 2 3 4 5 6 7 8 10 11 12
4 0 1 2 3 4 5 6 7 8 10 11 12 13
1 0 1 2 3 4 5 6 7 8 10 11 12 13 15
3 0 1 2 3 4 5 6 7 8 10 11 12 13 17
2 0 1 2 3 4 5 6 7 8 10 11 12 14
1 0 1 2 3 4 5 6 7 8 10 11 12 14 15 17 20
1 0 1 2 3 4 5 6 7 8 10 11 12 14 16
1 0 1 2 3 4 5 6 7 8 10 11 12 14 16 17
1 0 1 2 3 4 5 6 7 8 10 11 12 15 17
5 0 1 2 3 4 5 6 7 8 10 11 12 17
3 0 1 2 3 4 5 6 7 8 10 11 13
1 0 1 2 3 4 5 6 7 8 10 11 13 14
1 0 1 2 3 4 5 6 7 8 10 11 13 15
2 0 1 2 3 4 5 6 7 8 10 11 13 19
2 0 1 2 3 4 5 6 7 8 10 11 14
1 0 1 2 3 4 5 6 7 8 10 11 15
1 0 1 2 3 4 5 6 7 8 10 11 15 17
2 0 1 2 3 4 5 6 7 8 10 11 17
1 0 1 2 3 4 5 6 7 8 10 12
1 0 1 2 3 4 5 6 7 8 10 12 17
1 0 1 2 3 4 5 6 7 8 10 13 15
2 0 1 2 3 4 5 6 7 8 11
1 0 1 2 3 4 5 6 7 8 12
1 0 1 2 3 4 5 6 7 8 14 17
1 0 1 2 3 4 5 6 7 8 17
1 0 1 2 3 4 5 6 7 9 11
3 0 1 2 3 4 5 6 8 9 10 11
5 0 1 2 3 4 5 6 8 9 10 11 12
1 0 1 2 3 4 5 6 8 9 10 11 12 17
1 0 1 2 3 4 5 6 8 9 10 11 14
1 0 1 2 3 4 5 6 8 9 10 11 17
1 0 1 2 3 4 5 6 8 9 10 12 14
1 0 1 2 3 4 5 6 8 9 10 17
1 0 1 2 3 4 5 6 8 9 11 17
1 0 1 2 3 4 5 6 8 9 12
1 0 1 2 3 4 5 6 8 10
5 0 1 2 3 4 5 6 8 10 11
1 0 1 2 3 4 5 6 8 10 11 12
1 0 1 2 3 4 5 6 8 10 11 12 13 15
1 0 1 2 3 4 5 6 8 10 11 12 13 17 18
3 0 1 2 3 4 5 6 8 10 11 13
1 0 1 2 3 4 5 6 8 11
1 0 1 2 3 4 5 6 8 11 17
1 0 1 2 3 4 5 6 8 12
1 0 1 2 3 4 5 6 9
1 0 1 2 3 4 5 7 8
1 0 1 2 3 4 5 7 8 9
6 0 1 2 3 4 5 7 8 9 10
18 0 1 2 3 4 5 7 8 9 10 11
9 0 1 2 3 4 5 7 8 9 10 11 12
3 0 1 2 3 4 5 7 8 9 10 11 12 13
1 0 1 2 3 4 5 7 8 9 10 11 12 13 14 15 17 19 20
1 0 1 2 3 4 5 7 8 9 10 11 12 13 14 17
1 0 1 2 3 4 5 7 8 9 10 11 12 13 15 16
1 0 1 2 3 4 5 7 8 9 10 11 12 13 15 17 19
1 0 1 2 3 4 5 7 8 9 10 11 12 13 16
1 0 1 2 3 4 5 7 8 9 10 11 12 13 17
1 0 1 2 3 4 5 7 8 9 10 11 12 14 17 19
1 0 1 2 3 4 5 7 8 9 10 11 12 14 19
1 0 1 2 3 4 5 7 8 9 10 11 12 15 17
1 0 1 2 3 4 5 7 8 9 10 11 12 16
2 0 1 2 3 4 5 7 8 9 10 11 12 17
5 0 1 2 3 4 5 7 8 9 10 11 13
3 0 1 2 3 4 5 7 8 9 10 11 13 14
1 0 1 2 3 4 5 7 8 9 10 11 13 14 15 20
2 0 1 2 3 4 5 7 8 9 10 11 13 14 17
1 0 1 2 3 4 5 7 8 9 10 11 13 14 20
1 0 1 2 3 4 5 7 8 9 10 11 13 15 17 20
3 0 1 2 3 4 5 7 8 9 10 11 13 17
3 0 1 2 3 4 5 7 8 9 10 11 14
2 0 1 2 3 4 5 7 8 9 10 11 15
1 0 1 2 3 4 5 7 8 9 10 11 15 17
1 0 1 2 3 4 5 7 8 9 10 12
1 0 1 2 3 4 5 7 8 9 10 13 17
2 0 1 2 3 4 5 7 8 9 10 15
1 0 1 2 3 4 5 7 8 9 11
2 0 1 2 3 4 5 7 8 9 11 12
1 0 1 2 3 4 5 7 8 9 12
8 0 1 2 3 4 5 7 8 10
25 0 1 2 3 4 5 7 8 10 11
4 0 1 2 3 4 5 7 8 10 11 12
3 0 1 2 3 4 5 7 8 10 11 12 13
1 0 1 2 3 4 5 7 8 10 11 12 13 14 15
1 0 1 2 3 4 5 7 8 10 11 12 13 15
1 0 1 2 3 4 5 7 8 10 11 12 13 15 17
1 0 1 2 3 4 5 7 8 10 11 12 13 16 17 19
2 0 1 2 3 4 5 7 8 10 11 12 13 17
1 0 1 2 3 4 5 7 8 10 11 12 13 19
1 0 1 2 3 4 5 7 8 10 11 12 14 17
1 0 1 2 3 4 5 7 8 10 11 12 15
1 0 1 2 3 4 5 7 8 10 11 12 15 17
2 0 1 2 3 4 5 7 8 10 11 12 16
1 0 1 2 3 4 5 7 8 10 11 12 16 17
1 0 1 2 3 4 5 7 8 10 11 12 17
1 0 1 2 3 4 5 7 8 10 11 12 19
2 0 1 2 3 4 5 7 8 10 11 13
1 0 1 2 3 4 5 7 8 10 11 13 14
1 0 1 2 3 4 5 7 8 10 11 13 15
1 0 1 2 3 4 5 7 8 10 11 13 17
1 0 1 2 3 4 5 7 8 10 11 13 17 19
2 0 1 2 3 4 5 7 8 10 11 14
1 0 1 2 3 4 5 7 8 10 11 14 15
2 0 1 2 3 4 5 7 8 10 11 15
2 0 1 2 3 4 5 7 8 10 11 15 17
1 0 1 2 3 4 5 7 8 10 11 15 17 20
7 0 1 2 3 4 5 7 8 10 11 17
2 0 1 2 3 4 5 7 8 10 12
2 0 1 2 3 4 5 7 8 10 12 13
2 0 1 2 3 4 5 7 8 10 13
2 0 1 2 3 4 5 7 8 10 13 15
2 0 1 2 3 4 5 7 8 10 15
1 0 1 2 3 4 5 7 8 11
1 0 1 2 3 4 5 7 8 11 15
1 0 1 2 3 4 5 7 8 11 17
1 0 1 2 3 4 5 7 8 13
1 0 1 2 3 4 5 7 10
1 0 1 2 3 4 5 7 10 11 15
8 0 1 2 3 4 5 8
2 0 1 2 3 4 5 8 9 10
6 0 1 2 3 4 5 8 9 10 11
1 0 1 2 3 4 5 8 9 10 11 12 13
1 0 1 2 3 4 5 8 9 10 11 12 17
1 0 1 2 3 4 5 8 9 10 11 13
2 0 1 2 3 4 5 8 9 10 11 14
2 0 1 2 3 4 5 8 9 10 11 15
1 0 1 2 3 4 5 8 9 10 13
1 0 1 2 3 4 5 8 9 10 13 14
1 0 1 2 3 4 5 8 9 10 14
1 0 1 2 3 4 5 8 9 10 15
1 0 1 2 3 4 5 8 9 11
7 0 1 2 3 4 5 8 10
6 0 1 2 3 4 5 8 10 11
2 0 1 2 3 4 5 8 10 11 12
1 0 1 2 3 4 5 8 10 11 12 13
1 0 1 2 3 4 5 8 10 11 12 13 14
1 0 1 2 3 4 5 8 10 11 12 14 15 20
1 0 1 2 3 4 5 8 10 11 12 14 17
2 0 1 2 3 4 5 8 10 11 12 17
3 0 1 2 3 4 5 8 10 11 13
2 0 1 2 3 4 5 8 10 11 17
2 0 1 2 3 4 5 8 10 14
1 0 1 2 3 4 5 8 10 15
1 0 1 2 3 4 5 8 10 17
1 0 1 2 3 4 5 8 10 18
1 0 1 2 3 4 5 8 11
1 0 1 2 3 4 5 8 11 13
1 0 1 2 3 4 5 8 11 14 18
1 0 1 2 3 4 5 8 11 15
1 0 1 2 3 4 5 8 12
1 0 1 2 3 4 5 8 12 15
1 0 1 2 3 4 5 9 13
1 0 1 2 3 4 5 10
1 0 1 2 3 4 5 10 11
1 0 1 2 3 4 5 10 13
1 0 1 2 3 4 5 11
4 0 1 2 3 4 6 7 8 9 10 11
3 0 1 2 3 4 6 7 8 9 10 11 12
1 0 1 2 3 4 6 7 8 9 10 11 12 17
1 0 1 2 3 4 6 7 8 9 10 11 13
1 0 1 2 3 4 6 7 8 9 10 12
1 0 1 2 3 4 6 7 8 9 10 13
1 0 1 2 3 4 6 7 8 9 11
1 0 1 2 3 4 6 7 8 9 11 13
1 0 1 2 3 4 6 7 8 10
1 0 1 2 3 4 6 7 8 10 11
1 0 1 2 3 4 6 7 8 10 12
1 0 1 2 3 4 6 7 8 10 17
2 0 1 2 3 4 6 7 8 11
1 0 1 2 3 4 6 7 9 10
1 0 1 2 3 4 6 8
1 0 1 2 3 4 6 8 9 10
1 0 1 2 3 4 6 8 9 10 11
1 0 1 2 3 4 6 8 9 10 11 15
1 0 1 2 3 4 6 8 9 10 12
3 0 1 2 3 4 6 8 10
2 0 1 2 3 4 6 8 10 11
1 0 1 2 3 4 6 8 10 11 12
1 0 1 2 3 4 6 8 10 14
1 0 1 2 3 4 6 8 10 19
1 0 1 2 3 4 6 11 12
3 0 1 2 3 4 7 8
5 0 1 2 3 4 7 8 9 10 11
1 0 1 2 3 4 7 8 9 10 11 12
1 0 1 2 3 4 7 8 9 10 11 12 13 19
1 0 1 2 3 4 7 8 9 10 11 13 14 15 16 17
1 0 1 2 3 4 7 8 9 11
1 0 1 2 3 4 7 8 10
1 0 1 2 3 4 7 8 10 11
2 0 1 2 3 4 7 8 10 11 13
1 0 1 2 3 4 7 8 10 11 17
1 0 1 2 3 4 7 8 10 12
1 0 1 2 3 4 7 8 10 13
1 0 1 2 3 4 7 8 11 13
1 0 1 2 3 4 7 10
3 0 1 2 3 4 8
2 0 1 2 3 4 8 9 10
1 0 1 2 3 4 8 9 10 11
1 0 1 2 3 4 8 9 10 12
7 0 1 2 3 4 8 10
5 0 1 2 3 4 8 10 11
1 0 1 2 3 4 8 10 11 12
1 0 1 2 3 4 8 10 11 13 14
1 0 1 2 3 4 8 10 11 14
1 0 1 2 3 4 8 10 12 14
1 0 1 2 3 4 8 10 13
1 0 1 2 3 4 9 10 11
1 0 1 2 3 4 10
1 0 1 2 3 4 10 12
1 0 1 2 3 4 11 13 17
1 0 1 2 3 5
1 0 1 2 3 5 6 7
1 0 1 2 3 5 6 7 8 9
1 0 1 2 3 5 6 7 8 9 10 11
1 0 1 2 3 5 6 7 8 9 10 11 13
1 0 1 2 3 5 6 7 8 9 10 11 13 14 15 17 19 20
1 0 1 2 3 5 6 7 8 9 13 14 15 19 20
1 0 1 2 3 5 6 7 8 9 13 15 20
1 0 1 2 3 5 6 7 8 10
1 0 1 2 3 5 6 7 8 10 11
1 0 1 2 3 5 6 7 8 10 11 12 13
1 0 1 2 3 5 6 8 9 10 12
2 0 1 2 3 5 6 8 10
1 0 1 2 3 5 6 8 10 11 12
1 0 1 2 3 5 6 8 10 12
1 0 1 2 3 5 6 8 10 13 17
1 0 1 2 3 5 6 8 20
1 0 1 2 3 5 6 10 11
3 0 1 2 3 5 7 8
1 0 1 2 3 5 7 8 9
3 0 1 2 3 5 7 8 9 10 11
1 0 1 2 3 5 7 8 9 10 11 12
1 0 1 2 3 5 7 8 9 10 11 12 13
1 0 1 2 3 5 7 8 9 10 13 15 17
2 0 1 2 3 5 7 8 9 11
1 0 1 2 3 5 7 8 9 13 14 15 17
5 0 1 2 3 5 7 8 10
1 0 1 2 3 5 7 8 10 11
2 0 1 2 3 5 7 8 10 11 12
1 0 1 2 3 5 7 8 10 11 12 19
1 0 1 2 3 5 7 8 10 11 13 15
1 0 1 2 3 5 7 8 10 11 15
1 0 1 2 3 5 7 8 10 11 17
1 0 1 2 3 5 7 8 10 13 19
1 0 1 2 3 5 7 8 10 14
1 0 1 2 3 5 7 8 11
1 0 1 2 3 5 7 8 16
2 0 1 2 3 5 7 10
4 0 1 2 3 5 8
1 0 1 2 3 5 8 9 10
1 0 1 2 3 5 8 9 10 11 14 17
1 0 1 2 3 5 8 9 10 11 15
2 0 1 2 3 5 8 10
1 0 1 2 3 5 8 10 11
1 0 1 2 3 5 8 10 11 13
1 0 1 2 3 5 8 10 12
1 0 1 2 3 5 8 10 13 15
1 0 1 2 3 5 8 11
1 0 1 2 3 5 8 15
1 0 1 2 3 5 10
1 0 1 2 3 5 11
2 0 1 2 3 6 7
2 0 1 2 3 6 7 8
1 0 1 2 3 6 7 8 9 10 11 12
1 0 1 2 3 6 7 8 9 10 12 20
1 0 1 2 3 6 7 8 9 11
1 0 1 2 3 6 7 8 10 11
1 0 1 2 3 6 7 9 10 12 13 15 19 20
1 0 1 2 3 6 8 9 10
1 0 1 2 3 6 8 9 10 11
1 0 1 2 3 6 8 10
1 0 1 2 3 6 8 10 11
1 0 1 2 3 7 8
1 0 1 2 3 7 8 9 10
1 0 1 2 3 7 8 9 10 11 14
1 0 1 2 3 7 8 9 10 12
1 0 1 2 3 7 8 10
1 0 1 2 3 7 8 10 11 12 14
1 0 1 2 3 7 8 10 11 14
1 0 1 2 3 7 8 10 13 14
1 0 1 2 3 7 8 11
1 0 1 2 3 7 8 13
1 0 1 2 3 7 9 10
2 0 1 2 3 8
1 0 1 2 3 8 9 10 11
1 0 1 2 3 8 9 11 13
1 0 1 2 3 8 9 11 14
4 0 1 2 3 8 10 11
2 0 1 2 3 8 10 13
1 0 1 2 3 8 10 14
1 0 1 2 3 8 11
1 0 1 2 3 9 10
1 0 1 2 3 9 11
1 0 1 2 3 9 11 13 14
1 0 1 2 3 9 14
1 0 1 2 3 10
1 0 1 2 3 10 11
1 0 1 2 3 11
1 0 1 2 3 13
1 0 1 2 3 13 14 19
1 0 1 2 3 15 19 20
3 0 1 2 4
3 0 1 2 4 5
3 0 1 2 4 5 6 7 8
5 0 1 2 4 5 6 7 8 9 10
12 0 1 2 4 5 6 7 8 9 10 11
6 0 1 2 4 5 6 7 8 9 10 11 12
1 0 1 2 4 5 6 7 8 9 10 11 12 13
2 0 1 2 4 5 6 7 8 9 10 11 12 13 17
2 0 1 2 4 5 6 7 8 9 10 11 12 16
3 0 1 2 4 5 6 7 8 9 10 11 12 17
5 0 1 2 4 5 6 7 8 9 10 11 13
1 0 1 2 4 5 6 7 8 9 10 11 13 17
1 0 1 2 4 5 6 7 8 9 10 11 14
4 0 1 2 4 5 6 7 8 9 10 11 17
1 0 1 2 4 5 6 7 8 9 10 12 19
1 0 1 2 4 5 6 7 8 9 10 13
1 0 1 2 4 5 6 7 8 9 11
1 0 1 2 4 5 6 7 8 9 11 12
1 0 1 2 4 5 6 7 8 9 11 18
1 0 1 2 4 5 6 7 8 10
9 0 1 2 4 5 6 7 8 10 11
5 0 1 2 4 5 6 7 8 10 11 12
2 0 1 2 4 5 6 7 8 10 11 12 13
2 0 1 2 4 5 6 7 8 10 11 13
1 0 1 2 4 5 6 7 8 10 11 15
2 0 1 2 4 5 6 7 8 10 12
2 0 1 2 4 5 6 7 8 11
1 0 1 2 4 5 6 7 8 11 12
1 0 1 2 4 5 6 7 9 10 11
1 0 1 2 4 5 6 8 9 10
5 0 1 2 4 5 6 8 9 10 11
1 0 1 2 4 5 6 8 9 10 11 13
1 0 1 2 4 5 6 8 9 10 11 14
2 0 1 2 4 5 6 8 10
2 0 1 2 4 5 6 8 10 11
1 0 1 2 4 5 6 8 10 11 12 13 17
2 0 1 2 4 5 6 8 10 11 17
1 0 1 2 4 5 6 8 10 11 19
1 0 1 2 4 5 6 8 10 13
1 0 1 2 4 5 6 8 11 13
1 0 1 2 4 5 6 9 10 11 12
6 0 1 2 4 5 7 8
3 0 1 2 4 5 7 8 9
2 0 1 2 4 5 7 8 9 10
16 0 1 2 4 5 7 8 9 10 11
3 0 1 2 4 5 7 8 9 10 11 12
1 0 1 2 4 5 7 8 9 10 11 12 13
1 0 1 2 4 5 7 8 9 10 11 12 13 15
1 0 1 2 4 5 7 8 9 10 11 12 14
1 0 1 2 4 5 7 8 9 10 11 12 16
1 0 1 2 4 5 7 8 9 10 11 12 16 17
2 0 1 2 4 5 7 8 9 10 11 12 17
1 0 1 2 4 5 7 8 9 10 11 13
1 0 1 2 4 5 7 8 9 10 11 13 15
1 0 1 2 4 5 7 8 9 10 11 15
4 0 1 2 4 5 7 8 9 10 11 17
1 0 1 2 4 5 7 8 9 10 11 19
2 0 1 2 4 5 7 8 9 10 12
1 0 1 2 4 5 7 8 9 10 15
1 0 1 2 4 5 7 8 9 10 17
2 0 1 2 4 5 7 8 9 11
1 0 1 2 4 5 7 8 9 11 12 13
3 0 1 2 4 5 7 8 9 11 13
1 0 1 2 4 5 7 8 9 12 16
1 0 1 2 4 5 7 8 9 13
9 0 1 2 4 5 7 8 10
43 0 1 2 4 5 7 8 10 11
4 0 1 2 4 5 7 8 10 11 12
3 0 1 2 4 5 7 8 10 11 12 13
2 0 1 2 4 5 7 8 10 11 12 13 17
1 0 1 2 4 5 7 8 10 11 12 13 19
3 0 1 2 4 5 7 8 10 11 12 17
6 0 1 2 4 5 7 8 10 11 13
1 0 1 2 4 5 7 8 10 11 13 15
3 0 1 2 4 5 7 8 10 11 15
1 0 1 2 4 5 7 8 10 11 16
1 0 1 2 4 5 7 8 10 11 16 17
8 0 1 2 4 5 7 8 10 11 17
1 0 1 2 4 5 7 8 10 11 20
1 0 1 2 4 5 7 8 10 12
1 0 1 2 4 5 7 8 10 12 13 17
1 0 1 2 4 5 7 8 10 13
1 0 1 2 4 5 7 8 10 15
1 0 1 2 4 5 7 8 10 17
3 0 1 2 4 5 7 8 11
1 0 1 2 4 5 7 8 11 13
1 0 1 2 4 5 7 8 12 17
1 0 1 2 4 5 7 8 13
1 0 1 2 4 5 7 9 10 11 12
1 0 1 2 4 5 7 10 11
10 0 1 2 4 5 8
1 0 1 2 4 5 8 9
3 0 1 2 4 5 8 9 10
6 0 1 2 4 5 8 9 10 11
1 0 1 2 4 5 8 9 10 11 13
1 0 1 2 4 5 8 9 10 11 13 18
2 0 1 2 4 5 8 9 10 12
1 0 1 2 4 5 8 9 10 12 13
1 0 1 2 4 5 8 9 10 17
1 0 1 2 4 5 8 9 11 12
1 0 1 2 4 5 8 9 11 15
1 0 1 2 4 5 8 9 12
1 0 1 2 4 5 8 9 13
1 0 1 2 4 5 8 9 16
14 0 1 2 4 5 8 10
20 0 1 2 4 5 8 10 11
2 0 1 2 4 5 8 10 11 12
1 0 1 2 4 5 8 10 11 12 15 19
2 0 1 2 4 5 8 10 11 12 16
3 0 1 2 4 5 8 10 11 13
2 0 1 2 4 5 8 10 11 17
2 0 1 2 4 5 8 10 12
1 0 1 2 4 5 8 10 13
1 0 1 2 4 5 8 10 15
2 0 1 2 4 5 8 10 17
8 0 1 2 4 5 8 11
1 0 1 2 4 5 8 11 12 15
2 0 1 2 4 5 8 11 13
1 0 1 2 4 5 8 11 13 15
1 0 1 2 4 5 8 11 17
3 0 1 2 4 5 8 13
1 0 1 2 4 5 8 17
1 0 1 2 4 5 8 18
1 0 1 2 4 5 9 10
2 0 1 2 4 5 10
3 0 1 2 4 5 10 11
1 0 1 2 4 5 10 11 15
1 0 1 2 4 5 10 13
1 0 1 2 4 5 10 13 17
2 0 1 2 4 5 11
2 0 1 2 4 6 7 8
1 0 1 2 4 6 7 8 9 10
2 0 1 2 4 6 7 8 9 10 11
1 0 1 2 4 6 7 8 9 10 11 12
1 0 1 2 4 6 7 8 9 10 11 15
2 0 1 2 4 6 7 8 9 17
1 0 1 2 4 6 7 8 10
3 0 1 2 4 6 7 8 10 11
1 0 1 2 4 6 7 8 10 11 13
1 0 1 2 4 6 7 9 11
1 0 1 2 4 6 8
1 0 1 2 4 6 8 9
1 0 1 2 4 6 8 9 10 11
2 0 1 2 4 6 8 9 10 13
1 0 1 2 4 6 8 9 11
1 0 1 2 4 6 8 10
1 0 1 2 4 6 8 10 11
1 0 1 2 4 6 8 10 11 14
3 0 1 2 4 6 8 11
1 0 1 2 4 6 8 14
1 0 1 2 4 6 11 12
3 0 1 2 4 7
1 0 1 2 4 7 8 9
2 0 1 2 4 7 8 9 10
1 0 1 2 4 7 8 9 10 11
1 0 1 2 4 7 8 9 10 11 15
1 0 1 2 4 7 8 9 11
1 0 1 2 4 7 8 9 12
5 0 1 2 4 7 8 10
5 0 1 2 4 7 8 10 11
1 0 1 2 4 7 8 10 11 12
1 0 1 2 4 7 8 10 11 13
1 0 1 2 4 7 8 10 12 17
1 0 1 2 4 7 8 10 18
2 0 1 2 4 7 8 11
1 0 1 2 4 7 8 11 14
1 0 1 2 4 7 8 11 17
1 0 1 2 4 7 8 13
1 0 1 2 4 7 10
1 0 1 2 4 7 10 11
1 0 1 2 4 7 10 11 14
1 0 1 2 4 7 10 11 19
10 0 1 2 4 8
2 0 1 2 4 8 9
1 0 1 2 4 8 9 10
1 0 1 2 4 8 9 10 11 13
1 0 1 2 4 8 9 10 11 17
1 0 1 2 4 8 9 10 13
2 0 1 2 4 8 9 11
1 0 1 2 4 8 9 11 13
1 0 1 2 4 8 9 13 15
8 0 1 2 4 8 10
8 0 1 2 4 8 10 11
3 0 1 2 4 8 10 11 13
1 0 1 2 4 8 10 11 13 15 19
2 0 1 2 4 8 10 17
9 0 1 2 4 8 11
1 0 1 2 4 8 11 15
1 0 1 2 4 8 13
1 0 1 2 4 8 14
1 0 1 2 4 9 10
1 0 1 2 4 9 10 11
1 0 1 2 4 9 10 12 13
1 0 1 2 4 10 11
1 0 1 2 4 10 11 12
3 0 1 2 4 11
1 0 1 2 4 11 13
1 0 1 2 4 11 17
4 0 1 2 5
1 0 1 2 5 6 7
1 0 1 2 5 6 7 8 9 10 11
1 0 1 2 5 6 7 8 9 11
1 0 1 2 5 6 7 8 10
2 0 1 2 5 6 7 8 10 11
1 0 1 2 5 6 7 8 10 11 13
1 0 1 2 5 6 7 8 10 11 13 17
1 0 1 2 5 6 7 8 10 14
1 0 1 2 5 6 7 8 11
1 0 1 2 5 6 7 8 11 15
2 0 1 2 5 6 8
1 0 1 2 5 6 8 9 10
1 0 1 2 5 6 8 10
1 0 1 2 5 6 8 10 11
1 0 1 2 5 6 8 10 11 14 17
1 0 1 2 5 6 8 11
1 0 1 2 5 6 10 11
2 0 1 2 5 7
4 0 1 2 5 7 8
2 0 1 2 5 7 8 9
4 0 1 2 5 7 8 9 10
1 0 1 2 5 7 8 9 10 11
1 0 1 2 5 7 8 9 10 11 13
5 0 1 2 5 7 8 10
6 0 1 2 5 7 8 10 11
1 0 1 2 5 7 8 10 11 17
1 0 1 2 5 7 8 10 13
1 0 1 2 5 7 8 11
1 0 1 2 5 7 8 11 15
2 0 1 2 5 7 8 12
1 0 1 2 5 7 8 15
1 0 1 2 5 7 9 10 11
2 0 1 2 5 7 10
1 0 1 2 5 7 10 12
1 0 1 2 5 7 11
11 0 1 2 5 8
1 0 1 2 5 8 9
5 0 1 2 5 8 9 10
2 0 1 2 5 8 9 10 11
1 0 1 2 5 8 9 10 11 12
1 0 1 2 5 8 9 10 11 13 17
1 0 1 2 5 8 9 10 11 17
1 0 1 2 5 8 9 10 13 15
2 0 1 2 5 8 9 11
1 0 1 2 5 8 9 13
14 0 1 2 5 8 10
6 0 1 2 5 8 10 11
2 0 1 2 5 8 10 11 13
1 0 1 2 5 8 10 11 14
1 0 1 2 5 8 10 12
11 0 1 2 5 8 11
1 0 1 2 5 8 11 12
1 0 1 2 5 8 13
6 0 1 2 5 10
3 0 1 2 5 11
1 0 1 2 5 17
2 0 1 2 6
1 0 1 2 6 7 8 9 10 13
1 0 1 2 6 7 8 9 11
2 0 1 2 6 7 8 10
1 0 1 2 6 7 8 10 12
1 0 1 2 6 7 9 10
1 0 1 2 6 7 9 10 17
2 0 1 2 6 8
1 0 1 2 6 8 9 10
1 0 1 2 6 8 10
1 0 1 2 6 8 10 11
1 0 1 2 6 8 10 17
1 0 1 2 6 8 13
1 0 1 2 6 10
1 0 1 2 6 10 11
1 0 1 2 6 10 13
2 0 1 2 7
7 0 1 2 7 8
1 0 1 2 7 8 9
1 0 1 2 7 8 9 10 11 12
3 0 1 2 7 8 10
1 0 1 2 7 8 10 11
1 0 1 2 7 8 10 11 13
1 0 1 2 7 8 11
1 0 1 2 7 8 11 12
1 0 1 2 7 8 12
1 0 1 2 7 9 11
1 0 1 2 7 9 12
3 0 1 2 7 10
3 0 1 2 7 10 11
1 0 1 2 7 11 12
24 0 1 2 8
2 0 1 2 8 9
2 0 1 2 8 9 10
2 0 1 2 8 9 10 11
1 0 1 2 8 9 10 11 12
1 0 1 2 8 9 10 11 14
1 0 1 2 8 9 10 17
9 0 1 2 8 10
8 0 1 2 8 10 11
1 0 1 2 8 10 11 13
1 0 1 2 8 10 11 15
1 0 1 2 8 10 13
1 0 1 2 8 10 15
1 0 1 2 8 10 17
7 0 1 2 8 11
1 0 1 2 8 11 13 19
1 0 1 2 8 13
2 0 1 2 9
1 0 1 2 9 10
5 0 1 2 10
1 0 1 2 10 11
3 0 1 2 11
1 0 1 2 11 17
1 0 1 2 13 14 19
14 0 1 3
1 0 1 3 4
1 0 1 3 4 5
1 0 1 3 4 5 6 7 8 9 10
1 0 1 3 4 5 6 7 8 9 10 11
2 0 1 3 4 5 6 7 8 9 10 11 12 13 14 15 16 17 18 19 20
1 0 1 3 4 5 6 7 8 9 10 11 12 13 14 15 16 17 18 20
1 0 1 3 4 5 6 7 8 9 10 11 12 13 14 16 17 18 19
1 0 1 3 4 5 6 7 8 9 10 11 12 14 15
2 0 1 3 4 5 6 7 8 9 10 11 12 14 16 17
1 0 1 3 4 5 6 7 8 9 10 11 17
1 0 1 3 4 5 6 7 8 9 11 12 13 14 17
1 0 1 3 4 5 6 7 8 9 12
1 0 1 3 4 5 6 7 9 13
1 0 1 3 4 5 6 7 14
1 0 1 3 4 5 6 8 9 10 11
1 0 1 3 4 5 6 8 10
1 0 1 3 4 5 6 8 10 11
1 0 1 3 4 5 6 8 13 14 19
1 0 1 3 4 5 7
1 0 1 3 4 5 7 8
1 0 1 3 4 5 7 8 9 10
1 0 1 3 4 5 7 8 9 10 11 13 14 18 19
1 0 1 3 4 5 7 8 9 10 13
1 0 1 3 4 5 7 8 9 11
1 0 1 3 4 5 8
1 0 1 3 4 5 8 9 10
1 0 1 3 4 5 8 10
1 0 1 3 4 5 10 13
1 0 1 3 4 6 8 9
1 0 1 3 4 6 8 9 10
1 0 1 3 4 6 8 11
2 0 1 3 4 7 8 10
1 0 1 3 4 7 8 12 14
1 0 1 3 4 8 10
1 0 1 3 4 8 10 17
1 0 1 3 4 15
2 0 1 3 5
1 0 1 3 5 6 7 8 9 10
1 0 1 3 5 6 7 9
1 0 1 3 5 6 8 9 10
1 0 1 3 5 7 8
1 0 1 3 5 7 8 9
1 0 1 3 5 7 8 10 11
3 0 1 3 5 8
2 0 1 3 5 8 10
1 0 1 3 5 8 10 11
1 0 1 3 5 8 10 11 12
1 0 1 3 5 10
1 0 1 3 5 15
1 0 1 3 6
1 0 1 3 6 7 8 10
1 0 1 3 6 7 8 10 13
1 0 1 3 6 8
1 0 1 3 6 8 10 13
3 0 1 3 7
2 0 1 3 7 8
1 0 1 3 7 8 10
1 0 1 3 7 8 10 12 13 14 15 16 19
1 0 1 3 7 8 11 13
1 0 1 3 7 11
2 0 1 3 8
2 0 1 3 8 9
1 0 1 3 8 9 10
2 0 1 3 8 10
1 0 1 3 8 10 11
2 0 1 3 8 11
2 0 1 3 9
1 0 1 3 10
1 0 1 3 10 11 13
8 0 1 4
4 0 1 4 5
1 0 1 4 5 6
1 0 1 4 5 6 7 8 9
1 0 1 4 5 6 7 8 9 10
1 0 1 4 5 6 7 8 10 11 13
1 0 1 4 5 6 7 8 11
1 0 1 4 5 6 8
1 0 1 4 5 6 9 10 13
2 0 1 4 5 7 8
1 0 1 4 5 7 8 9 10 11
3 0 1 4 5 7 8 10
1 0 1 4 5 7 8 10 11
1 0 1 4 5 7 8 10 11 12 16 17
1 0 1 4 5 7 8 11
1 0 1 4 5 7 8 11 12 14 16 19
1 0 1 4 5 7 8 11 13
1 0 1 4 5 7 8 11 13 17
1 0 1 4 5 7 8 13
3 0 1 4 5 8
1 0 1 4 5 8 9 10
1 0 1 4 5 8 9 10 11
1 0 1 4 5 8 9 10 13 14 17 19
1 0 1 4 5 8 9 13
3 0 1 4 5 8 10
3 0 1 4 5 8 10 11
2 0 1 4 5 8 10 11 12
1 0 1 4 5 8 10 11 19
2 0 1 4 5 8 10 13
2 0 1 4 5 8 11
1 0 1 4 5 11
1 0 1 4 6
1 0 1 4 6 7 8
2 0 1 4 6 7 8 9 10
1 0 1 4 6 7 8 9 12
1 0 1 4 6 7 8 10
3 0 1 4 6 8
1 0 1 4 6 8 9
1 0 1 4 6 8 10
1 0 1 4 6 8 12 13
1 0 1 4 6 11
2 0 1 4 7
3 0 1 4 7 8
1 0 1 4 7 8 9
2 0 1 4 7 8 9 10
1 0 1 4 7 8 9 11 17
1 0 1 4 7 8 10 11
1 0 1 4 7 8 11
1 0 1 4 7 8 17
1 0 1 4 7 9
6 0 1 4 8
3 0 1 4 8 9
1 0 1 4 8 9 10 11
1 0 1 4 8 9 10 17
3 0 1 4 8 10
1 0 1 4 8 10 13
2 0 1 4 8 11
1 0 1 4 8 11 15
1 0 1 4 8 13
1 0 1 4 9
2 0 1 4 10
2 0 1 4 11
1 0 1 4 12
2 0 1 4 13
1 0 1 4 14
32 0 1 5
1 0 1 5 6 7
1 0 1 5 6 8 9 10
1 0 1 5 6 8 10 13
1 0 1 5 6 8 12
1 0 1 5 6 13 17
2 0 1 5 7 8 10
1 0 1 5 7 8 11
1 0 1 5 7 12
10 0 1 5 8
3 0 1 5 8 9
4 0 1 5 8 10
1 0 1 5 8 10 11
1 0 1 5 8 14
1 0 1 5 9
2 0 1 5 10
1 0 1 5 11 12
3 0 1 6
1 0 1 6 7 8 9 10
3 0 1 6 8
1 0 1 6 8 10 12
1 0 1 6 10
1 0 1 6 13
5 0 1 7
6 0 1 7 8
4 0 1 7 8 10
1 0 1 7 8 10 15
3 0 1 7 10
1 0 1 7 11
58 0 1 8
5 0 1 8 9
1 0 1 8 9 10
2 0 1 8 9 10 11
9 0 1 8 10
1 0 1 8 10 11
2 0 1 8 10 12
1 0 1 8 10 13
2 0 1 8 11
1 0 1 8 13
1 0 1 8 14
1 0 1 8 15
13 0 1 9
1 0 1 9 11 12
12 0 1 10
3 0 1 10 11
1 0 1 10 14
7 0 1 11
1 0 1 12
3 0 1 13
1 0 1 13 14 19
2 0 1 14
2 0 1 15
1 0 1 19
417 0 2
23 0 2 3
5 0 2 3 4
1 0 2 3 4 5
2 0 2 3 4 5 6
2 0 2 3 4 5 6 7 8 9
5 0 2 3 4 5 6 7 8 9 10
13 0 2 3 4 5 6 7 8 9 10 11
8 0 2 3 4 5 6 7 8 9 10 11 12
2 0 2 3 4 5 6 7 8 9 10 11 12 13 14
1 0 2 3 4 5 6 7 8 9 10 11 12 13 14 16 17
1 0 2 3 4 5 6 7 8 9 10 11 12 13 14 17
1 0 2 3 4 5 6 7 8 9 10 11 12 13 15
1 0 2 3 4 5 6 7 8 9 10 11 12 14
2 0 2 3 4 5 6 7 8 9 10 11 12 14 15
1 0 2 3 4 5 6 7 8 9 10 11 12 15
1 0 2 3 4 5 6 7 8 9 10 11 12 15 16
2 0 2 3 4 5 6 7 8 9 10 11 12 15 17
1 0 2 3 4 5 6 7 8 9 10 11 12 15 17 18
8 0 2 3 4 5 6 7 8 9 10 11 12 17
1 0 2 3 4 5 6 7 8 9 10 11 12 17 18
2 0 2 3 4 5 6 7 8 9 10 11 13
1 0 2 3 4 5 6 7 8 9 10 11 13 15
2 0 2 3 4 5 6 7 8 9 10 11 13 17
1 0 2 3 4 5 6 7 8 9 10 11 13 19
1 0 2 3 4 5 6 7 8 9 10 11 14 17
4 0 2 3 4 5 6 7 8 9 10 11 17
2 0 2 3 4 5 6 7 8 9 10 12
1 0 2 3 4 5 6 7 8 9 10 12 15
1 0 2 3 4 5 6 7 8 9 10 13
1 0 2 3 4 5 6 7 8 9 10 15
1 0 2 3 4 5 6 7 8 9 10 17
1 0 2 3 4 5 6 7 8 9 11
1 0 2 3 4 5 6 7 8 9 14 17
2 0 2 3 4 5 6 7 8 10
10 0 2 3 4 5 6 7 8 10 11
5 0 2 3 4 5 6 7 8 10 11 12
1 0 2 3 4 5 6 7 8 10 11 12 14 15
1 0 2 3 4 5 6 7 8 10 11 13
1 0 2 3 4 5 6 7 8 10 11 13 14
1 0 2 3 4 5 6 7 8 10 11 17
2 0 2 3 4 5 6 7 8 10 12
1 0 2 3 4 5 6 7 8 10 12 17
1 0 2 3 4 5 6 7 8 10 14
1 0 2 3 4 5 6 7 8 10 17
1 0 2 3 4 5 6 7 8 11
1 0 2 3 4 5 6 7 8 11 12 17
1 0 2 3 4 5 6 7 8 11 16
1 0 2 3 4 5 6 7 8 11 17
1 0 2 3 4 5 6 7 8 12 17
1 0 2 3 4 5 6 7 9
1 0 2 3 4 5 6 7 9 10 11
1 0 2 3 4 5 6 7 9 10 11 17 19
1 0 2 3 4 5 6 7 10 12
4 0 2 3 4 5 6 8 9 10
6 0 2 3 4 5 6 8 9 10 11
3 0 2 3 4 5 6 8 9 10 11 12
1 0 2 3 4 5 6 8 9 10 11 12 14
1 0 2 3 4 5 6 8 9 10 11 12 15
1 0 2 3 4 5 6 8 9 10 11 13
2 0 2 3 4 5 6 8 9 10 11 17
2 0 2 3 4 5 6 8 9 10 12
1 0 2 3 4 5 6 8 9 10 15
5 0 2 3 4 5 6 8 10
5 0 2 3 4 5 6 8 10 11
2 0 2 3 4 5 6 8 10 11 12
1 0 2 3 4 5 6 8 10 11 13 14
1 0 2 3 4 5 6 8 10 11 13 17
1 0 2 3 4 5 6 8 10 11 14
2 0 2 3 4 5 6 8 10 12
1 0 2 3 4 5 6 8 11
1 0 2 3 4 5 6 9
1 0 2 3 4 5 6 9 10 11 12
1 0 2 3 4 5 6 9 11
1 0 2 3 4 5 6 10 11
1 0 2 3 4 5 7
10 0 2 3 4 5 7 8
1 0 2 3 4 5 7 8 9
4 0 2 3 4 5 7 8 9 10
15 0 2 3 4 5 7 8 9 10 11
9 0 2 3 4 5 7 8 9 10 11 12
1 0 2 3 4 5 7 8 9 10 11 12 13 14 15 19
1 0 2 3 4 5 7 8 9 10 11 12 13 15 17
1 0 2 3 4 5 7 8 9 10 11 12 14 15 17
1 0 2 3 4 5 7 8 9 10 11 12 15 17
1 0 2 3 4 5 7 8 9 10 11 12 17
1 0 2 3 4 5 7 8 9 10 11 13
1 0 2 3 4 5 7 8 9 10 11 13 15 16
1 0 2 3 4 5 7 8 9 10 11 14
1 0 2 3 4 5 7 8 9 10 11 14 17
1 0 2 3 4 5 7 8 9 10 11 16
3 0 2 3 4 5 7 8 9 10 11 17
2 0 2 3 4 5 7 8 9 10 12
1 0 2 3 4 5 7 8 9 10 13 15 19 20
3 0 2 3 4 5 7 8 9 11
1 0 2 3 4 5 7 8 9 13
9 0 2 3 4 5 7 8 10
30 0 2 3 4 5 7 8 10 11
4 0 2 3 4 5 7 8 10 11 12
1 0 2 3 4 5 7 8 10 11 12 13
1 0 2 3 4 5 7 8 10 11 12 13 17
1 0 2 3 4 5 7 8 10 11 12 13 20
1 0 2 3 4 5 7 8 10 11 12 14
1 0 2 3 4 5 7 8 10 11 12 14 17
2 0 2 3 4 5 7 8 10 11 12 15
5 0 2 3 4 5 7 8 10 11 12 17
4 0 2 3 4 5 7 8 10 11 13
1 0 2 3 4 5 7 8 10 11 13 15
1 0 2 3 4 5 7 8 10 11 13 15 19
1 0 2 3 4 5 7 8 10 11 14
4 0 2 3 4 5 7 8 10 11 15
3 0 2 3 4 5 7 8 10 12
1 0 2 3 4 5 7 8 10 12 13
1 0 2 3 4 5 7 8 10 17
2 0 2 3 4 5 7 8 11
1 0 2 3 4 5 7 8 11 14
1 0 2 3 4 5 7 8 11 15
2 0 2 3 4 5 7 8 15
1 0 2 3 4 5 7 9
1 0 2 3 4 5 7 9 11 14 15
1 0 2 3 4 5 7 10 11 12
13 0 2 3 4 5 8
5 0 2 3 4 5 8 9
8 0 2 3 4 5 8 9 10
5 0 2 3 4 5 8 9 10 11
1 0 2 3 4 5 8 9 10 11 12
1 0 2 3 4 5 8 9 10 11 12 17
1 0 2 3 4 5 8 9 10 11 13
1 0 2 3 4 5 8 9 10 11 13 14
2 0 2 3 4 5 8 9 10 11 14
1 0 2 3 4 5 8 9 10 11 14 16
1 0 2 3 4 5 8 9 10 11 15
1 0 2 3 4 5 8 9 10 11 15 17 19
1 0 2 3 4 5 8 9 10 11 17
1 0 2 3 4 5 8 9 10 12
1 0 2 3 4 5 8 9 10 14
2 0 2 3 4 5 8 9 11
1 0 2 3 4 5 8 9 11 12 14
16 0 2 3 4 5 8 10
25 0 2 3 4 5 8 10 11
2 0 2 3 4 5 8 10 11 12
1 0 2 3 4 5 8 10 11 12 14
1 0 2 3 4 5 8 10 11 12 17
1 0 2 3 4 5 8 10 11 13
1 0 2 3 4 5 8 10 11 13 15
2 0 2 3 4 5 8 10 11 14
1 0 2 3 4 5 8 10 11 17
1 0 2 3 4 5 8 10 12
1 0 2 3 4 5 8 10 14
2 0 2 3 4 5 8 10 17
4 0 2 3 4 5 8 11
1 0 2 3 4 5 8 11 12
1 0 2 3 4 5 8 12
1 0 2 3 4 5 8 15
1 0 2 3 4 5 9 10 13
1 0 2 3 4 5 9 11
1 0 2 3 4 5 10
1 0 2 3 4 5 10 11 12
1 0 2 3 4 5 10 13 14 20
1 0 2 3 4 5 10 15
1 0 2 3 4 5 11 12
1 0 2 3 4 6 7 8
3 0 2 3 4 6 7 8 9 10
1 0 2 3 4 6 7 8 9 10 11 12
1 0 2 3 4 6 7 8 9 10 11 13
1 0 2 3 4 6 7 8 9 10 12
1 0 2 3 4 6 7 8 9 11
2 0 2 3 4 6 7 8 10 11
1 0 2 3 4 6 7 8 10 11 12 13 17
1 0 2 3 4 6 7 8 10 11 14
1 0 2 3 4 6 7 8 10 13
1 0 2 3 4 6 7 8 11
1 0 2 3 4 6 8
1 0 2 3 4 6 8 9 10
1 0 2 3 4 6 8 9 10 11 12 13
1 0 2 3 4 6 8 9 10 11 12 17
1 0 2 3 4 6 8 9 10 11 17
1 0 2 3 4 6 8 9 10 12
1 0 2 3 4 6 8 9 11
4 0 2 3 4 6 8 10
1 0 2 3 4 6 8 10 11
1 0 2 3 4 6 8 10 11 12
1 0 2 3 4 6 8 10 11 12 17
1 0 2 3 4 6 8 10 12
1 0 2 3 4 6 11
1 0 2 3 4 7
3 0 2 3 4 7 8
3 0 2 3 4 7 8 9
1 0 2 3 4 7 8 9 10
1 0 2 3 4 7 8 9 10 11
1 0 2 3 4 7 8 9 10 11 17
1 0 2 3 4 7 8 9 11
3 0 2 3 4 7 8 10
5 0 2 3 4 7 8 10 11
1 0 2 3 4 7 8 10 11 12
1 0 2 3 4 7 8 10 11 14 17
1 0 2 3 4 7 8 10 12 13 20
1 0 2 3 4 7 8 10 13
1 0 2 3 4 7 8 11
1 0 2 3 4 7 9 10 13
1 0 2 3 4 7 10 11
8 0 2 3 4 8
2 0 2 3 4 8 9
2 0 2 3 4 8 9 10
4 0 2 3 4 8 9 10 11
3 0 2 3 4 8 9 11
2 0 2 3 4 8 9 13 14
11 0 2 3 4 8 10
8 0 2 3 4 8 10 11
1 0 2 3 4 8 10 11 12 15
1 0 2 3 4 8 10 11 12 16
1 0 2 3 4 8 10 11 14
1 0 2 3 4 8 10 11 15
1 0 2 3 4 8 10 12 14
1 0 2 3 4 8 10 13
1 0 2 3 4 8 10 14
5 0 2 3 4 8 11
1 0 2 3 4 8 12
1 0 2 3 4 8 12 13 14
1 0 2 3 4 8 13
1 0 2 3 4 8 14
1 0 2 3 4 9
2 0 2 3 4 9 10
1 0 2 3 4 9 10 11
1 0 2 3 4 9 11 12
2 0 2 3 4 10
4 0 2 3 4 10 11
1 0 2 3 4 10 14
4 0 2 3 4 11
1 0 2 3 4 11 12
1 0 2 3 4 17
2 0 2 3 5
1 0 2 3 5 6
2 0 2 3 5 6 7 8
1 0 2 3 5 6 7 8 9 10
2 0 2 3 5 6 7 8 9 10 11
2 0 2 3 5 6 7 8 9 10 11 12
1 0 2 3 5 6 7 8 9 10 11 13 15
1 0 2 3 5 6 7 8 9 10 15
1 0 2 3 5 6 7 8 10 11
1 0 2 3 5 6 7 8 10 15
1 0 2 3 5 6 7 9
1 0 2 3 5 6 7 9 10 11 16
1 0 2 3 5 6 7 10 11
1 0 2 3 5 6 8
3 0 2 3 5 6 8 9 10
1 0 2 3 5 6 8 9 10 12
1 0 2 3 5 6 8 9 13
1 0 2 3 5 6 8 10 11 13
1 0 2 3 5 6 8 10 11 15
1 0 2 3 5 6 8 10 12
1 0 2 3 5 6 8 12
1 0 2 3 5 6 9 10
1 0 2 3 5 6 9 11
1 0 2 3 5 6 15
1 0 2 3 5 7
1 0 2 3 5 7 8
2 0 2 3 5 7 8 9 10
1 0 2 3 5 7 8 9 10 11
4 0 2 3 5 7 8 10
1 0 2 3 5 7 8 10 11
1 0 2 3 5 7 8 10 11 18
2 0 2 3 5 7 8 10 12
1 0 2 3 5 7 8 10 14
1 0 2 3 5 7 8 10 15
1 0 2 3 5 7 8 11
1 0 2 3 5 7 8 12
1 0 2 3 5 7 8 17
1 0 2 3 5 7 8 19
1 0 2 3 5 7 10 11
5 0 2 3 5 8
3 0 2 3 5 8 9
5 0 2 3 5 8 9 10
2 0 2 3 5 8 9 10 11
1 0 2 3 5 8 9 10 12
1 0 2 3 5 8 9 10 12 15
1 0 2 3 5 8 9 10 15
1 0 2 3 5 8 9 10 18
1 0 2 3 5 8 9 11
1 0 2 3 5 8 9 12
1 0 2 3 5 8 9 14
6 0 2 3 5 8 10
8 0 2 3 5 8 10 11
3 0 2 3 5 8 10 11 12
1 0 2 3 5 8 10 11 12 14 15
1 0 2 3 5 8 10 11 14 17
1 0 2 3 5 8 10 11 15
7 0 2 3 5 8 11
1 0 2 3 5 8 11 17
1 0 2 3 5 8 13
1 0 2 3 5 9 10 11 14
1 0 2 3 5 9 12
6 0 2 3 5 10
3 0 2 3 5 10 11
2 0 2 3 5 11
1 0 2 3 5 17
1 0 2 3 6 7 8 9 10 11 14
1 0 2 3 6 7 8 9 10 18
1 0 2 3 6 7 8 12
1 0 2 3 6 8
1 0 2 3 6 8 9
2 0 2 3 6 8 10 11 12
1 0 2 3 6 8 10 11 14
1 0 2 3 6 8 11
1 0 2 3 6 9 10 11
2 0 2 3 6 10
1 0 2 3 6 10 11
2 0 2 3 7
3 0 2 3 7 8
1 0 2 3 7 8 9 10
1 0 2 3 7 8 9 10 11
1 0 2 3 7 8 9 10 14
1 0 2 3 7 8 9 12
2 0 2 3 7 8 9 14
5 0 2 3 7 8 10
2 0 2 3 7 8 10 11
1 0 2 3 7 8 10 11 12 17
1 0 2 3 7 8 11
1 0 2 3 7 8 11 13
2 0 2 3 7 9 10
1 0 2 3 7 10 11
1 0 2 3 7 10 13
19 0 2 3 8
5 0 2 3 8 9
2 0 2 3 8 9 10
1 0 2 3 8 9 10 11
1 0 2 3 8 9 10 14
1 0 2 3 8 9 11
2 0 2 3 8 9 11 12 14
1 0 2 3 8 9 14
12 0 2 3 8 10
4 0 2 3 8 10 11
1 0 2 3 8 10 12
1 0 2 3 8 10 14
1 0 2 3 8 10 15
7 0 2 3 8 11
1 0 2 3 8 11 14
1 0 2 3 8 11 17
1 0 2 3 8 12
1 0 2 3 8 13 14
1 0 2 3 8 14
2 0 2 3 8 15
1 0 2 3 8 17
1 0 2 3 9
1 0 2 3 9 10
1 0 2 3 9 10 11
1 0 2 3 9 10 11 15
2 0 2 3 9 10 14
1 0 2 3 9 11 12 13
1 0 2 3 9 11 14
1 0 2 3 9 12 13 14
1 0 2 3 9 14
4 0 2 3 10
1 0 2 3 10 11
1 0 2 3 10 11 12
1 0 2 3 10 11 15 18
1 0 2 3 10 15
4 0 2 3 11
3 0 2 3 14
69 0 2 4
12 0 2 4 5
6 0 2 4 5 6
1 0 2 4 5 6 7
2 0 2 4 5 6 7 8
2 0 2 4 5 6 7 8 9 10
5 0 2 4 5 6 7 8 9 10 11
4 0 2 4 5 6 7 8 9 10 11 12
1 0 2 4 5 6 7 8 9 10 11 15
1 0 2 4 5 6 7 8 9 10 11 17
1 0 2 4 5 6 7 8 9 10 12
1 0 2 4 5 6 7 8 9 10 12 13 16
1 0 2 4 5 6 7 8 9 10 12 17
1 0 2 4 5 6 7 8 9 10 13
2 0 2 4 5 6 7 8 9 11
1 0 2 4 5 6 7 8 9 11 12
1 0 2 4 5 6 7 8 9 12 15
8 0 2 4 5 6 7 8 10
7 0 2 4 5 6 7 8 10 11
2 0 2 4 5 6 7 8 10 11 12
2 0 2 4 5 6 7 8 10 11 12 13
1 0 2 4 5 6 7 8 10 11 12 13 17
1 0 2 4 5 6 7 8 10 11 12 14
2 0 2 4 5 6 7 8 10 11 13
1 0 2 4 5 6 7 8 10 11 13 17
1 0 2 4 5 6 7 8 10 11 16 17
1 0 2 4 5 6 7 8 10 11 17
1 0 2 4 5 6 7 8 10 13 17
1 0 2 4 5 6 7 8 10 14 17
4 0 2 4 5 6 7 8 11
1 0 2 4 5 6 7 8 11 12
1 0 2 4 5 6 7 9
1 0 2 4 5 6 7 10 11
1 0 2 4 5 6 7 10 11 12
1 0 2 4 5 6 7 15
3 0 2 4 5 6 8
1 0 2 4 5 6 8 9 10
5 0 2 4 5 6 8 9 10 11
1 0 2 4 5 6 8 9 10 11 17
10 0 2 4 5 6 8 10
9 0 2 4 5 6 8 10 11
3 0 2 4 5 6 8 10 11 12
1 0 2 4 5 6 8 10 11 13
1 0 2 4 5 6 8 10 11 15 17
1 0 2 4 5 6 8 10 11 17
1 0 2 4 5 6 8 10 11 20
4 0 2 4 5 6 8 10 12
1 0 2 4 5 6 8 10 13 14
1 0 2 4 5 6 8 10 20
1 0 2 4 5 6 8 11 13
3 0 2 4 5 6 8 12
1 0 2 4 5 6 10
1 0 2 4 5 6 10 11 17
1 0 2 4 5 6 10 12
4 0 2 4 5 7
12 0 2 4 5 7 8
2 0 2 4 5 7 8 9
6 0 2 4 5 7 8 9 10
12 0 2 4 5 7 8 9 10 11
3 0 2 4 5 7 8 9 10 11 12
1 0 2 4 5 7 8 9 10 11 12 13
1 0 2 4 5 7 8 9 10 11 12 13 17
1 0 2 4 5 7 8 9 10 11 12 14
1 0 2 4 5 7 8 9 10 11 12 15
1 0 2 4 5 7 8 9 10 11 15
1 0 2 4 5 7 8 9 10 11 17
1 0 2 4 5 7 8 9 10 12
1 0 2 4 5 7 8 9 10 17
3 0 2 4 5 7 8 9 11
1 0 2 4 5 7 8 9 11 13
1 0 2 4 5 7 8 9 11 15
16 0 2 4 5 7 8 10
46 0 2 4 5 7 8 10 11
12 0 2 4 5 7 8 10 11 12
1 0 2 4 5 7 8 10 11 12 16
2 0 2 4 5 7 8 10 11 12 17
5 0 2 4 5 7 8 10 11 13
1 0 2 4 5 7 8 10 11 13 14
1 0 2 4 5 7 8 10 11 13 15
1 0 2 4 5 7 8 10 11 15
9 0 2 4 5 7 8 10 11 17
3 0 2 4 5 7 8 10 12
2 0 2 4 5 7 8 10 13
5 0 2 4 5 7 8 10 17
11 0 2 4 5 7 8 11
1 0 2 4 5 7 8 11 12
1 0 2 4 5 7 8 11 13
1 0 2 4 5 7 8 11 13 14
1 0 2 4 5 7 8 11 14 15
2 0 2 4 5 7 8 11 17
1 0 2 4 5 7 8 12
1 0 2 4 5 7 9
1 0 2 4 5 7 9 10 11
2 0 2 4 5 7 10 11
3 0 2 4 5 7 10 11 12
3 0 2 4 5 7 11
1 0 2 4 5 7 11 12
1 0 2 4 5 7 11 13
35 0 2 4 5 8
3 0 2 4 5 8 9
8 0 2 4 5 8 9 10
13 0 2 4 5 8 9 10 11
1 0 2 4 5 8 9 10 11 12
1 0 2 4 5 8 9 10 11 15
1 0 2 4 5 8 9 10 11 17
1 0 2 4 5 8 9 10 12 17
1 0 2 4 5 8 9 10 14 17
1 0 2 4 5 8 9 10 17
2 0 2 4 5 8 9 11
3 0 2 4 5 8 9 11 12
1 0 2 4 5 8 9 15
1 0 2 4 5 8 9 17
53 0 2 4 5 8 10
57 0 2 4 5 8 10 11
9 0 2 4 5 8 10 11 12
2 0 2 4 5 8 10 11 12 17
3 0 2 4 5 8 10 11 13
1 0 2 4 5 8 10 11 14 17
3 0 2 4 5 8 10 11 15
5 0 2 4 5 8 10 11 17
1 0 2 4 5 8 10 11 17 19
1 0 2 4 5 8 10 11 19
7 0 2 4 5 8 10 12
1 0 2 4 5 8 10 12 15
1 0 2 4 5 8 10 13
1 0 2 4 5 8 10 13 15 17
1 0 2 4 5 8 10 13 17
1 0 2 4 5 8 10 14
1 0 2 4 5 8 10 14 17
3 0 2 4 5 8 10 15
21 0 2 4 5 8 11
4 0 2 4 5 8 11 12
1 0 2 4 5 8 11 13
1 0 2 4 5 8 11 15
1 0 2 4 5 8 11 17
2 0 2 4 5 8 12
3 0 2 4 5 8 13
2 0 2 4 5 8 15
1 0 2 4 5 8 17
1 0 2 4 5 9
3 0 2 4 5 9 10
1 0 2 4 5 9 10 11
1 0 2 4 5 9 10 13
1 0 2 4 5 9 11
12 0 2 4 5 10
14 0 2 4 5 10 11
1 0 2 4 5 10 11 17
4 0 2 4 5 11
1 0 2 4 5 12
2 0 2 4 5 15
5 0 2 4 6
1 0 2 4 6 7
3 0 2 4 6 7 8
1 0 2 4 6 7 8 9
2 0 2 4 6 7 8 9 10
3 0 2 4 6 7 8 9 10 11
1 0 2 4 6 7 8 9 10 11 17
1 0 2 4 6 7 8 10
1 0 2 4 6 7 8 10 11 12
1 0 2 4 6 7 8 10 11 13
1 0 2 4 6 7 8 11
1 0 2 4 6 7 10
1 0 2 4 6 7 11
5 0 2 4 6 8
2 0 2 4 6 8 9
2 0 2 4 6 8 9 10
1 0 2 4 6 8 9 10 13
2 0 2 4 6 8 9 12
6 0 2 4 6 8 10
9 0 2 4 6 8 10 11
1 0 2 4 6 8 10 11 15
1 0 2 4 6 8 10 12
3 0 2 4 6 8 11
1 0 2 4 6 8 12
2 0 2 4 6 10
1 0 2 4 6 10 11 17
1 0 2 4 6 11
1 0 2 4 6 12
1 0 2 4 6 13
1 0 2 4 6 15
7 0 2 4 7
13 0 2 4 7 8
7 0 2 4 7 8 9
4 0 2 4 7 8 9 10
5 0 2 4 7 8 9 10 11
1 0 2 4 7 8 9 11
1 0 2 4 7 8 9 11 17
1 0 2 4 7 8 9 12
18 0 2 4 7 8 10
9 0 2 4 7 8 10 11
1 0 2 4 7 8 10 11 14
1 0 2 4 7 8 10 12
5 0 2 4 7 8 11
1 0 2 4 7 8 11 12
1 0 2 4 7 8 11 14
1 0 2 4 7 8 11 16
2 0 2 4 7 8 12
1 0 2 4 7 8 13
1 0 2 4 7 8 17
1 0 2 4 7 9 12 14
7 0 2 4 7 10
4 0 2 4 7 10 11
1 0 2 4 7 10 11 12 13
1 0 2 4 7 10 12
2 0 2 4 7 11
2 0 2 4 7 11 17
62 0 2 4 8
7 0 2 4 8 9
6 0 2 4 8 9 10
8 0 2 4 8 9 10 11
1 0 2 4 8 9 10 12
3 0 2 4 8 9 11
1 0 2 4 8 9 13
47 0 2 4 8 10
30 0 2 4 8 10 11
2 0 2 4 8 10 11 12
2 0 2 4 8 10 11 15
1 0 2 4 8 10 11 17
2 0 2 4 8 10 12
1 0 2 4 8 10 12 13
1 0 2 4 8 10 13
1 0 2 4 8 10 13 17
1 0 2 4 8 10 14
2 0 2 4 8 10 15
2 0 2 4 8 10 17
19 0 2 4 8 11
2 0 2 4 8 11 12
3 0 2 4 8 11 13
1 0 2 4 8 11 13 14
3 0 2 4 8 11 17
3 0 2 4 8 12
1 0 2 4 8 13
1 0 2 4 8 17
3 0 2 4 9
1 0 2 4 9 10 11 12 17
1 0 2 4 9 11
1 0 2 4 9 11 12
1 0 2 4 9 12
1 0 2 4 9 17
22 0 2 4 10
10 0 2 4 10 11
1 0 2 4 10 11 12
1 0 2 4 10 11 17
1 0 2 4 10 12 15
1 0 2 4 10 13
1 0 2 4 10 15
1 0 2 4 10 17
4 0 2 4 11
2 0 2 4 11 14
2 0 2 4 12
1 0 2 4 13
2 0 2 4 14
60 0 2 5
5 0 2 5 6
1 0 2 5 6 7
2 0 2 5 6 7 8
3 0 2 5 6 7 8 9 10
2 0 2 5 6 7 8 9 10 11
1 0 2 5 6 7 8 9 10 15
1 0 2 5 6 7 8 9 11
1 0 2 5 6 7 8 9 11 13
3 0 2 5 6 7 8 10
1 0 2 5 6 7 8 12
1 0 2 5 6 7 9 10
1 0 2 5 6 7 9 10 12 15
1 0 2 5 6 7 10 12
1 0 2 5 6 7 10 14
3 0 2 5 6 8
1 0 2 5 6 8 9
4 0 2 5 6 8 9 10
2 0 2 5 6 8 9 10 11
1 0 2 5 6 8 9 10 11 13
7 0 2 5 6 8 10
5 0 2 5 6 8 10 11
3 0 2 5 6 8 11
3 0 2 5 6 9
2 0 2 5 6 9 10
1 0 2 5 6 9 11
1 0 2 5 6 10 11
10 0 2 5 7
11 0 2 5 7 8
3 0 2 5 7 8 9
2 0 2 5 7 8 9 10 11
1 0 2 5 7 8 9 10 11 13
1 0 2 5 7 8 9 11
13 0 2 5 7 8 10
14 0 2 5 7 8 10 11
1 0 2 5 7 8 10 11 12
1 0 2 5 7 8 10 11 13
1 0 2 5 7 8 10 11 13 18
1 0 2 5 7 8 10 12
1 0 2 5 7 8 10 17
5 0 2 5 7 8 11
1 0 2 5 7 8 11 12
2 0 2 5 7 8 11 13
1 0 2 5 7 8 11 17
1 0 2 5 7 8 12
1 0 2 5 7 8 13
1 0 2 5 7 9
2 0 2 5 7 10
2 0 2 5 7 10 11
1 0 2 5 7 10 11 17
1 0 2 5 7 10 12
2 0 2 5 7 11
1 0 2 5 7 12
59 0 2 5 8
3 0 2 5 8 9
7 0 2 5 8 9 10
1 0 2 5 8 9 10 11 12
1 0 2 5 8 9 10 15
1 0 2 5 8 9 11
1 0 2 5 8 9 12
34 0 2 5 8 10
25 0 2 5 8 10 11
4 0 2 5 8 10 11 12
2 0 2 5 8 10 11 13
1 0 2 5 8 10 11 17
1 0 2 5 8 10 13
2 0 2 5 8 10 14
1 0 2 5 8 10 15
17 0 2 5 8 11
2 0 2 5 8 11 12
3 0 2 5 8 12
1 0 2 5 8 13
1 0 2 5 8 14
4 0 2 5 9
4 0 2 5 9 10
1 0 2 5 9 10 11
1 0 2 5 9 11
1 0 2 5 9 11 12
1 0 2 5 9 12
1 0 2 5 9 17
29 0 2 5 10
6 0 2 5 10 11
1 0 2 5 10 11 12
1 0 2 5 10 11 14
2 0 2 5 10 11 15
1 0 2 5 10 11 17
10 0 2 5 11
2 0 2 5 11 17
1 0 2 5 12
1 0 2 5 13
13 0 2 6
1 0 2 6 7
4 0 2 6 7 8
1 0 2 6 7 8 9
1 0 2 6 7 8 9 10 11 14
4 0 2 6 7 8 10
1 0 2 6 7 8 10 11
1 0 2 6 7 9
1 0 2 6 7 9 11
1 0 2 6 7 10
1 0 2 6 7 10 11 12
1 0 2 6 7 10 12
1 0 2 6 7 11
1 0 2 6 7 17
9 0 2 6 8
5 0 2 6 8 9
2 0 2 6 8 9 10
8 0 2 6 8 10
4 0 2 6 8 10 11
2 0 2 6 9
1 0 2 6 9 10
5 0 2 6 10
5 0 2 6 10 11
29 0 2 7
19 0 2 7 8
7 0 2 7 8 9
2 0 2 7 8 9 10
1 0 2 7 8 9 10 13
1 0 2 7 8 9 11
1 0 2 7 8 9 12
10 0 2 7 8 10
11 0 2 7 8 10 11
1 0 2 7 8 10 14
2 0 2 7 8 10 15
1 0 2 7 8 10 17
3 0 2 7 8 11
1 0 2 7 8 11 12
1 0 2 7 8 12 13
1 0 2 7 8 13
3 0 2 7 9
1 0 2 7 9 10
8 0 2 7 10
3 0 2 7 10 11
2 0 2 7 10 12
1 0 2 7 10 17
6 0 2 7 11
1 0 2 7 11 12
1 0 2 7 13
1 0 2 7 17
174 0 2 8
12 0 2 8 9
10 0 2 8 9 10
2 0 2 8 9 10 11
2 0 2 8 9 10 11 12
3 0 2 8 9 11
2 0 2 8 9 13
1 0 2 8 9 14
56 0 2 8 10
25 0 2 8 10 11
1 0 2 8 10 12
1 0 2 8 10 13
2 0 2 8 10 13 15
2 0 2 8 10 15
2 0 2 8 10 17
1 0 2 8 10 18
36 0 2 8 11
5 0 2 8 11 12
1 0 2 8 11 13
1 0 2 8 11 14
1 0 2 8 11 15
3 0 2 8 11 17
5 0 2 8 12
1 0 2 8 13
1 0 2 8 13 17
1 0 2 8 13 19
2 0 2 8 14
1 0 2 8 15 19
2 0 2 8 17
1 0 2 8 18
12 0 2 9
5 0 2 9 10
2 0 2 9 10 11
2 0 2 9 11 14
2 0 2 9 14
1 0 2 9 19
86 0 2 10
17 0 2 10 11
2 0 2 10 11 13
1 0 2 10 11 17
2 0 2 10 12
2 0 2 10 14
4 0 2 10 17
42 0 2 11
2 0 2 11 12
1 0 2 11 17
5 0 2 12
5 0 2 13
17 0 2 14
3 0 2 15
1 0 2 16
2 0 2 17
1 0 2 18
79 0 3
14 0 3 4
4 0 3 4 5
1 0 3 4 5 6 7 8 9
1 0 3 4 5 6 7 8 9 10
1 0 3 4 5 6 7 8 9 10 13 15
1 0 3 4 5 6 7 8 10
1 0 3 4 5 6 7 8 10 11
1 0 3 4 5 6 7 8 10 11 12
1 0 3 4 5 6 7 9 10
1 0 3 4 5 6 7 12
1 0 3 4 5 6 8
1 0 3 4 5 6 8 10 11
1 0 3 4 5 6 8 10 11 16
1 0 3 4 5 6 8 11 19
2 0 3 4 5 6 9 10
1 0 3 4 5 6 10
1 0 3 4 5 7 8
1 0 3 4 5 7 8 9 10 11 17
1 0 3 4 5 7 8 10
1 0 3 4 5 7 8 10 15
1 0 3 4 5 7 8 11 12
8 0 3 4 5 8
1 0 3 4 5 8 9
1 0 3 4 5 8 9 10
1 0 3 4 5 8 9 10 11
1 0 3 4 5 8 9 10 11 12
1 0 3 4 5 8 9 11
3 0 3 4 5 8 10
1 0 3 4 5 8 10 11
1 0 3 4 5 8 10 14
1 0 3 4 5 8 10 17
1 0 3 4 5 8 11
1 0 3 4 5 8 12
1 0 3 4 5 9
1 0 3 4 5 9 10 14
1 0 3 4 5 10
1 0 3 4 5 11
1 0 3 4 6
1 0 3 4 6 7 8 9
1 0 3 4 6 8
2 0 3 4 6 8 9 10
1 0 3 4 6 9
1 0 3 4 7
1 0 3 4 7 8
1 0 3 4 7 8 9 10 11
2 0 3 4 7 10
5 0 3 4 8
1 0 3 4 8 9 11
5 0 3 4 8 10
1 0 3 4 8 10 11
1 0 3 4 8 10 11 13
1 0 3 4 8 10 13
1 0 3 4 8 11
1 0 3 4 8 12
3 0 3 4 8 17
1 0 3 4 9 10
1 0 3 4 9 11
1 0 3 4 9 14
5 0 3 4 10
1 0 3 4 10 11
1 0 3 4 12
12 0 3 5
1 0 3 5 6
3 0 3 5 6 8 10
1 0 3 5 6 10
1 0 3 5 6 11
2 0 3 5 7 8
1 0 3 5 7 8 9 10 11
2 0 3 5 7 8 10
1 0 3 5 7 8 14
2 0 3 5 7 9 10
1 0 3 5 7 11 13
9 0 3 5 8
2 0 3 5 8 9 10
3 0 3 5 8 10
3 0 3 5 8 11
1 0 3 5 8 11 15
4 0 3 5 10
1 0 3 5 10 11
1 0 3 5 11
1 0 3 5 12
3 0 3 6
2 0 3 6 7
1 0 3 6 7 8 9 11
1 0 3 6 7 8 10
6 0 3 6 8
3 0 3 6 8 10
1 0 3 6 9
1 0 3 6 9 10
2 0 3 6 10
1 0 3 6 14
6 0 3 7
3 0 3 7 8
2 0 3 7 8 9
1 0 3 7 8 9 10
3 0 3 7 8 10
2 0 3 7 8 11
1 0 3 7 9
4 0 3 7 10
1 0 3 7 12
1 0 3 7 18
24 0 3 8
2 0 3 8 9
1 0 3 8 9 10 11
4 0 3 8 10
1 0 3 8 10 11
1 0 3 8 10 12
2 0 3 8 11
3 0 3 9
1 0 3 9 10 11
1 0 3 9 13 14
3 0 3 9 14
3 0 3 10
2 0 3 10 11
5 0 3 11
1 0 3 11 14
1 0 3 12
4 0 3 14
1 0 3 16
131 0 4
28 0 4 5
2 0 4 5 6
1 0 4 5 6 7 8
1 0 4 5 6 7 8 9 10
1 0 4 5 6 7 8 9 10 17
1 0 4 5 6 7 8 9 13
1 0 4 5 6 7 8 10
3 0 4 5 6 7 8 10 11
1 0 4 5 6 7 8 10 11 12 13 14 16
1 0 4 5 6 7 8 11 12
1 0 4 5 6 7 8 12
5 0 4 5 6 8
1 0 4 5 6 8 9
1 0 4 5 6 8 9 10
1 0 4 5 6 8 9 10 11
1 0 4 5 6 8 9 10 12
1 0 4 5 6 8 10 12
1 0 4 5 6 9 10
1 0 4 5 6 10
1 0 4 5 6 10 11
3 0 4 5 7
4 0 4 5 7 8
1 0 4 5 7 8 9
1 0 4 5 7 8 9 10
1 0 4 5 7 8 9 10 11
1 0 4 5 7 8 9 10 12
4 0 4 5 7 8 10
3 0 4 5 7 8 10 11
1 0 4 5 7 8 11
1 0 4 5 7 9 10
1 0 4 5 7 9 11
2 0 4 5 7 10
1 0 4 5 7 11
30 0 4 5 8
4 0 4 5 8 9 10
1 0 4 5 8 9 11
1 0 4 5 8 9 11 15
15 0 4 5 8 10
3 0 4 5 8 10 11
1 0 4 5 8 10 11 12
1 0 4 5 8 10 12
1 0 4 5 8 10 13
1 0 4 5 8 11
1 0 4 5 8 11 13
1 0 4 5 8 12
1 0 4 5 8 13
1 0 4 5 9
1 0 4 5 9 10
7 0 4 5 10
4 0 4 5 11
1 0 4 5 12
1 0 4 5 13
1 0 4 5 15
5 0 4 6
1 0 4 6 7
3 0 4 6 7 8
1 0 4 6 7 8 9
1 0 4 6 7 8 10 11
1 0 4 6 7 8 11
1 0 4 6 7 10
4 0 4 6 8
2 0 4 6 8 9 10
1 0 4 6 8 9 11
2 0 4 6 8 10
1 0 4 6 8 10 11
1 0 4 6 8 10 12
1 0 4 6 8 11
1 0 4 6 9 10 11
2 0 4 6 10
1 0 4 6 10 11
1 0 4 6 10 12
1 0 4 6 17
11 0 4 7
14 0 4 7 8
3 0 4 7 8 9
1 0 4 7 8 9 10
1 0 4 7 8 9 10 12
1 0 4 7 8 10
1 0 4 7 8 10 13
4 0 4 7 8 11
1 0 4 7 9
2 0 4 7 10
1 0 4 7 11
1 0 4 7 11 12
1 0 4 7 12
1 0 4 7 15
1 0 4 7 17
77 0 4 8
4 0 4 8 9
3 0 4 8 9 10
2 0 4 8 9 10 11
1 0 4 8 9 11
1 0 4 8 9 11 13
21 0 4 8 10
6 0 4 8 10 11
1 0 4 8 10 11 13
1 0 4 8 10 13
1 0 4 8 10 15
11 0 4 8 11
1 0 4 8 11 12 13
1 0 4 8 11 12 17
1 0 4 8 11 17
5 0 4 8 12
2 0 4 8 13
2 0 4 8 14
1 0 4 8 15
2 0 4 9
4 0 4 9 10
1 0 4 9 10 11
1 0 4 9 10 15
1 0 4 9 12
22 0 4 10
4 0 4 10 11
1 0 4 10 13
10 0 4 11
1 0 4 11 12
2 0 4 12
1 0 4 13
1 0 4 15
1 0 4 17
279 0 5
11 0 5 6
3 0 5 6 7
2 0 5 6 7 8
1 0 5 6 7 8 9
1 0 5 6 7 8 10 11 14
1 0 5 6 7 8 13
1 0 5 6 7 9
1 0 5 6 7 10
4 0 5 6 8
1 0 5 6 8 9
2 0 5 6 8 10
1 0 5 6 8 10 11
2 0 5 6 8 11
1 0 5 6 9 10
1 0 5 6 10
1 0 5 6 10 11
5 0 5 7
15 0 5 7 8
4 0 5 7 8 9
1 0 5 7 8 9 10 11
7 0 5 7 8 10
5 0 5 7 8 10 11
2 0 5 7 8 11
1 0 5 7 8 11 12
1 0 5 7 8 17
1 0 5 7 9
1 0 5 7 9 12
5 0 5 7 10
1 0 5 7 10 11
1 0 5 7 10 11 12
1 0 5 7 11 20
1 0 5 7 12 15
1 0 5 7 13
108 0 5 8
3 0 5 8 9
1 0 5 8 9 10
1 0 5 8 9 11
1 0 5 8 9 13
1 0 5 8 9 16
28 0 5 8 10
6 0 5 8 10 11
1 0 5 8 10 13
8 0 5 8 11
4 0 5 8 12
3 0 5 8 13
3 0 5 8 17
18 0 5 9
1 0 5 9 11
1 0 5 9 12
1 0 5 9 14
40 0 5 10
3 0 5 10 11
1 0 5 10 11 12
1 0 5 10 12
1 0 5 10 13
1 0 5 10 17
11 0 5 11
2 0 5 12
2 0 5 13
2 0 5 14
1 0 5 15
1 0 5 17
56 0 6
3 0 6 7
3 0 6 7 8
1 0 6 7 8 9 11
2 0 6 7 8 10
1 0 6 7 8 10 11
1 0 6 7 9 10
2 0 6 7 9 12
1 0 6 7 10
2 0 6 7 11
19 0 6 8
3 0 6 8 9
1 0 6 8 9 10
1 0 6 8 9 10 13
5 0 6 8 10
5 0 6 8 11
1 0 6 8 13
1 0 6 8 13 15
6 0 6 9
1 0 6 9 10
1 0 6 9 10 15
7 0 6 10
1 0 6 10 11
3 0 6 11
2 0 6 12
1 0 6 13
1 0 6 15
1 0 6 17
80 0 7
32 0 7 8
6 0 7 8 9
5 0 7 8 10
1 0 7 8 10 13
5 0 7 8 11
1 0 7 8 13
5 0 7 9
1 0 7 9 11 17
11 0 7 10
2 0 7 10 11
3 0 7 11
2 0 7 12
1 0 7 12 17
1 0 7 13
3 0 7 14
1 0 7 17
713 0 8
42 0 8 9
4 0 8 9 10
2 0 8 9 10 12
1 0 8 9 10 13
2 0 8 9 11
53 0 8 10
6 0 8 10 11
1 0 8 10 11 12
1 0 8 10 12
1 0 8 10 13
2 0 8 10 17
24 0 8 11
1 0 8 12
4 0 8 13
4 0 8 14
5 0 8 15
2 0 8 17
1 0 8 19
156 0 9
4 0 9 10
1 0 9 10 12
1 0 9 11
1 0 9 13 14
5 0 9 14
1 0 9 15
1 0 9 17
139 0 10
22 0 10 11
3 0 10 12
2 0 10 13
1 0 10 15
1 0 10 17
66 0 11
2 0 11 13
2 0 11 14
1 0 11 15 17
1 0 11 17
10 0 12
1 0 12 14
1 0 12 16
13 0 13
2 0 13 19
35 0 14
23 0 15
1 0 16
19 0 17
1 0 18
2 0 19
2338 1
59 1 2
2 1 2 3
1 1 2 3 4 5 6 8
3 1 2 3 4 5 7 8 10 11
1 1 2 3 4 5 7 8 10 11 17
1 1 2 3 4 5 7 8 10 13
1 1 2 3 4 5 8 9 10
1 1 2 3 4 5 8 9 10 11
2 1 2 3 4 5 8 10
1 1 2 3 4 5 8 10 11
1 1 2 3 4 5 11 13
1 1 2 3 4 6 7 8 9
1 1 2 3 4 6 11
1 1 2 3 4 7 8
1 1 2 3 4 8
1 1 2 3 4 8 10 11
1 1 2 3 4 8 11 13
1 1 2 3 4 11 17
1 1 2 3 5 6 10
1 1 2 3 5 8
1 1 2 3 5 10
1 1 2 3 6 7 8
2 1 2 3 8
1 1 2 3 8 10 11
1 1 2 3 8 11
1 1 2 3 10
1 1 2 3 10 11
1 1 2 3 11
1 1 2 3 11 17
5 1 2 4
2 1 2 4 5
1 1 2 4 5 6 7 8 9 10
2 1 2 4 5 6 8
1 1 2 4 5 7
1 1 2 4 5 7 8 9 10 11
2 1 2 4 5 7 8 10
1 1 2 4 5 7 8 10 11
1 1 2 4 5 7 8 10 11 12
1 1 2 4 5 7 8 10 11 17
4 1 2 4 5 7 8 11
1 1 2 4 5 7 8 11 13
1 1 2 4 5 7 9
1 1 2 4 5 8 9 11
4 1 2 4 5 8 10
1 1 2 4 5 8 10 11 17
3 1 2 4 5 8 11
1 1 2 4 5 10
1 1 2 4 5 10 11
1 1 2 4 6
2 1 2 4 7
3 1 2 4 7 8 10
1 1 2 4 7 8 10 11
1 1 2 4 7 12
8 1 2 4 8
4 1 2 4 8 10
5 1 2 4 8 10 11
1 1 2 4 8 10 11 12
1 1 2 4 8 10 11 13
1 1 2 4 8 10 13
1 1 2 4 8 11 12
1 1 2 4 8 11 13
1 1 2 4 8 12
1 1 2 4 8 12 17
1 1 2 4 10
2 1 2 4 10 11
1 1 2 4 11
1 1 2 4 13
1 1 2 4 14
7 1 2 5
1 1 2 5 6
2 1 2 5 6 8
1 1 2 5 6 8 9 15
1 1 2 5 6 8 10 11
1 1 2 5 7 10
5 1 2 5 8
1 1 2 5 8 9
2 1 2 5 8 10
1 1 2 5 8 10 11 12 13
5 1 2 5 10
2 1 2 5 10 11
1 1 2 5 11
1 1 2 6
1 1 2 6 7 11
1 1 2 6 8
2 1 2 6 10
1 1 2 6 10 11
4 1 2 7
4 1 2 7 8 10
1 1 2 7 8 10 11
1 1 2 7 10
1 1 2 7 11
12 1 2 8
1 1 2 8 9
1 1 2 8 9 12
10 1 2 8 10
2 1 2 8 10 11
1 1 2 8 10 17
3 1 2 8 11
1 1 2 8 13
1 1 2 8 14
1 1 2 9 10
17 1 2 10
1 1 2 10 11
1 1 2 10 12
4 1 2 11
1 1 2 11 12
1 1 2 12
2 1 2 13
14 1 3
1 1 3 4 5 7 8
1 1 3 4 5 8
1 1 3 4 5 13
1 1 3 4 7 8 10 11
1 1 3 4 8
1 1 3 4 8 10
1 1 3 4 13
3 1 3 5
1 1 3 5 7 8 10 11 16
1 1 3 5 8
1 1 3 5 13
1 1 3 6
1 1 3 6 8
1 1 3 7
1 1 3 7 8 10
7 1 3 8
1 1 3 8 10 11
1 1 3 8 11
1 1 3 9
1 1 3 10
1 1 3 10 17
1 1 3 11
21 1 4
1 1 4 5
2 1 4 5 8
3 1 4 5 8 10
1 1 4 5 8 11
1 1 4 5 11
1 1 4 5 12
1 1 4 6 8
1 1 4 7
1 1 4 7 8 10
1 1 4 7 8 12
1 1 4 7 8 17
1 1 4 7 9 10
10 1 4 8
1 1 4 8 9
2 1 4 8 10
1 1 4 8 10 11
1 1 4 8 10 12
1 1 4 8 12
1 1 4 8 17
1 1 4 10 11
1 1 4 11
1 1 4 12
40 1 5
2 1 5 6
1 1 5 6 8 10
1 1 5 6 8 12
1 1 5 6 11
1 1 5 7
1 1 5 7 8 10
10 1 5 8
2 1 5 8 9
1 1 5 8 10
1 1 5 8 19
1 1 5 9
2 1 5 10
1 1 5 10 11
1 1 5 14
7 1 6
1 1 6 7
1 1 6 7 10
1 1 6 8
2 1 6 8 10
10 1 7
2 1 7 8
1 1 7 9
1 1 7 10
3 1 7 13
64 1 8
1 1 8 9
5 1 8 10
2 1 8 10 11
4 1 8 11
1 1 8 11 13 19
1 1 8 13
6 1 9
1 1 9 10
16 1 10
2 1 10 11
1 1 10 13
18 1 11
2 1 11 12 13
1 1 11 14
4 1 12
16 1 13
1 1 13 19
3 1 14
10 1 15
1 1 15 20
2 1 17
1 1 19
1 1 20
3501 2
49 2 3
7 2 3 4
2 2 3 4 5
1 2 3 4 5 6 7 8 10 11 12
1 2 3 4 5 7 8 9 10 11 12
1 2 3 4 5 7 8 10
1 2 3 4 5 7 8 10 11
1 2 3 4 5 7 8 10 11 17
1 2 3 4 5 7 11
5 2 3 4 5 8
1 2 3 4 5 8 10
2 2 3 4 5 8 10 11
1 2 3 4 5 8 10 11 12
1 2 3 4 5 8 11
1 2 3 4 5 8 11 13
2 2 3 4 5 10
1 2 3 4 5 10 11 17
1 2 3 4 5 11 14
2 2 3 4 6
1 2 3 4 6 8 10 11
2 2 3 4 6 8 11
1 2 3 4 6 10
1 2 3 4 7
1 2 3 4 7 8 10
1 2 3 4 7 8 11 12
1 2 3 4 7 10
3 2 3 4 8
1 2 3 4 8 9
4 2 3 4 8 10
1 2 3 4 8 10 11
1 2 3 4 8 10 13
1 2 3 4 8 11
1 2 3 4 9
3 2 3 4 10
2 2 3 4 10 11
2 2 3 4 11
1 2 3 4 14
2 2 3 5
1 2 3 5 7 8
1 2 3 5 7 8 10 11
1 2 3 5 7 11 17
4 2 3 5 8
1 2 3 5 8 9 10
3 2 3 5 8 10
1 2 3 5 8 10 11
1 2 3 5 8 11
1 2 3 5 8 17
1 2 3 5 9
1 2 3 5 9 10
1 2 3 5 10
1 2 3 5 10 11
2 2 3 5 11
1 2 3 6 7 8
1 2 3 7
2 2 3 7 8
1 2 3 7 8 9
1 2 3 7 8 9 10 12
1 2 3 7 8 10
1 2 3 7 8 10 11
2 2 3 7 9
1 2 3 7 11
16 2 3 8
4 2 3 8 10
1 2 3 8 10 12
7 2 3 8 11
1 2 3 8 11 16
3 2 3 8 12
1 2 3 8 13
12 2 3 10
4 2 3 10 11
1 2 3 10 14
7 2 3 11
1 2 3 12
4 2 3 14
191 2 4
23 2 4 5
2 2 4 5 6
1 2 4 5 6 7 8 9 10 11
1 2 4 5 6 7 8 9 10 11 14
3 2 4 5 6 7 8 10
1 2 4 5 6 7 11
8 2 4 5 6 8
2 2 4 5 6 8 10
1 2 4 5 6 8 10 11
1 2 4 5 6 8 10 11 17
1 2 4 5 6 10 11
1 2 4 5 7
3 2 4 5 7 8
1 2 4 5 7 8 9 11
3 2 4 5 7 8 10
5 2 4 5 7 8 10 11
2 2 4 5 7 8 10 11 12
1 2 4 5 7 8 10 11 12 16
1 2 4 5 7 8 10 11 16
1 2 4 5 7 8 10 11 17
1 2 4 5 7 8 10 12
1 2 4 5 7 8 10 17
3 2 4 5 7 8 11
2 2 4 5 7 8 11 12
1 2 4 5 7 8 11 17
1 2 4 5 7 9 10 11
1 2 4 5 7 10
2 2 4 5 7 10 11
1 2 4 5 7 10 17
34 2 4 5 8
2 2 4 5 8 9
1 2 4 5 8 9 10 11
1 2 4 5 8 9 10 11 12
12 2 4 5 8 10
23 2 4 5 8 10 11
4 2 4 5 8 10 11 12
1 2 4 5 8 10 11 13
1 2 4 5 8 10 11 15
1 2 4 5 8 10 11 16
1 2 4 5 8 10 12
1 2 4 5 8 10 13 17
10 2 4 5 8 11
1 2 4 5 8 11 12
1 2 4 5 8 11 17
3 2 4 5 8 12
2 2 4 5 8 13
2 2 4 5 8 17
1 2 4 5 9 12
20 2 4 5 10
6 2 4 5 10 11
1 2 4 5 10 11 12
1 2 4 5 10 11 14
5 2 4 5 11
1 2 4 5 12
2 2 4 6
1 2 4 6 7 8
1 2 4 6 7 8 9 10
1 2 4 6 7 8 10 12
1 2 4 6 7 11
2 2 4 6 8
1 2 4 6 8 10 11
1 2 4 6 8 11
2 2 4 6 8 12
3 2 4 6 10
2 2 4 6 10 11
2 2 4 6 11
9 2 4 7
9 2 4 7 8
1 2 4 7 8 10
7 2 4 7 8 10 11
5 2 4 7 8 11
1 2 4 7 8 11 12
1 2 4 7 9
6 2 4 7 10
4 2 4 7 10 11
1 2 4 7 10 15
5 2 4 7 11
98 2 4 8
4 2 4 8 9
2 2 4 8 9 10
1 2 4 8 9 10 11
1 2 4 8 9 10 17
2 2 4 8 9 11
43 2 4 8 10
17 2 4 8 10 11
2 2 4 8 10 11 12
2 2 4 8 10 11 14
1 2 4 8 10 17
25 2 4 8 11
1 2 4 8 11 12
1 2 4 8 11 12 16
4 2 4 8 12
3 2 4 8 17
2 2 4 9 10
1 2 4 9 10 11
36 2 4 10
18 2 4 10 11
1 2 4 10 11 12
1 2 4 10 12
33 2 4 11
1 2 4 11 12
1 2 4 11 14
4 2 4 12
2 2 4 12 16
2 2 4 17
147 2 5
7 2 5 6
2 2 5 6 8
4 2 5 6 8 10
1 2 5 6 9 11
7 2 5 7
5 2 5 7 8
2 2 5 7 8 10
1 2 5 7 8 10 11
1 2 5 7 8 10 11 17
1 2 5 7 8 10 13
4 2 5 7 8 11
1 2 5 7 10
1 2 5 7 10 11
1 2 5 7 10 11 12
2 2 5 7 11
55 2 5 8
2 2 5 8 9
2 2 5 8 9 10 11
17 2 5 8 10
19 2 5 8 10 11
1 2 5 8 10 11 17
2 2 5 8 10 12
15 2 5 8 11
1 2 5 8 11 12
1 2 5 8 12
1 2 5 8 17
2 2 5 9
1 2 5 9 10
1 2 5 9 10 11
35 2 5 10
7 2 5 10 11
2 2 5 10 11 12
2 2 5 10 12
1 2 5 10 17
22 2 5 11
1 2 5 11 12
1 2 5 11 14
3 2 5 11 17
1 2 5 12
1 2 5 14
1 2 5 17
21 2 6
1 2 6 7
1 2 6 7 8 10
1 2 6 7 9
6 2 6 8
1 2 6 8 9
6 2 6 8 10
3 2 6 8 10 11
1 2 6 8 10 12
1 2 6 8 10 17
4 2 6 8 11
1 2 6 8 11 12
1 2 6 9
5 2 6 10
2 2 6 10 11
1 2 6 11
69 2 7
30 2 7 8
4 2 7 8 9
1 2 7 8 9 10 11
10 2 7 8 10
4 2 7 8 10 11
1 2 7 8 10 11 12
1 2 7 8 10 13
6 2 7 8 11
1 2 7 8 14
1 2 7 8 16
3 2 7 9
1 2 7 9 10
1 2 7 9 17
12 2 7 10
9 2 7 10 11
1 2 7 10 11 12
14 2 7 11
1 2 7 13
1 2 7 17
465 2 8
9 2 8 9
2 2 8 9 10
1 2 8 9 10 11
1 2 8 9 10 17
1 2 8 9 11
93 2 8 10
22 2 8 10 11
1 2 8 10 11 12
1 2 8 10 11 13
2 2 8 10 12
1 2 8 10 13
1 2 8 10 13 15
1 2 8 10 14
1 2 8 10 17
57 2 8 11
1 2 8 11 12
1 2 8 11 14
2 2 8 11 17
3 2 8 12
1 2 8 13
1 2 8 14
2 2 8 15
4 2 8 17
1 2 8 18 19
25 2 9
6 2 9 10
1 2 9 12 14
289 2 10
44 2 10 11
1 2 10 11 12
2 2 10 12
3 2 10 17
178 2 11
3 2 11 12
1 2 11 13
2 2 11 14
2 2 11 17
15 2 12
4 2 13
11 2 14
1 2 16
10 2 17
3 2 18
2 2 19
909 3
19 3 4
1 3 4 5 6 7 8
1 3 4 5 6 7 10
1 3 4 5 8
1 3 4 5 8 10
1 3 4 5 8 10 11
1 3 4 5 12
1 3 4 7 10 12
7 3 4 8
4 3 4 8 10
1 3 4 8 13
1 3 4 8 14
1 3 4 9
2 3 4 10
1 3 4 10 11
1 3 4 12
13 3 5
1 3 5 6 8 10 11 17
1 3 5 7
1 3 5 7 8 10 14
8 3 5 8
1 3 5 8 10 12
1 3 5 8 11
1 3 5 8 14
4 3 5 10
1 3 5 10 19
9 3 6
1 3 6 8
1 3 6 8 9 12
1 3 6 8 10
1 3 6 9 10 11
3 3 6 10
4 3 7
2 3 7 8
1 3 7 8 9
1 3 7 10
1 3 7 10 11
2 3 7 11
33 3 8
5 3 8 10
4 3 8 11
1 3 8 13
4 3 9
1 3 9 10
1 3 9 10 12
14 3 10
1 3 10 12
3 3 11
2 3 12
3 3 13
7 3 14
1 3 17
6 3 19
759 4
77 4 5
1 4 5 6 7 12
3 4 5 6 8
1 4 5 6 8 11
1 4 5 6 9
3 4 5 7
1 4 5 7 8
1 4 5 7 8 9
1 4 5 7 8 10
1 4 5 7 10
1 4 5 7 10 12
1 4 5 7 11
34 4 5 8
2 4 5 8 9 10
1 4 5 8 9 11
10 4 5 8 10
3 4 5 8 10 11
1 4 5 8 10 11 13
1 4 5 8 10 11 17
1 4 5 8 10 12
3 4 5 8 10 17
6 4 5 8 11
4 4 5 8 12
2 4 5 8 17
5 4 5 9
9 4 5 10
4 4 5 10 11
1 4 5 10 12
6 4 5 11
1 4 5 11 13
4 4 5 12
14 4 6
2 4 6 7
1 4 6 7 8
4 4 6 8
1 4 6 8 9 10
5 4 6 8 10
1 4 6 8 11
1 4 6 9
4 4 6 10
1 4 6 12
22 4 7
12 4 7 8
1 4 7 8 9 10
4 4 7 8 10
3 4 7 8 11
1 4 7 9
6 4 7 11
3 4 7 12
1 4 7 17
179 4 8
4 4 8 9
3 4 8 9 10
33 4 8 10
8 4 8 10 11
1 4 8 10 11 15
2 4 8 10 12
14 4 8 11
1 4 8 11 13
6 4 8 12
2 4 8 12 16
1 4 8 13
3 4 8 17
4 4 9
2 4 9 10
1 4 9 10 11 12
1 4 9 11 12
58 4 10
4 4 10 11
3 4 10 11 12
1 4 10 11 12 16
1 4 10 11 17
2 4 10 12
35 4 11
2 4 11 12
4 4 11 17
5 4 12
2 4 12 16
3 4 13
10 4 17
2539 5
8 5 6
2 5 6 7
2 5 6 7 8 9 10
1 5 6 7 8 11
5 5 6 8
1 5 6 8 11
19 5 7
8 5 7 8
5 5 7 8 10
2 5 7 8 10 11
6 5 7 10
1 5 7 10 11
3 5 7 11
2 5 7 12
277 5 8
4 5 8 9
21 5 8 10
2 5 8 10 11
1 5 8 10 11 15
1 5 8 10 12
5 5 8 11
1 5 8 12
1 5 8 12 16
1 5 8 17
7 5 9
1 5 9 10
1 5 9 10 11
1 5 9 17
47 5 10
13 5 10 11
1 5 10 17
28 5 11
1 5 11 17
5 5 12
1 5 14
2 5 15
1 5 16
9 5 17
170 6
6 6 7
3 6 7 8
1 6 7 10 17
1 6 7 11
26 6 8
1 6 8 9
1 6 8 9 11
2 6 8 10
1 6 8 10 17
4 6 8 11
7 6 9
1 6 9 10
9 6 10
6 6 11
1 6 13
1 6 17
365 7
45 7 8
4 7 8 9
6 7 8 10
1 7 8 10 15
4 7 8 11
1 7 8 12
1 7 8 17
6 7 9
1 7 9 10 11 15
25 7 10
2 7 10 11
15 7 11
1 7 11 12 16
1 7 11 17
6 7 12
1 7 13
4 7 17
4966 8
37 8 9
5 8 9 10
1 8 9 10 12
1 8 9 11
1 8 9 15
155 8 10
15 8 10 11
1 8 10 11 12
1 8 10 17
85 8 11
12 8 12
5 8 12 16
8 8 13
1 8 14
3 8 15
1 8 16
12 8 17
216 9
5 9 10
6 9 11
1 9 12
1 9 13
3 9 14
1 9 20
998 10
49 10 11
1 10 11 12
8 10 12
4 10 13
2 10 14
4 10 15
1 10 16
1 10 17
506 11
3 11 12
1 11 13
2 11 14
19 11 17
67 12
10 12 16
179 13
1 13 14 19
1 13 15 19
1 13 18 19
5 13 19
143 14
2 14 19
138 15
4 15 18
1 15 20
4 16
1 16 18
220 17
16 18
21 19
11 20
38270
p0:gng
p2:trng+hng
p0:tho+nguyn
p2:sm
p0:thi+biu
p2:phn
p0:da+hu
p2:hnh+trang
p2:b+
p2:sp
p0:phc+li
p1:hiu+s
p0:i+s
p0:dng+dp
p2:913
p0:dc+tho
p0:hu+cao+c
p2:cng+
p0:qun+o
p1:lng+chng
p2:nhn+ha
p0:tru
p0:trn
p0:ngoi+v
p0:du+con
p0:trm
p2:oan+hn
p0:s+lng
p0:ging+t
p0:lnh+hi
p2:rc
p1:b+mc
p2:a+o
p2:rng
p0:bn+thn
p0:i+l
p2:l+nhi+phu
p0:dim
p0:i+l
p0:h+s
p2:m+di
p2:t+cc
p2:hu+lng
p0:khch+sn
p1:chi+cht
p0:trng+lp
p0:t+t
p0:h+thng
p0:bom+mn
p0:on+th
p1:5.200
p2:nh+t
p2:n+bm
p0:ti+nhn
p2:tiu+tit
p0:trc+kia
p0:phch
p0:gim+th
p0:k+nim+chng
p0:dc+ngang
p1:b+lng
p1:trn
p0:bnh+tnh
p0:u+nu
p0:trn
p2:bosp
p0:khu+trang
p2:tiu+tin
p0:hp+th
p2:ni+kt
p1:m+mn
p0:ng+quyn
p0:hong+t
p0:mai+mt
p2:ph+ph
p2:boeing
p0:riu
p0:phi
p0:i+vng
p0:l+do
p1:phanh
p0:con+chu
p1:ghm
p1:dong
p0:vn+phng
p0:u+mi
p0:trc
p0:tri+ci+to
p0:lon+lc
p0:s+tay
p0:chc+v
p0:hi+din
p0:chnh+sch
p0:chng+con
p2:vcd
p0:bn+p
p0:con+em
p2:by+lin
p0:tng+hnh+dinh
p2:che+ph
p2:nung+nu
p0:cn+khn
p0:con+b
p2:khng+co
p2:8,3
p2:ban+gim+hiu
p0:ht+ging
p0:cuc+sng
p1:o+ngc
p0:i+i
p2:thy+c
p2:.../...
p0:ca+bin
p2:ng+t
p0:di+sn
p0:hng+ch
p0:qui+trnh
p1:phng+trnh
p0:tin+o
p0:bu+khng+kh
p0:h+s
p2:ht+h
p0:c+ngi
p0:cht+thi
p0:vic+lm
p1:hai+
p2:tua+ta
p1:gic
p2:vtv
p0:hong+gia
p0:kh+cht
p0:ngoi+l
p0:hm+qua
p0:ch+huy+trng
p0:mt+tri
p2:nguyn+vt+liu
p2:chng+nh
p0:t+trng
p1:bt+mng
p2:thc+p
p2:tin+nghi
p0:nc+my
p2:fregat
p1:i+khi
p0:ngh+nghip
p0:nc+mu
p2:lm+phin
p0:du+hiu
p0:c+x
p0:b+no
p0:chn+t
p0:cp+
p2:bt+hng
p1:cng+hng+khng
p0:xi+v
p2:chp+chp
p2:brazil
p2:phc+li
p2:ng
p0:ngoi+t
p0:ng+b
p2:cch+chc
p2:th+im
p0:ng+cha
p0:nhn+dng
p0:cy+thuc
p0:thiu+n
p0:thng+mi
p0:i+phng
p0:c+bc
p0:nhn+vt
p2:chp+chong
p1:huyn+l
p2:gi+lc
p2:games
p0:pan
p0:siu+ngi+mu
p2:+ngang
p2:hong+sn+hi
p2:a+danh
p0:ngi+mu
p2:kh+lc
p0:tn+ngng
p2:in+bin
p0:b+con
p0:tay+trng
p2:tp
p2:knh+cng
p2:bit+tch
p2:di+hn
p0:dn+chi
p0:gic+mc
p0:phn
p2:tn+m
p2:trng+ngc+hn
p0:t+duy
p1:t+b
p0:xim+o
p2:mn+mt
p2:hong+th+sen
p0:u+phng
p0:k+tch
p0:ngi+ln
p1:chiu+chung
p0:thn+n
p0:+chut
p2:yn+v
p2:bt+cht
p0:lng
p2:kim+n
p2:but
p2:drap
p2:mm+mi
p2:nhn+nhm
p0:my+in
p2:nguyn+vn+mng
p0:cng+trng
p0:du+gi
p0:b+danh
p2:nng
p0:hng+hn
p1:vinh+qui
p0:chn+dung
p1:cao+tro
p0:ht+bi
p0:tr+lc
p0:bng
p1:gy+ri
p0:ban+ngy
p1:lng+ngi
p0:dn+qu
p0:c+n
p0:ca+hng
p0:cung+vn+ho
p0:sch+v
p0:hm+sau
p2:tr+ct
p1:khonh
p0:ng+u
p0:mn+hnh
p0:nhn+s
p1:chim
p1:chin
p1:i+ng
p2:bn+bi
p0:nc+nh
p2:da+d
p2:ph
p2:gip+ranh
p1:ti+ng
p0:cng+nhn
p0:phn+chua
p2:mu
p0:ln
p1:cha+t
p0:chnh+ph
p2:tn+ngng
p0:th+on
p2:hng+ha
p0:khn+phng
p0:trang+thit+b
p1:hi+din
p0:t+
p0:tu+thuyn
p0:c+ng
p2:gian+c
p0:eo+bin
p0:ng+cong
p0:chng+ngi
p2:kt+np
p0:bn+hng
p2:dt
p0:v+n
p0:phn
p2:xo
p0:ba+gc
p2:truy
p0:phm
p2:ng+o
p1:phn+m
p2:khonh
p2:bng+qu
p2:cng+vin
p0:ma+chay
p2:tt
p0:l+thuyt
p1:s+m
p0:nn+mng
p1:hng
p2:ha+ngc+minh
p0:c
p0:thi+thng
p0:tup
p2:ha+mai
p0:phn
p2:nguyn+th+loan
p0:tm+cng
p2:nh+cp
p2:lim+khit
p1:chuyn+ha
p2:nguyn+l
p0:thi+th
p2:l+th+quyn
p0:mnh+gi
p0:quy+lut
p0:trng+hp
p0:in+thoi+di+ng
p2:b.h.
p0:giy+t
p0:sinh+thi
p2:nhng+ai
p0:hang
p0:nh+vn+ha
p2:a+th
p2:hi+l
p0:tay+chn
p2:hi+l
p0:yu+t
p0:hin+thc
p2:tong+tong
p0:ng+b
p0:mt+bay
p0:t
p2:c+nh
p0:p+n
p0:thu+tinh
p2:co+git
p2:l+mt
p2:51%
p2:bu+chn
p0:trai+tr
p0:ch+
p0:con+th
p2:ha+tng
p2:ng+
p0:hng+hoa
p0:l+on
p2:trang+thit+b
p0:cng+c
p2:502
p0:i
p0:hong+hn
p1:nam+phng
p0:trc+mt
p0:ng+dy
p0:tay+ua
p2:thi+c
p2:17-7-1970
p0:tiu+ng
p2:ng+lc
p2:b+nh
p0:thc+dn
p0:huyt+thng
p0:hng+ho
p2:eo+t
p1:xung+yu
p0:gia+ph
p1:khung+thnh
p0:sai+lm
p2:cn+sn
p0:thng
p2:tang+tc
p2:lun
p0:thuyn
p0:hnh
p2:nguyn+nh+phc
p0:ng+hng+khng
p2:thiu+v
p2:rng+ct
p1:lun+canh
p2:khng+kho
p1:lung
p0:cng+s
p0:qun+b
p0:cng+s
p2:10,59
p0:a+ch
p0:khiu
p1:nong
p0:ph+huynh
p2:ct+l
p0:a+ch
p2:ta+lc
p0:tinh+trng
p1:ti+sn+xut
p0:a
p1:nn+thc+nn+tho
p0:bnh+rn
p0:lut+chi
p0:t+ng
p0:con+tin
p1:mn+mt
p2:trung+lch
p2:457
p0:ha+s
p0:c+cu
p2:420
p2:t
p0:ngn+tr
p0:ch+tch
p2:trng+th
p0:b+c
p0:khonh
p2:nhem+nhuc
p0:cn+cnh
p2:v+vn+phng
p2:tl
p0:cht+lng
p1:duyn+hi
p0:li+ni
p2:vy
p2:r
p2:r
p2:va
p0:im
p0:tch
p2:thnh+vng
p2:vo
p0:ng+ci
p0:cng+t
p0:tu+thy
p2:mnh+lc
p0:sau+ny
p2:thng+thm
p2:b
p2:lu+vn+phng
p2:tri+git
p0:nghip+d
p0:ring
p2:tch+bit
p1:cng
p1:!/!(
p0:tm+linh
p1:chnh+lng
p0:tu+bay
p2:iv
p0:ch+
p0:hong+kim
p0:thc+n
p1:trn+vn+hng
p2:thi+vng
p0:li+
p2:cd
p1:ni+xu
p0:c+bp
p2:bt
p0:mn+sinh
p0:gia+ti
p0:lng
p0:ngh+lc
p1:c+li
p0:t+gia
p0:nhc+s
p0:dn+thng
p2:f.
p0:dn+cng
p0:kinh+ph
p0:c+th
p2:ru+ng
p1:trng+trng
p0:danh+ngha
p0:vng+bin
p0:thng+dch
p0:giy+pht
p0:m
p0:mng
p0:t
p0:gia+sc
p0:liu+php
p0:tnh
p0:8x
p0:thng+l
p0:7x
p0:nng+sn
p2:n+nn+lm+ra
p0:n
p0:ci+lng
p0:con+ngi
p0:vng+min
p2:tri+n
p2:750
p2:751
p0:con+nui
p2:phn+vn
p0:thn+dn
p0:tra
p2:kondo+jaiji+co
p1:15.500
p0:bn+
p1:tri+ci+to
p0:v+tr
p2:tri
p0:dn+lng
p2:c+phiu
p0:my+bay
p0:l+tng
p0:bin+thi
p2:trn+quang+khi
p2:tro
p2:y+ht
p0:thuc+l
p0:n+pin
p0:o+c
p0:chun+mc
p1:bn+cnh
p0:gch+bng
p0:nhn+lc
p2:nguyn+hu+qu
p0:t+li
p2:ngn+cn
p1:sng
p2:n+ni
p0:cng+ngh
p0:u+gi
p2:bn+b
p1:gy+t
p0:gip+ht
p0:]/]nh
p0:n+pha
p0:o+thng
p0:nh+kin
p2:pht+xut
p0:thng+khch
p1:rng+ni
p0:n+ph
p1:cuc+gi
p2:chi+vi
p0:th+in
p0:ng+knh
p0:thuc+bc
p0:th+gii
p0:b+mt
p1:t+sch
p2:m+c
p0:xe+gn+my
p1:hng+hng+lp+lp
p2:liu+riu
p1:lnh+mt
p2:th+t
p0:tiu+on+trng
p2:bt+ch
p0:b+bi
p1:lung
p0:ph+khoa
p0:n
p0:cuc+chi
p0:u+h
p2:chi+cc
p2:tin+nhn
p2:1a
p0:m
p0:i
p1:tc+phm
p2:ng
p0:bu+nh
p0:hun+luyn+vin
p0:thuc
p0:chng+loi
p2:635
p2:lm+thm
p2:68
p1:oan+gia
p2:65%
p2:c+thu
p2:xu
p2:71
p1:nhch+nhc
p2:cha+in+pyo
p2:size
p0:chn+song
p0:cn+c+qun+s
p0:ngha+a
p0:phen
p0:trng+ti
p2:th
p2:bae+tu+na
p2:cung+lon
p0:i
p1:eo+ng
p0:bm
p0:phim
p0:ngi+ngi
p2:vn+nn
p2:xa
p2:ng+ng
p2:xa
p2:aceton
p0:danh+sch
p2:cu+kinh
p0:dng+v
p0:k+quan
p2:khi+nghip
p2:lu+lu
p0:ni+gin
p2:bnh+chu
p0:lng+tm
p1:b+bi
p0:ph+gia
p0:nhu+cu
p0:ng+t
p0:b+ngoi
p1:gh+bng
p2:ngn+ci
p1:tha+ma
p1:dy+d
p0:thn+kinh
p0:thuyn+trng
p0:chun+chun
p0:tay+phi
p0:gi+pht
p0:ng+c
p0:phn+tc+dng
p0:t
p2:m+thut
p2:iu+chuyn
p0:i+y
p0:+r
p0:vn+hc
p0:rng+ct
p2:m+thun
p0:+t
p0:m+ngy
p0:qu+cha+t+m
p2:lc+sot
p0:xng
p2:ri+rt
p2:sng+to
p0:hi+ngh
p1:bng
p2:chiu+i
p0:con+c
p1:ngp
p0:r+ti
p0:tri+t
p0:ngh+quyt
p0:nhin+liu
p0:tr+con
p0:i+tc
p0:c+quan+chuyn+mn
p0:cn+
p0:cp+lng
p0:m+tai+bo
p0:mt+mch
p0:thng+bnh+binh
p0:dn+ch
p1:kh+cht
p0:h+thu
p2:ng+vn
p0:vng+nguyt+qu
p2:hn+lo
p2:tm+c
p0:con+ci
p2:may+ra
p0:tiu+thuyt
p0:thng+tt
p2:tm+lng
p0:nh+bp
p2:vng+danh
p0:nghip+on
p1:va
p0:tiu+chun
p0:gi+lng
p0:i+la
p1:lp+l
p0:dng
p0:tung+tch
p1:hoang+o
p2:ch+bt
p0:gh+bng
p2:ngt+xu
p1:ngc
p0:trc+ht
p1:ngi
p2:iu
p1:tin+bi
p2:st+cnh
p1:m+ma
p0:tr+a
p0:i+
p2:tr+ln
p2:nghn+nghn
p0:nguyn+nhn
p1:tin+snh
p2:tn+dng
p0:tht+lng
p1:15.759
p2:+chi
p1:d+th
p1:quyn
p0:ngh+thut
p2:fifa
p2:dng+th+thanh+hng
p0:tn+hiu
p1:lp+bp
p0:trin+vng
p0:nhp
p2:tn+h
p0:hnh+th
p2:lc+lc
p2:hn
p0:thuyn+nan
p0:ch+chiu
p2:cbcnv
p0:cnh+qut
p0:vit+d
p0:bo+tp
p2:vn+nh+quang
p2:king
p0:kim+sa
p0:kch+ngh
p0:hc+v
p1:xn
p2:lc+l
p1:nhc
p1:xc
p0:ch+ni
p0:sng+to+gi+ln
p2:ch+trng
p0:gi+c
p0:nhn
p2:nguyn+th+tiu
p0:hu+cn
p0:ca+ming
p1:ln+vn
p0:trng
p2:trm+chn
p0:u+gu
p0:tin+ca
p2:ng+bu
p0:mi+v
p2:khai+hoang
p0:em+trai
p1:ri+r
p2:mt+ch
p2:mm+ci
p0:ngi+ngoi
p0:con+s
p1:gim+th
p2:chng
p0:ca+ng
p0:xm+ging
p0:ca+nh
p0:thuc+ng
p0:sng+ngi
p0:t+st
p2:tng+trng
p0:nh+gio
p2:nh+trt
p0:mt+hng
p1:cun
p0:tnh+cch
p0:c+chiu
p2:n+s
p0:x+bng
p0:hoa+khi
p0:m+chi
p2:+dn
p0:ch+ba
p0:mi+hin
p0:cng+ty+con
p1:cnh
p2:phng+thnh
p0:nhc
p0:t+sn
p2:ct+nhc
p0:nhm
p2:khuy
p0:thc+lc
p0:vinh+quanh
p0:ta+
p2:qu+cnh
p2:ng+bin
p2:lm+lem
p2:hy
p0:nc+thi
p0:khun+mt
p0:hu+sinh
p0:cht+c
p0:hiu+trng
p0:hc+k
p1:ph+phng
p1:st
p0:h+mang
p0:phn+hiu
p0:tc+hi
p2:nm+bt
p2:tut
p2:tup
p0:trng+bn
p0:tng+cc
p0:sc+ko
p1:ta
p2:lc+xoong
p1:trin
p2:tranh+ci
p2:ngp+chm
p0:sa+u+nnh
p2:+b
p0:bn+c
p0:lng+mc
p1:ch+phm
p0:cu+chuyn
p2:xe+lam
p0:cao+tro
p0:thn+ch
p0:kt+cc
p0:tin+bc
p0:+chi
p0:nhn+khu
p0:tng
p0:tri+bin
p0:va+h
p0:ngh
p1:gar
p1:sp
p1:nhm
p1:ta
p0:thu
p0:tnh+t
p0:nin+hc
p0:i+dng
p0:thu
p0:bn+nng
p0:tng+lai
p0:in+li
p0:ng+hng
p0:phn+on
p0:qu+kh
p0:cung+hng
p2:cu+mong
p0:vn+m
p2:cu+tit
p0:nh+ca
p2:chn+sui
p1:im+kwon+tae
p1:m
p0:in+nh
p0:mn+nh
p0:con+trai
p0:vn+ngh
p1:vt
p2:joo+wan+soo
p2:p
p2:30,9
p0:lng+thnh
p0:tay+chi
p2:xung+ba+l
p2:tiger+cup
p0:trng+trch
p0:ng+hong
p0:nguyn+vng
p0:nhim+v
p0:nc+mi
p2:xm+xt
p2:xung+yu
p0:bo+hnh
p0:ng+cp
p0:phcmn
p2:thng+l
p2:mn+hc
p0:chiu+qua
p0:ng+b
p2:salon
p0:lng
p0:thi+im
p0:du+vt
p2:ph+l
p0:tr+em
p0:hiu
p0:thy+thuc
p2:v+x
p0:bang
p0:qun+th
p0:banh
p0:sc+kho
p0:thic
p2:hu
p2:nguyn+hu+ch
p0:hi+ng+qun+tr
p2:ngm+ng+nut+cay
p2:hoang+d
p0:ci+cht+trng
p0:phi
p0:bng
p0:tu+h+mm
p2:phng+tn
p0:ng+bng
p0:th+trng
p2:hoang+o
p0:pho
p0:bin
p0:my+pht+in
p0:pphch
p0:phn
p1:ta
p2:hi+trng
p0:x+hi+hc
p0:gc+xp
p0:xe+m
p0:nc+rt
p0:xon
p2:khim+nh
p1:ton+th
p0:ng+bng
p1:gi+t
p0:mn+hc
p0:phn
p1:o+hn
p0:tng
p2:lc+nhc
p0:php
p1:giam+cm
p0:ma+bo
p0:trit+hc
p2:bao+vy
p2:nh+ring
p1:nha
p0:vng
p0:nin+hn
p0:pha
p0:phm
p0:trn
p0:rng+ni
p0:nng
p0:bngca
p2:t+trn
p0:s+st
p2:t+sc
p0:thuc+phin
p2:hu
p0:nc+tiu
p0:tnh+thng
p0:cng+nng
p2:c+gii
p0:ru
p1:con+thoi
p0:i+truyn+hnh
p0:o+din
p2:phong+m
p0:tin+bi
p2:hng+h
p1:khai+ging
p0:sc+lao+ng
p2:ch+
p0:bt+tch
p0:ng+c+vin
p1:nhp
p0:chin+thut
p1:vo
p0:thuc+ty
p0:t+hp
p2:m+m
p0:thng+tin
p2:sng+tc
p0:pho+sng
p1:thng+tht
p1:nhn+ti
p2:sng+ngi
p2:dn
p0:du+hc+sinh
p0:sinh+ng
p2:1.320
p2:rng+rng
p0:n+in
p0:hm+i
p2:sng+sng
p0:c+mng
p0:thi+bnh
p2:khung+thnh
p2:tranh+lun
p2:ba
p0:b+cp
p0:hnh+lang+php+l
p2:mnavi
p0:giy+nhm
p2:ni+non
p2:tuyn+pht
p2:k+bin
p1:vt+nui
p0:ci+tay
p0:i+th
p0:gii+php
p0:nng+trng
p0:vng+su
p0:tnh+i
p0:ch+x
p2:cm+c
p0:mt+t
p0:tm+mt
p0:thi+s
p2:ra+rng
p0:dy+in
p1:ng+chc
p2:tiu+ngch
p0:+thnh
p0:hen+suyn
p0:khi+ngun
p2:ngi+b+gi
p0:th+qun
p2:phan+dng+cm
p0:nc+sch
p1:rn
p0:kiu+dng
p0:nhc+c
p2:m+mn
p0:v+chng
p1:rm
p0:vi+trng
p0:trai
p1:ngot+ngoo
p2:truyn+hnh+cp
p0:thi+k
p0:ni+lng
p0:tnh+tit
p0:ch+n
p0:bch+n
p0:qun+i
p0:qun+phc
p2:ni+trn+li+nh
p2:ht+hng
p2:mnh+dn
p0:ch+s
p0:trng+hc
p0:gi+nhy
p0:b+x
p0:trng+nguyn
p0:tng+trng
p2:cng+qunh
p0:li
p2:quc+ni
p0:lch
p0:v+sn
p2:di
p2:nghch+ngm
p0:bng+dng
p1:0,7%
p1:rn
p1:thng+s
p0:bao+b
p2:trn+tro
p0:cch+thc
p0:mnh+li
p0:gi+thnh
p0:k+xo
p0:thc+cht
p0:li
p1:xng+xnh
p2:bc+sn
p0:nh+mnh
p2:chy+bn
p2:tu+tt
p2:chy+ti+chy+lui
p2:n+roi
p0:th+thao
p1:i+s+qun
p1:r-ve
p0:c+th
p2:giam+lng
p2:g+ng
p0:ngi+thn
p0:c+chiu
p0:thi+v
p0:t
p0:thy+c
p0:cm+cho
p1:ri
p0:xng+chu
p2:cy+l
p1:nm+np
p1:tu
p2:+
p2:trm+ngn
p0:t+tin
p0:s+kin
p1:ngi+hng
p0:giy+dp
p0:du+tch
p2:h+xun+ha
p0:ym
p0:phi+trng
p2:dn+thng
p1:s+d
p1:nhoi
p2:ti+luyn
p2:do+vy
p1:sn
p2:r+tin
p0:ph+cp
p0:o+l
p2:s+bo+danh
p0:ng+ng
p1:xin+x
p0:qui+ch
p2:i+thoi
p2:nguyn+thanh+c
p0:mi+nhn
p0:con+gi
p0:i+tng
p2:kh+kh
p0:bo+lc
p0:bn+o
p2:tip+t
p1:nng+khiu
p2:dc+s
p0:tiu+on
p0:ni+non
p0:xc
p2:cp+c
p2:lng
p0:phng+trnh
p1:eo+t
p1:en+nhm
p0:ruc
p0:b+ry
p2:chn+vt
p1:qun+c
p2:lc+son
p0:va
p0:tng
p0:ng+thy
p2:bp
p0:logic
p0:rui
p0:trng+phi
p2:h+xun+c
p2:y+thc
p0:v+th
p2:cp+nht
p0:ng+vin
p2:thi+th
p2:qui+tc
p2:gim+th
p0:vt
p0:cu+lng
p0:tm+trng
p0:ng+c
p0:cao+im
p0:bin+php
p0:cu+chin+binh
p0:xng
p0:ng+y
p2:ch+k
p0:lnh
p2:4-9-1971
p0:ch
p0:chut+nht
p2:tha+ch+tang+bng
p2:a+ha+nam
p0:mng
p2:7-2000
p2:indonesia+agusman
p0:tnh+trng
p0:thuc+thang
p0:anh+trai
p0:tp+on
p2:mai+xun+hng
p1:bt+k
p0:hoang+o
p2:o
p0:rc+ri
p2:mt+m
p0:nh+thu
p0:oan+gia
p0:kch+bn+phim
p0:di+vt
p2:ru+mi
p0:bch+tuc
p2:quch+xun+k
p2:nc+lnh
p0:di+ng
p0:c+tch
p2:bi+vin
p0:thm+ha
p0:qui+cch
p0:ch+ng
p1:dzui
p2:i+cc
p2:i+mt
p0:gi+lc
p2:ong
p0:bng+quang
p2:n+m
p0:qun+ng
p1::/:tn+dit
p1:ci/
p0:cng+n+vic+lm
p2::/:tn+dit
p2:cy
p2:bnh+t
p1:trc+sau
p1:trng
p2:nguyn+th+bch
p0:m+tang
p1:hon+thin
p2:tri+ni
p0:vt
p0:bng+gn
p1:ging
p0:tm+b
p2:cm
p0:nh
p0:chc+sc
p1:vn+v
p0:ngy+sinh
p0:vng
p1:hy+hoi
p2:ngy+sinh
p2:bc+i
p2:vn+gi
p1:rn
p1:nheo
p2:tin+tiu
p2:tht+thu
p0:vt+l+tr+liu
p2:nh+git
p2:vi+vi
p2:vi+tnh
p0:hng+ng
p0:mt+ong
p0:tng+t
p0:tp+on+trng
p1:nghn+nghn
p2:quc+thiu
p0:nh/v+c
p2:cn
p0:dng
p1:kn+chn
p0:chi+ph
p0:xe+b
p0:danh+xng
p2:bt
p0:nhn+cch
p0:vt
p0:a+bn
p0:ranh+gii
p2:an+phc+lc
p0:trong+ngoi
p0:d+n
p1:sn
p2:sng+sa
p0:ch+nhn
p0:vng+tay
p2:giao+lin
p1:quc+thiu
p0:bng+ti
p2:cm+tit
p0:sch+bo
p0:vn+s
p1:min+sao
p2:nhn+s
p2:b+xc
p0:gng
p1:xen+ln
p2:thu+o
p2:hong+v+tn
p0:tr+c
p0:d+tt
p2:thi+nguyn
p1:lc+s
p0:t+hnh
p0:nc+ni
p0:cng+cc
p0:vi+tnh
p0:chu+ch+tn
p2:tng+tn
p0:inh+ghim
p0:vt+nui
p0:quy+tc
p1:bar/nb,
p0:cn+st
p1:6.200
p0:c+gio
p1:6.208
p0:rung+ng
p2:xun+ho
p0:vn+nn
p1:bt+nn
p1:mainichi
p2:lee+byung+hun
p2:c+li
p0:php+nhn
p0:truyn+thng
p0:th+thuyn
p1:6.229
p1:t+thc
p0:tnh+l
p1:l+vn+thnh
p0:sc+vc
p0:nhn+chng
p0:tnh+l
p1:ct+giu
p0:tnh+nhn
p1:thi+hnh
p0:b+con
p0:cng+ng
p0:cng+nhn+vin
p0:c+cm
p0:ta+son
p1:ngh+quyt
p0:o+quc
p0:ngi+hng
p2:khng+tc
p2:hc+hm
p0:quan+li
p0:anh+ch
p2:long+chong
p2:song+song
p1:by+trm
p0:tia+cc+tm
p0:nh+ngha
p0:bin+chng
p1:mt+mng
p0:tay+o
p0:ngn+ci
p1:74.000
p0:hc+tr
p2:trm+tnh
p2:nguyn+vn+chiu
p1:ay
p0:cu+lc+b
p0:thnh+ph
p2:ng+
p0:i+dch
p2:gin+on
p1:giun+t
p0:xe+hng
p0:nam+nhi
p0:thnh+nhn
p0:khu+phn
p1:m
p0:lt+bo
p0:uc
p0:hm+th
p2:o+ma
p2:s+cu
p0:th+tinh+nhn+to
p0:chnh+tr+vin
p0:bt+hng
p0:thp+nin
p1:nami
p2:0,04
p1:thu+xp
p0:my+may
p0:nh+cao
p2:trn+gi
p0:kh+lc
p0:cy+trng
p0:ch
p0:hng+u
p2:nm+hng
p0:gia+ch
p0:s+nghip
p1:i+vin
p1:m
p2:l+bu+trn
p2:nguyn+quc+thi
p0:gia+nh
p0:vt+thng
p0:+th
p0:sn+qun
p0:tha+phng
p0:th+d
p2:g+bao
p0:x+lan
p2:ng+ni
p1:cay+s
p2:su+nng
p1:h+ho
p0:th+trn
p0:cng+chnh
p0:phng+n
p0:tui+tc
p2:on+vn+an
p2:vinh+hnh
p0:thin+ng
p0:nhn+cng
p0:hi+qun
p0:huyn+thoi
p0:mi+trng+sinh+thi
p0:giy+bo
p2:th+than
p0:rng+gi
p0:nh+lu
p0:giun+t
p0:hnh+thc
p0:my+bm
p1:m
p2:nguyn+th
p0:+th
p0:ph+phng
p2:t+nhp
p0:chng+bn
p1:uc
p2:tn+thnh+ty
p0:rm+rc
p0:s+phn
p2:t+duy
p0:qun+chng
p0:ban+ny
p0:tay+ngh
p2:dm+ng
p0:tinh+m
p0::/:tng
p0:lu+nay
p2:cng+cp
p2:khua
p1::/:tng
p1:mn+nh
p0:cm+gic
p0:+tng
p1:vinh+quanh
p0:giao+duyn
p0:bn+tay
p0:nh+trng
p0:nc+lnh
p0:my+ht
p0:phng+khm
p2:l+ph
p2:sc+lnh
p0:rau+mu
p0:ch+ti
p0:tri+t
p0:my+vi+tnh
p0:qun+c
p0:mu+m
p1:thin+l
p1:cng+quc
p2:ho+nhong
p0:ng+qun
p0:hi+k
p0:cha+ng
p2:trnh+bo
p0:xung+in
p2:ahn+me+youn
p2:phm+minh+tc
p2:nhang
p0:h+tng
p0:thi+chin
p1:du+kch
p0:sng+gi
p0:thun
p0:+nh
p0:ti+khon
p0:phng+ng
p0:tu+in+ngm
p1:th
p1:th
p1:a+m
p0:th+
p0:u+xanh
p1:m+chn
p0:thin+thn
p0:thnh+ng
p0:gii+tnh
p0:nh+ring
p0:du+khch
p0:phng
p0:bung
p2:p+buc
p2:trn+vn+c
p0:mn+ngon+vt+l
p2:international+herald+tribune
p0:ln+tinh
p0:gii+hn
p0:chim
p0:mnh+my
p1:xu
p2:hi+hp
p0:con+gip
p0:trm+x
p2:thng+dch
p0:ni+tht
p1:dng
p2:cn+i
p0:bp+chn
p2:tabert
p1:xc
p2:hi+ha
p0:ni+ng
p2:trn+kim+long
p0:con+nc
p0:quyn+anh
p0:gii+phng+qun
p0:--------------
p2:k+nim+chng
p2:ct+chnh
p2:dng+tnh
p2:nguyn+vn+hi
p0:a+l
p0:sng+nc
p2:diesel
p2:t+bn
p0:truyn
p2:vang+di
p0:ban+gim+hiu
p2:xe+tay
p0:kh+qua
p2:nhp+
p1:thua+thit
p0:ci+cch+rung+t
p0:quy+hoch+vng
p0:nng
p0:cao+su
p2:sihanouk
p0:m+cha
p2:xim+o
p0:ging
p0:nn+nhn
p2:m+man
p0:by+lu+nay
p0:a+bay
p0:anh+ho
p2:trc+din
p2:mai+duy+dng
p0:binh+nh
p0:li+ch
p2:thoang+thong
p0:bu+t
p2:thng+bi
p0:thi+tit
p2:thnh+thch
p1:th+st
p0:huyn
p0:huyt
p1:xn
p0:tng
p1:lm+lem
p0:hi+qun
p0:xng+mu
p0:lt+i
p0:nm+ngoi
p0:lin+on
p0:hoa+hng
p2:lm+tht
p0:th+mc
p2:bo+hnh
p0:b+mt
p0:ha+mai
p0:xc+cht
p2:hi+lp
p0:ng+s
p1:lng+lng
p0:cng+vic
p0:tinh+thn
p0:giai+thoi
p1:sinh+ng
p0:gi+gi
p0:truyn+tranh
p2:rnh+r
p2:v+gia+c
p2:nhn+nha
p2:chiu+chung
p0:trng+dng
p2:th+d
p0:then
p2:tht+li
p2:dn+d
p0:sinh+hc
p2:nho+nhot
p0:dng+h
p1:i+lt
p0:v+b
p0:th+mt
p1:vim
p0:b+lo
p2:ngai
p0:m+con
p0:thau
p0:ng+ph
p2:bi+thanh+bn
p1:karn
p0:tn+tui
p0:ti+phm
p1:sn+vt
p2:da+hu
p0:gic
p1:qu+qu
p0:i+ni
p0:b+gi
p2:nam+vit
p1:tuyn+gio
p0:+c
p0:thc+n
p0:ma+ty
p2:chi
p2:ngun+ngt
p2:tai+mt
p2:chung
p0:ng+tu
p0:phong+b
p0:ngng
p0:sn+nh
p0:t+tm
p0:tnh+hnh
p0:ng
p1:tht+nt
p0:----------
p0:cy+c
p1:iu+khin
p0:v+thut
p1:tng+kt
p0:t+nc
p2:ph+by
p0:th+phm
p2:ng+n
p1:tng+nha
p0:phanh
p1:nui+trng
p0:bt+ch
p0:trai+gi
p0:hu+v
p0:ni+tit+t
p0:phong+cch
p0:c+duyn
p0:kiu+n
p0:gic
p2:nng+ct
p0:------------
p0:giy
p2:xc+ty
p0:nha
p2:song+kim
p0:xe+tng
p2:trn+ch+thun
p0:k+ton
p0:na+chng
p0:l+hng
p2:im+nng
p0:v+o
p2:mn+nh
p0:khuynh+hng
p0:c+vng
p0:th+may
p1:
p0:gim
p0:rm+r
p0:chuyn
p0:lnh+th
p1:trung+tun
p0:ru+mnh
p0:my+mc
p0:thi+c
p0:dn+ca
p0:qun+hi
p0:rng
p2:x+beng
p0:vng+trn
p0:khn+gi
p2:m+u
p0:hu+k
p2:chm
p1:k+ho
p1:sn+sc
p0:ha+cht
p0:qu+ph
p0:trung+phong
p2:phan+trong+on
p2:xanh+ngt
p2:d+dm
p0:danh+hiu
p0:tha+hng
p0:ngy+thng
p0:ma+gi
p2:trn+ngc+sinh
p0:th+h
p0:mng
p0:bn+gh
p2:thanh+l
p1:thu
p2:g+cng+ng
p2:nam+nh
p0:dn+c
p1:sau/a,
p1:thc
p0:ch+lc
p0:th+k
p1:phong+cnh
p0:ng+phng
p1:tr+th
p0:gai+c
p0:quanh+nm
p1:vtv3
p0:thng+nhn
p0:ro+cn
p0:niu
p1:tng+tn+cng
p0:thot+u
p2:ch+cht
p1:thun
p0:ha+m
p1:thiu+g
p2:chy+n+chy+o
p0:trung+on
p2:nguyn+vn+gi
p2:hai+
p0:c+nguyn
p2:bng+ln
p0:+mun
p0:y+hc
p1:lip
p0:thi+khc
p1:tiu+i+trng
p0:c+tnh
p1:ranh
p0:tc+xanh
p0:quc+l
p0:vn+t
p0:tng+cuc
p0:ngc
p1:lp+t
p0:nga
p0:ngi+dng
p2:lng+hnh
p2:danh+b
p1:bu+chn
p0:tng
p0:a+th
p0:chin+cng
p0:c+lao
p1:qui+phm
p0:mng
p1:c+s
p2:rnh+rt
p0:nht
p1:cst
p0:hu+trng
p0:tuyn
p2:chan+cha
p0:tuyt
p0:th+thnh
p0:rut+gan
p2:trn+vng+sao
p0:t+dn+ph
p0:tr+ngi
p0:h+chiu
p1:nhch
p2:lp+trnh
p0:tui+th
p2:m+nhn
p2:3.145
p0:thc
p0:ma+st
p0:siu+sao
p2:kin+gan
p0:thn
p2:b+can
p0:bum
p2:dch+bnh
p1:ph+n+trng
p0:thuc+tr+su
p2:m+dng
p0:bui
p0:thn+nhn
p0:vn
p0:k+cp
p0:giy+php
p0:v+s
p2:snh+vai
p0:gi+bi
p0:c+li
p2:tiu+ha
p0:ngh+danh
p0:x+lim
p0:ngoi+giao
p0:nh+thi+u
p0:cn+v
p2:falkland
p0:k+th
p2:long+thnh+a
p0:hong+thi+t
p0:xe+th
p1:trung+du
p0:b+th
p0:tm+hn
p0:phn+na
p2:kit
p2:din+kin
p2:mi+lng
p2:c+s+h+tng
p0:sng+mi
p2:duyn+n
p1::/:
p2:truyn+thng
p2:nguyn+vn
p1:ch+gi
p2:tang+ma
p1:bc+k
p0:l+xo
p0:v+s
p0:tnh+mng
p2:lng+lng
p1:bo+v
p1:truy+tng
p1:phi+on
p0:thi+cuc
p0:chin+tuyn
p1:che+giu
p2:khuynh+hng
p0:mt
p0:lim
p0:k+n
p1:cm+mn
p2:u+tr
p0:---------------
p0:ng+thi
p0:/ci
p2:21,6
p1:pphch
p2:l+vn+t
p2:xng+mu
p2:thch+sum
p2:thm+lu
p0:hiu+lc
p0:chn+tay
p2:lc+tc
p0:hin
p0:v+i
p0:dn+ngho
p0:chng+nhn
p0:kim+ngch
p2:su+lng
p2:thun+sn
p2:phn+on
p0:thang
p2:chuyn+mnh
p2:m+thng
p0:ch+s
p0:m+gi
p2:hng+thng
p0:+ti
p0:bn+my
p0:p+sut
p2:rau+sch
p0:phn+bn
p2:mt+bay
p2:cp+git
p2:trnh+chiu
p0:thp
p2:di+truyn
p1:kim+ton
p0:th+vui
p0:thn+tng
p0:ni+a
p0:thng+tch
p0:qun
p1:tng
p2:i+n
p0:by+n
p0:cung
p0:xch+l
p0:xng+du
p0:manh+mi
p2:vit+tay
p0:hoa+li
p0:thy
p0:lo+nng
p0:mn+tri+chiu+t
p0:bn+kt
p0:cha+kha
p2:ng+
p0:quc+phng
p0:thc
p1:rung+ng
p0:u+sch
p0:knh
p0:bu+phm
p0:tang+ma
p0:ch+bt
p0:t+m
p0:s+sch
p0:hnh+bng
p2:abul+rahman+ahmad
p0:thc+l
p2:pht+n
p2:ti+tri
p0:tnh+th
p2:qu+bu
p2:th+ba
p1:mun+nghn
p0:phng+ban
p2:quy+hoch+vng
p0:tp+th
p0:ton+cu
p0:phiu
p0:o+gic
p2:ngi+qun+l
p0:lch+trnh
p0:c+dn
p2:lee+suh+jin
p2:mazda
p0:ch+tnh
p0:sn+c
p1:lnh
p0:sng+thn
p2:lt
p0:mt+ng
p0:m+hi
p0:thc+khch
p0:phong+thy
p0:sn+lng
p0:ch+gi
p0:m+ci
p0:cm+quan
p1:lt+bo
p0:ngoi+thnh
p1:gii+cu
p2:vn+dng
p0:ma+tu
p2:phng+phu
p2:inch
p0:+ngang
p0:cung+phong
p2:nhu
p0:thng+s
p0:tri+cy
p2:hu+khp
p2:nho
p0:ngm
p0:ngn
p0:guc
p0:ming+n
p2:xun+lin
p0:i+gia+nh
p2:va+
p0:nh+thit+k
p0:t+sch
p0:gi+g
p0:thng+l
p2:sng+thn
p2:u+
p0:s+liu
p2:tiu+xi
p1:lng
p0:l+lt
p2:ngm
p2:ngt
p2:truyn+k
p2:hn+hn
p0:bn+th
p0:rng+phng+h
p2:tn+ngn
p0:phong+tc
p0:doanh+nhn
p0:tr+th
p0:nch
p2:mt+ht
p1:ng+bng
p0:ni+chnh
p0:thuc+sng
p0:c+thu
p2:thc+ra
p0:rnh
p2:crayen
p2:t+du
p1:lepto
p0:lun+vn
p2:nh+im
p0:qun+dng
p0:chng+ch
p0:ch+tri
p1:my+tnh+xch+tay
p0:hon+cnh
p0:ng
p0:thn+ch
p2:phn+hiu
p1:gii+hn
p0:tnh+yu
p1:rng+rng
p2:inox
p1:12.916
p0:khch
p0:trung+ng
p1:gng
p2:mp+mp
p0:i+ca
p1:mun
p0:php+lut
p0:quan+im
p0:hin+ti
p0:nh+tm
p0:yn+bnh
p0:t+ng+hc
p2:u+ym
p2:h+mang
p0:tt+m+lch
p0:bng+i
p2:i+bc
p0:ng+bo
p0:bn+cnh
p0:i+tng
p1:chi+cc+trng
p0:s+trng
p1:ch+s
p2:son+tho
p0:duyn
p0:tiu+i
p2:mt+trc+mt+sau
p0:chung+c
p0:a-z
p0:nng
p0:h+tiu
p0:iu+ha+nhit+
p0:siu+th
p0:hm+kia
p0:tr+ct
p0:khun+kh
p0:+g
p2:khim+khuyt
p0:h+o
p1:lin+hip
p0:i+t
p0:ha+n
p0:i+l
p0:bng+s
p0:lan+can
p0:ton+th
p0:lng+x
p0:vng
p0::/:li
p0:s+sut
p1:i+hu
p0:th+phn
p2:tt+th
p1:tt+ngm
p0:xng
p0:cy+ci
p0:i+gia
p0:chng+ngi+vt
p0:phn+trm
p1:tm+ng
p0:nc+ngoi
p0:php+nh
p2:thnh+phn
p0:x+nghip
p0:tnh+cnh
p0:b+can
p1:tom+cruise
p2:cng+c
p0:vng+loi
p0:hong+hu
p0:thin+h
p2:b+t
p0:hng+v
p0:k+s
p2:ng+vn+dn
p0:nhp
p0:bn+thng+vng
p0:i+lc
p0:mu+xng
p0:vng+son
p0:ngy
p0:thng+
p0:x+ngang
p2:bi+t+long
p1:ngn+ngnh
p0:mc+ch
p2:tt+ngm
p2:140.000
p2:lm+mai+hu
p0:tnh+hung
p0:khi+nim
p0:lut+s
p2:be+bt
p0:tng+thng
p0:nng+dn
p2:chiu+bng
p2:nh+tn
p0:chiu+bi
p0:khi+lng
p0:bn+bi
p1:hiu+trng
p1:g
p2:bt+tch
p1:d
p1:d
p0:ngun+cn
p0:dao+lam
p1:nghe+ni
p2:dzui
p1:9.000
p1:c
p0:khu+y
p0:va+la
p2:t+phan
p0:huynh
p0:ln+sng
p0:thng+bng
p0:kin+la
p2:nga+mn
p2:h+o
p0:th+cht
p2:denxavn
p0:c+ng
p0:cm+bi
p1:r
p0:qun+x
p1:r
p0:thi+gian
p0:bn+v
p0:vt+l
p2:lc+ninh
p0:lng+l
p2:th+xc
p0:cht+xu
p0:mu+gio
p2:u+h
p1:l
p0:ting+ng
p0:bo+t
p0:ch+ni
p0:mnh+h
p0:thin+s
p0:bn+x
p2:hu+dng
p1:m
p1:x
p0:bo+ch
p0:tr+nh
p2:u+xu
p0:gnh+ht
p2:cu+gip
p2:h+tiu
p2:n+
p2:ngoi+giao
p1:s
p1:t
p0:chn+st
p1:ng+vit
p2:tnh+dc
p2:ngha+an
p0:ru+quai+nn
p0:ton+thn
p2:cao+nin
p1:v
p0:ng+ch
p1:v
p1:v
p0:cy+vit
p0:a+phn
p2:gieo+trng
p0:ng+tin
p1:ng+b
p0:knh+rch
p0:binh+chng
p0:nhn
p0:cm+nc
p1:chong
p0:sc+vt
p2:nguyn+vn+phong
p0:tiu+lin
p0:bn+cht
p0:ni+dung
p0:i+bc
p1:cht+gic
p0:din+mo
p0:nhn
p0:nhc
p2:hlng
p0:ging+bnh
p2:r-ve
p0:cm+ba
p1:ch+ta
p2:ph+ph
p0:ma+mng
p0:php+lnh
p2:hen+suyn
p0:hnh+hi
p2:ti+nguyn
p2:ng+nh
p2:phng+hng
p2:l+m
p0:danh+d
p0:thm+phn
p2:say+mm
p0:ton+cnh
p2:qut
p0:trung+i+trng
p2:mu+mc
p0:ch+ta
p0:k+thut+s
p0:th+tng
p0:th+trng
p0:nghip+v
p0:vng+lng
p0:thc+phm
p2:vnh+bnh
p2:v+hiu+ha
p1:m+vn+ti
p2:quy
p1:mt+hai
p0:cn+h
p0:s+bo+danh
p0:bn+doanh
p0:qun+chng
p2:thng+tnh
p0:phn
p0:sinh+mng
p0:chui
p1:13.700
p2:lm+bn
p0:th+c
p1:ni+cm
p1:ng+v
p0:thng+dch+vin
p1:tia+sng
p0:bc+tin
p0:phng+thuc
p0:c+cng
p0:ct+truyn
p2:sn+h
p0:kch+bn
p0:ngi+sao
p1:bng
p1:xao+xuyn
p2:khp+np
p0:tn+gio
p2:tu+tnh
p2:hnh+tng
p0:ng+i
p0:bch
p0:trng+thi
p0:danh+th
p0:bng+chuyn
p0:dao+m
p0:bn+n
p0:th+n
p0:cu+m
p2:bi+ri
p0:danh+b
p0:qui+thai
p2:th+nm
p0:thnh+th
p2:mi+gi
p0:cua+ng
p2:bn+sao
p0:thuc+a
p0:tr+chi
p0:l+tc
p2:danh+vng
p0:gh+l
p1:thng+ngon
p0:kim+tuyn
p0:bit+ng
p0:tri+vin
p0:trc+o
p2:trt+t
p2:nick
p0:mun+thu
p2:mnh+my
p0:quc+ca
p1:cy+vit
p0:chnh+hnh
p0:lit+s
p2:bt+kh+xm+phm
p0:trm+hng
p1:mttq
p1:xoong
p1:th+tht
p0:sng+n
p0:d+lng
p0:xe+in
p0:chi+nhnh
p0:tang
p1:muay
p2:trc+o
p2:trn+phc+ng
p2:tnh+gic
p2:khm+ph
p0:tin+ti
p0:t+x
p0:chin+tranh+ph+hoi
p2:n+nh++u
p0:bp+b
p0:chung+quanh
p1:ting+tai
p0:cuc+gi
p0:uyn+ng
p1:b+cha
p2:qut
p0:nh+tnh+ngha
p0:thuc+mui
p0:gic+ng
p0:ton+quc
p0:hnh+vi
p1:ging+x
p0:li+th
p0:nhn+hiu
p2:xe+bc+thp
p2:v+nh+tm
p0:cha+x
p0:hng
p2:nhn+mnh
p0:cng+chng
p0:ting+lng
p0:tui+th
p0:t+b
p0:cy+l
p0:hi+thao
p2:ton+thn
p0:ng+phm
p0:tm+lc
p2:tin+tri
p0:hnh+l
p0:m+nhc
p0:cu+binh
p1:lc/v,
p0:o+phng
p0:cha+m
p0:th+trng
p1:kiu+mu
p0:+ph
p0:su+bnh
p0:st+kh
p0:qu+bnh
p0:niu+qun
p2:hang+
p1:xanh+ngt
p2:sng+c
p1:v+chi
p2:comme+toi
p1:lng+mc
p1:dng+ng
p2:cho+lng
p2:tng+tn+cng
p0:nguyn+vt+liu
p0:giai+cp
p0:khon
p0:thn+phn
p2:world
p0:b+co
p0:chuyn+khoa
p1:dang
p2:ng+ra+ng+vo
p0:ngoi+quc
p0:ti+nng
p0:yt+hu
p0:hc+ng
p0:tai+ho
p2:t+xut
p0:gio+l
p1:mt+l+mt+lc
p0:sang+nm
p0:bin+bn
p0:anh+chng
p0:v+s
p1:lu+thng
p0:qui+phm
p2:ngm+ming
p2:cm+nhom
p2:ngh+quyt
p0:ca+kch
p0:l+ph
p0:thnh+qu
p0:+dng
p0:b+cha
p0:b+sa
p0:trt+t
p0:a+cu
p0:hnh+chnh
p2:qu+trng
p1:l+no
p0:bn+i
p0:i+s+qun
p0:thuc+c
p0:di+chng
p1:6,42
p0:xe+tay
p0:ng+v
p0:gio+s
p0:vng
p0:lin+hoan+phim
p0:tu+s
p0:gia+cm
p0:xcngan
p0:phn+m
p1:m
p1:phng
p1:n
p2:boxer
p0:thng
p0:y+bc+s
p0:trng+on
p0:ru+cn
p1:danh+mc
p1:ng+quang
p0:hi+ct
p2:dn+gian
p2:s+m
p2:cao+vit+hnh
p1:n+theo
p2:phng+vn
p0:th+trng
p2:bnh+kh
p0:dn+tr
p0:li+thot
p0:phn+t
p1:cn+i
p2:grunberg
p0:cng+chc
p2:gng
p0:v+cng
p2:14.000
p0:ti+phm+hc
p0:khonh+khc
p2:iu+ng
p0:nng+ct
p2:chm+ni
p0:tc+ng
p2:m+thnh
p2:bng+khen
p0:nng+sut
p2:+vn+gii
p0:g+ng
p2:trng+thi
p0:cha
p0:nhp+
p0:b+binh
p0:bnh+li
p0:tng+lnh
p2:bt+bnh
p0:thng+lu
p2:nga+ngy
p1:loang+l
p0:s+lan
p0:hin+vt
p0:c+hi
p2:phong+thanh
p2:xut+qun
p0:c+quan+chc+nng
p2:hunh+th+minh+hng
p2:binh
p0:v+vic
p0:lng+th
p0:lc+lng
p2:3.859
p2:pht+minh
p0:thiu+thn
p1:trn+gi
p0:vn+bn
p0:vn+
p1:m
p0:ngu+hng
p0:chp
p0:ng+phc
p0:hc+sinh
p0:t+tng
p1:trn
p0:ip+khc
p0:gia+bo
p0:hi+quan
p2:di+ng
p1:la+c
p2:u+tt+mt+ti
p2:lng+vn+bin
p0:bin+hiu
p2:c+mt
p0:ngy+m
p1:a
p0:mu+nc
p0:snh+ly
p2:chc+qu
p0:thiu+gia
p2:lisa
p0:dch+bnh
p0:m+ti
p2:thc+th
p0:hm+nay
p2:nhn+h
p0:chn
p2:on+tuyt
p2:ngy
p2:ngn+ngn
p0:thm+tm
p2:lui+cui
p0:lo+tng
p2:ba+trm+ri
p0:o+phao
p1:ung
p0:u+ma
p2:thong+th
p2:hnh+nm
p2:ban+ngnh
p2:phn+cch
p0:phim+truyn+hnh
p0:o+thut
p0:th+hai
p2:hoang+vng
p2:bhxh
p0:chn
p0:+kin
p0:chu
p0:tiu+vng
p2:nh+gc
p0:cho
p0:chi
p2:im+nhin
p0:nam+khoa
p0:rng
p0:ch+ngha
p1:t
p1:lia
p0:chi+on
p0:chiu+hng
p1:khoc+o
p1:r
p0:nhy+cu
p2:+vn+hu
p0:ba+nay
p0:chim
p0:dn+chng
p1:x
p2:c+binh+kiu
p0:phim+trng
p1:phong+thy
p0:b+ch+ha+kh
p2:no+nc
p1:v
p1:xp+x
p0:ngun+gc
p2:bp+cht
p1:m
p2:bo+bo
p1:m
p2:ty+du+k
p1:bp+nght
p2:o+c
p0:ngn+sch
p0:hoa+mu
p0:ben
p0:ng+dn
p0:bi+bm
p0:nh+k
p0:c+hng
p1:90.000
p1:ty+ly
p0:ng+lc
p1:tu
p0:sm+mai
p2:rm+r
p0:sut
p0:bin+gii
p0:gio+mc
p0:n+
p0:c+ph
p2:trc+ht
p1:se
p1:hi
p2:thng+nin
p2:ni+tnh
p2:d+sn
p0:bin+c
p1:h
p0:th+dc
p0:tri+giam
p0:ng+ct
p0:c+ch
p1:din+t
p0:n+ng
p2:gi+cm
p2:trn+thanh+h.
p0:lp+hc
p0:tnh+ngha
p0:bo+gii
p2:iu+luyn
p0:gic+u
p1:panasonic
p0:b+phn
p0:kt+qu
p0:ch+ngi
p0:c+mp
p0:trang+tri
p2:thi+thi
p0:chung+tri
p1:lon
p0:cu+thang
p0:vai+tr
p2:oshin
p0:tuyn+tin+lit
p2:lu+lng
p2:thnh+t
p2:bin+thi
p1:31.000
p0:trng+phng
p1:be
p0:thnh+tch
p0:lng+sng
p2:tn+ninh
p1:c4
p0:cng+ho
p0:hnh+lang
p1:bt
p1:d1
p0:ca+knh
p1:mt+tri
p0:cng+ch
p2:gim+thiu
p1:lin+i
p0:thng+y
p0:tr+l
p2:vp+ng
p2:phim+thi+s
p0:hng
p0:h+tc
p2:lepto
p0:dn+phng
p0:tc+gi
p0:ca+s
p0:gian+kh
p1:di+vt
p1:ma+may
p0:mi+li
p0:tic+tng
p1:bu+c
p0:trch+nhim
p0:th+sn
p2:trn+minh+h.
p0:quan+ti
p2:khng+ti+no
n1:char:,:2
p2:dc+miu
p0:u+bng
p0:tnh+y
p1:ru+quai+nn
p0:nng+khiu
p0:xe+ko
p0:th+sinh
p1:gi
p2:la+brea
p1:ng+nghch
p0:nh+sn
p0:chuyn+ngnh
p0:thy+cng
p0:i+hi
p1:hi+trng
p0:p+thp
p2:r+rng
p1:d+lng
p0:khng+trung
p0:nh+sn+xut
p0:da+g
p0:+quc
p0:hng+khng
p1:con+du
p2:nguyn+vit+cng
p0:-----------------
p2:phm+ngc+he
p0:ch+em
p2:phan+minh+phng
p0:rau+cho
p0:k+nng
p1:ci+ct
p0:ng+hm
p2:c+a
p1:ninfan
p2:u+bun
p2:nc+bt
p0:tm+nguyn
p0:sui
p2:ngoe+nguy
p0:+bng
p0:quan+ta
p2:nguyn+vn+vui
p2:gh+vai
p2:gii+cu
p2:dng+mnh
p2:li+thi
p1:an+ton+lao+ng
p0:ch+nht
p2:lch+tch
p2:ng+tu
p2:mi
p0:cm+hp
p0:my+git
p2:th+tho
p0:t+ti
p0:bng+ma
p2:m+bp
p2:ni+tay
p0:tng
p0:tnh
p0:bng+n
p0:tui+i
p0:truyn+hnh+cp
p0:ting+tm
p0:xe+hi
p1:ca+ng
p2:hng+chu
p1:t+gi
p2:vn+ngh
p1:chn
p1:chm
p0:rong+bin
p2:xo+mng
p2:c+kh
p2:khun
p2:truy+lng
p0:s+c
p0:nguyn+tc
p0:dao
p1:do+
p0:+voi
p0:n+treo
p0:i+trng
p2:inoue
p1:33.975
p1:nhe
p0:cy+bt
p0:ng+bay
p2:hng+sp
p2:bt+thm
p0:trung+v
p2:chi
p1:+hn
p2:chiayi
p0:dng+gian
p0:im+chun
p0:ai
p0:ni+rng
p1:nho+nhot
p1:lm+nn
p2:phng+thuc
p0:thng+gia
p2:cch+bit
p2:son+phn
p2:t+hin+thnh
p0:rung+cm
p0:hip+nh
p0:ay
p0:trung+du
p0:tiu+bang
p0:tay+trong
p2:lm+xm
p0:ngi+i
p2:thin
p1:chm
p0:chuyn+gia
p1:qu+ng
p0:nghip
p0:ch
p0:ch
p1:quy
p2:ph+thuc
p2:sitompul+m.
p2:c+vc
p0:ch
p0:thanh+thiu+nin
p2:chn
p0:nh+im
p0:thuc+n
p2:tm+trm
p0:ngoi+cnh
p0:mc+
p0:o+gip
p0:cm+go
p2:lng+ng
p0:trng
p0:cng+ngh+thng+tin
p0:ct+dc
p0:tc+dng
p0:m+hiu
p2:rau+qu
p2:vespa
p0:b+th
p0:hi+nc
p2:chp
p1:ch./np-
p0:to+ha
p2:ton+cu
p0:loi+ngi
p0:qui+kit
p2:th+n
p0:kin+trc+s
p0:sn+bay
p0:bc+tam+cp
p0:mnh
p0:cm+tnh
p0:mng
p2:cnh+qut
p0:bung+li
p0:mt+my
p2:nhn+khoa
p0:xe+ln
p2:thin+thn
p0:ha+tin
p0:tun+m
p0:pho+thng+thin
p2:m+bc
p0:thn+hnh
p0:tuyt+chiu
p2:cho+mi
p2:vt+bin
p0:din+bin
p0:th+nm
p0:tm+khm
p2:hnh+hi
p0:xe+my
p0:n+anh
p2:qung
p0:s+gi
p2:hc+vin
p0:gia+cnh
p0:bn+xe
p0:cam
p0:cau
p1:loi
p0:in+p
p0:ph+n+trng
p2:chuyn+tip
p2:l+nh+st
p0:cha
p0:th+xc
p0:n+v
p1:long+lanh
p0:nhn+thn
p2:r+ti
p0:hi+trnh
p2:xui+ngc
p2:chp+thun
p2:suy+din
p0:x+s
p1:man
p2:tn+chu
p0:bia
p1:nao
p1:cancer
p2:thch+hp
p2:thi+tuyn
p0:th+hiu
p1:phn+hiu
p2:quay+qut
p2:bt+m
p0:u+th
p0:thy+tinh
p0:hi+hm
p0:u+th
p0:trung+t
p0:kiu+mu
p2:lm+ti
p2:ho+hon
p0:+t
p0:tng+b+th
p2:phm+ngc+ng
p0:ngi+p
p0:hiu+ph
p2:nh+tnh+ngha
p0:phn+x
p0:hon+nn
p2:l+m
p2:cun+cun
p1:tm
p0:bi+kch
p2:vn+cng
p2:c+trang
p2:vn+vt
p0:cm+gia+cm
p0:bom
p0:li+nhun
p2:chi+on
p2:trnh+hong+lng
p1:mt+sc
p0:hi+ha
p0:tc+
p0:vng+cao
p2:qui+phm
p2:mt+tri
p0:th+th+cng
p2:+vt
p2:ng+ngch
p0:ton+lc
p1:phi
p1:pho
p2:gia+cm
p0:tay+vt
p0:bn
p0:tnh+on
p1:ln
p0:bo
p0:cy
p1:sng+gi
p1:ba+bn
p2:bit+hiu
p0:qun+vt
p2:goro
p1:m+lai
p2:hunh+vn+c
p2:nguyn+mu
p1:ngy+ngt
p0:tp+ch
p1:ph
p0:bn+phm
p2:m+u
p1:la
p2:en+s
p0:sao+sa
p2:xc+xch
p1:9.899
p0:niu+o
p0:thng+ip
p0:khoai
p0:vng+bc
p0:xe+lam
p0:k+gi
p0:bn
p0:bp
p0:s+on
p1:su+lng
p0:tr+s
p2:luyn
p2:c+a
p2:xc
p2:du+du
p0:ty+y
p2:lim
p0:bc+u
p0:bp+tht
p0:bn
p0:thy+lc
p0:i+sng
p0:c+vc
p0:nc+bin
p0:v+sinh
p1:bi+thuc
p2:ngt+ngt
p2:con+nui
p0:gim+c
p0:ni+b
p0:cn
p0:thng+hiu
p0:bt
p1:lm
p0:nh+my
p0:lut+l
p0:ph+n
p0:tp+tng
p0:quan+chc
p0:m+s
p2:m+lng
p1:bo+k
p0:lnh+t
p0:t+pha
p2:chia+ct
p2:long+bo
p0:bt
p1:mi
p0:con+nghin
p0:bn+a
p0:k+c
p0:eng
p1:mt+m
p0:phng+s
p0:thin+ng
p0:tung
p0:khoa+hc+k+thut
p1:mn
p0:tm+lng
p0:hi+ngoi
p0:bt
p0:cm
p2:u+video
p0:em+t
p2:gia+bo
p2:robert+journal
p1:sm+hi
p2:ln+quay
p0:g+vn
p0:bn+thn
p2:than+phin
p0:h+khu
p0:ging
p2:cht+vn
p2:karn
p0:thi+
p0:phc+v+bn
p0:a+im
p2:trng+ch
p0:gio+vin
p2:nguyn+ng+c
p1:tn+dit
p0:xe+p
p1:km
p2:phan+th+thc
p2:li+ta
p0:tm+tch
p0:cun+chiu
p0:kit
p2:c+ri
p0:nh+chc+trch
p2:tri+cy
p2:cn+st
p2:thy
p0:xa+nay
p2:cm+bi
p0:chi+b
p1:xun+ho
p0:tim+nng
p0:chc+quyn
p0:khoi+cm
p0:cht+xm
p0:ng+tim
p0:l+lt
p0:ma+v
p2:tht
p0:gng
p0:chung
p2:sn+ty
p1:1.140
p0:ngi+nh
p2:xnh+xch
p2:jane+barton
p1:1.130
p2:phn+na
p0:nh+hng
p1:nc+mi
p2:l+ch
p1:dng+dc
p0:ng+tnh+l
p0:c+quyn
p2:m+vn+ti
p0:cha+con
p0:tai+bin
p0:trin
p0:cnh+ng
p0:cha+ch
p0:nng+li
p0:sc+lc
p2:thnh
p0:hc+bng
p0:n+b
p0:bc
p0:by
p2:bc+lt
p0:n+em
p0:h+sinh
p1:lm
p2:khm+xt
p0:c+gii
p0:v+tr
p0:nh+ngh
p0:th+t
p2:knh+rch
p1:ln
p0:bp
p2:apec
p0:nng+ma
p0:vn+chng
p0:tri+xoan
p1:b+bt
p0:ca+sng
p2:gnh+ho
p0:vai+v
p0:tn+phiu
p0:bu+tri
p0:vi+nc
p1:47
p0:cc
p2:lm+le
p0:m+m
p1:59
p1:52
p0:dp
p0:dp
p0:mng
p0:chung
p1:nu
p0:ca
p0:cm+by
p1:34
p2:ghi+danh
p1:hon
p1:khi+phc
p0:kiu
p0:tu+chin
p0:ci
p0:thi+quen
p1:ni
p0:u+c
p2:gnh+ht
p0:kin
p1:nc
p0:dy+cp
p0:khai+trng
p2:vut+vut
p0:kip
p0:nhiu+kh
p1:8x
p0:heo
p0:gng
p1:khm+nghim
p0:trang+phc
p0:du
p0:ru+bia
p0:dn
p0:khi
p1:86
p0:khe
p2:thm+thm
p1:87
p0:vt+cht
p2:trung+ln
p1:1.300
p0:mi+trng
p0:hia
p1:68
p1:65
p2:thng+cha
p0:cm
p0:t+nung
p1:rui
p1:hi+hm
p0:khu+hiu
p1:min+ty
p2:nghe+lm
p0:dp
p0:xm+lng
p0:t+lnh
p0:ti+sn
p0:phc+trang
p1:phn+bc
p0:th+vin
p0:i+i+trng
p0:trm+c
p0:ng+bin
p2:cm+ba
p0:cng+quc
p0:s+ph
p0:canh+bc
p0:c+th
p0:u+im
p2:bng+bng
p0:tin+tc
p0:di
p0:hnh+s
p0:ng+ngch
p0:ti+xch
p2:+mun
p0:t+cch
p0:tri+tim
p0:ci
p0:ln+iu
p0:lng+nc
p0:vitamin
p0:cc
p0:ci
p0:khn
p0:thnh+vin
p2:chan
p0:ng+ng
p0:
p0:ci
p0:tm+tr
p0:thiu+nhi
p0:ct
p2:hm+hm
p0:lun+chng
p2:ch+v
p0:tin+snh
p0:chi
p0:gh
p0:cng+t+bc+liu
p0:gia
p0:th+thut
p0:khng+gian
p0:s+tht
p2:ngu+nhin
p0:chi
p1:a
p0:nh+lng
p2:c+im
p0:du
p0:bc
p0:ha+hon
p0:k+hiu
p0:chm
p1:hng
p2:trng+hoc
p0:c+ng+vin
p0:gi
p0:gi
p0:du
p0:bng+cp
p0:chc
p0:chn
p0:ph+gim+c
p2:nguyn+vn+lim
p2:phng+ban
p2:yn+dng
p2:hn+gn
p2:qun+trang
p1:mt
p0:gin+gio
p0:gai
p0:gay
p2:kim+nh
p0:chu+lc
p0:n+xanh
p0:ghe
p0:d+ton
p2:dmark
p0:ct
p0:cp
p0:cm
p0:co
p0:cn
p0:gen
p0:t+nhn
p2:tiu+vng
p0:tuyn+ngn
p0:b+kp
p0:inh+vt
p0:hnh+trang
p1:phu
p1:nh+lao
p2:rm+rp
p0:thang+my
p1:bn+tho
p0:chp+ti
p1:mt
p0:bp
p1:an+xen
p0:bia+ru
p0:chin+tranh
p0:trung+y
p0:bom+n
p0:nhc+cng
p0:bit+th
p0:bn
p1:dn+tr
p0:ba
p0:i+tip
p1:nh+ht
p0:chnh+vn+phng
p0:bn
p0:ba
p0:tin+
p0:t+dinh
p0:vin+thng
p0:dn+en
p0:cn
p2:thn+dn
p2:lin+thong
p1:phn
p0:sng+lc
p0:cm
p0:ci
p0:mt+ch
p0:ba
p0:suy+dinh+dng
p2:lm+dng
p0:hu+phng
p0:cc
p0:tin+vt
p0:ba
p0:+n
p0:m+sc
p0:nhn+thc
p0:ba
p0:danh+tnh
p0:cnh+tr
p0:chc
p0:cha+t
p0:chin+lc
p0:t+im
p0:nh+th
p2:d+bo
p0:cc
p1:hn+gn
p1:ni
p0:php+l
p1:phm
p0:hng+dn+vin
p0:t+trng
p1:cp+
p2:l+i
p1:p+sut
p1:672
p0:s+
p2:trn+thanh+s
p2:ashe
p0:n+tnh
p0:khn+gi
p2:tt+nguyn+n
p2:th+in
p2:ng+c
p0:hc+gi
p0:ng+t
p2:vnh+phc
p0:danh+vng
p2:cm+t
p0:t+ti
p0:phim+nh
p0:sc+p
p2:cho+ri
p0:sng
p0:kha+s
p0:ng+n
p1:bung+xui
p2:p+sut
p0:huyt+p
p0:qu+t
p0:dc+s
p1:phi
p0:c+tnh
p0:gia+sn
p2:dn+thn
p1:l+vin
p0:hi+ng
p0:hin+tng
p1:n+
p2:lch
p0:cng
p0:th+thnh
p0:him+khch
p0:bao+cao+su
p2:khoo
p2:vun+p
p0:chin+binh
p0:th+lc
p2:th+dc
p1:ngot
p0:b+m
p2:o+phao
p0:phng+hong
p2:s+tn
p0:bom+napalm
p0:u+video
p0:th+trn
p0:n+chiu
p0:phng+th+nghim
p2:ngh+n
p2:v+vn+hng
p0:bng+hu
p0:thng+chp
p0:ip+v
p2:on+hunh+long
p1:phn
p0:ui
p1:tra
p1:ly
p1:toa
p0:cht
p1:hm+cha
p1:70%
p1:tua
p0:ch+ngha
p0:chin+s
p0:nguyn+liu
p1:750
p0:danh+thip
p0:d+lun
p2:phng+c
p0:gh+ngi
p0:rung
p0:snh
p1:rnh
p0:ng+lng
p2:lnh+t
p0:da
p1:thi+tit
p0:bng+mt
p1:527
p0:ging+vin
p0:]/]thng
p0:chu
p1:587
p1:586
p1:585
p0:qun+l/
p1:574
p0:t+thi
p1:thin+s
p2:drew+young
p0:phng+the
p0:i+vin
p0:n+ch
p2:mng+m
p0:vng+t
p0:lm+ng+trng
p0:bn+nhc
p0:my+n
p0:mt+danh
p1:lng
p0:d+dy
p0:giai+on
p2:t+ti
p0:lm/v+khch
p0:chuyn+vin
p1:tng+bn
p1:vng+vy
p1:hai+chc
p2:bi+bi
p2:t+sch
p1:gp+ghnh
p1:xc+tin
p1:cha+ng
p0:x+vin
p0:cho
p2:tuyt+diu
p0:thn+ng
p0:cn+trng
p1:ng+tui
p0:nm+thng
p2:b+bi
p1:t+tm
p2:bp+nght
p0:duyn+n
p0:ng+ph
p2:ng+nt
p0:x+i
p0:da+d
p0:ngy+nay
p0:ming
p0:ph+dung
p0:nguyn+mu
p2:chnh+vn+phng
p0:thn+xc
p1:1,61
p1:ngn+ngn
p1:dn+p
p0:ma+dm
p0:thnh+phn
p0:v+con
p2:i+li
p1:chc+sc
p1:du+tch
p2:hi+t
p0:k26
p2:cm+nc
p0:thnh+phm
p2:l+gia+khnh
p1:thu+gom
p0:mui+vng
p0:bi+bi
p2:ph+bn
p2:ra+mn
p2:haoai
p1:bun+ri
p2:phi
p2:phan+thanh+hng
p2:ci+cc
p0:hi+c
p2:vn+hc
p2:tough
p0:v+iu
p0:gi+tr
p0:thn+th
p0:tiu+tit
p0:ng+bin
p0:c+chua
p1:doanh+nhn
p0:quy
p1:gia+nhp
p0:nhn+vin
p0:cnh+g
p1:vo+vai
p0:phim+nha
p0:o+c
p0:cao+c
p2:kh+cc
p2:l+l
p0:im+s
p0:k+tc+x
p0:sn+phm
p1:bn+tnh
p0:i+ng
p1:tn+hi
p0:biu+hin
p0:r+r
p1:sm
p0:lc+lc
p0:tnh+thnh
p0:u+ban
p2:nh+bng
p1:bit+n
p2:l+nh
p0:thc+s
p1:so
p1:15+-+11+-+1971
p1:ti+tri
p0:con+mt
p2:nguyn+i+cng
p1:913
p0:sn+nghip
p0:danh+mc
p0:n+bt
p2:trng
p2:rng+phng+h
p2:cm+by
p0:hm
p0:ngy+mai
p1:ra
p0:chi+li
p0:s+hiu
p0:da
p2:cng+quc
p0:b+ro
p2:nguyn+thanh+ha
p0:vi+khun
p0:loa
p2:dng+l+li
p0:pht+pho
p0:hnh+tng
p1:hng+ng
p0:hm
p2:yn+sn
p1:x+pht
p1:ha+nhp
p0:x+th
p0:sng
p1:95%
p0:a
p1:thit+lp
p2:thit+mng
p0:khay
p0:nc+da
p0:tng+s
p0:lng+ngc
p2:cm+cnh
p2:thng+bng
p2:phillips+channel
p0:th+my
p0:ting+ph+thng
p0:xng+ngn+vin
p2:ng+ngha
p0:ci+lng
p0:ngy+kia
p2:giao+duyn
p0:hc+ph
p1:bng
p1:ng
p1:ng
p0:tiu+thng
p1:ng
p1:ng
p0:mun+trng
p2:thng+khch
p0:thuyn+thng
p0:t+n
p1:xu+x
p0:cnh
p1:ng
p2:nh+nh
p0:di+chc
p0:nc+l
p2::/:nhng
p0:nhn+khoa
p0:kem
p0:keo
p2:cun+chiu
p2:by+mun
p2:man+r
p1:ph+gim+c
p1:rm
p0:khu+ph
p0:m+phn
p0:khe
p0:bit+ti
p0:ngh+s+u+t
p0:cnh+vt
p0:kng
p2:min+sao
p0:tin+v
p0:bi+hc
p0:din+tch
p1:m+p
p0:ch
p0:ch
p0:kh
p0:bnh+x
p0:ch
p1:ng+c+vin
p0:chin+hu
p0:mt+tin
p2:nguch+ngoc
p0:trung+tun
p1:o+quc
p0:tin+s
p2:ch+tnh
p2:h+ch+minh
p0:c+th
p1:870
p0:gia+tc
p2:trng+phc
p0:l+lch
p0:gc
p0:ma+l
p2:hnh+dng
p0:thi+th
p0:bnh+l
p0:hang+
p1:hi+hp
p2:xa+x
p0:tr+thc
p0:chiu+manh
p0:gt
p1:nhc
p0:ti+qua
p2:lm+qu
p2:hp+tc
p0:tin+l
p1:nga
p0:thin+nhin
p2:thuc+ty
p0:khng+sinh
p0:ng
p0:ng
p0:ng
p0:dao+co
p0:oan+hn
p0:an+ninh
p0:di
p0:mu+sc
p0:ngy+ng
p1:rm
p1:bt+cp
p2:xao+xuyn
p0:ging+khoan
p0:phi+hnh+on
p0:nhang
p0:bit+hiu
p0:mt+bng
p1:cassette
p0:nghi+n
p0:mi+ca
p0:l+rn
p0:l+m
p0:nem
p0:danh+hi
p0:thi+hn
p0:nhn+mc
p0:ni+nim
p2:vang+lng
p1:230
p1:237
p1:23%
p0:a+hnh
p1:220
p0:ngha+trang
p0:i+pht+thanh
p1:ngoc
p0:gian+hng
p1:du+sao
p2:ip+vin
p0:tng+vt
p0:sc-lai
p2:thm
p0:co+trng
p0:vt+th
p1:rng+rnh
p1:te
p1:ngng+bn
p0:da
p1:tp
p2:tng+trng
p2:trm+phng+ngn+cch
p2:dai
p0:quai
p0:quan
p0:thng+binh
p0:sinh+lc
p1:nhp
p0:nhc+im
p0:lng+ng
p0:vit+cng
p0:thiu+ph
p0:ting+ni
p1:phn+cch
p1:nht
p0:huy+hiu
p0:gc+
p0:vng+xa
p2:ngp+ln
p0:+ngh
p0:thm+nin
p2:t+thnh
p0:i+mi
p0:sng+sng
p1:131
p2:clo
p2:new+york
p0:s+
p2:lng+ngng
p0:tin+mt
p0:bn+tho
p2:ng+ngng
p1:ph
p0:cm
p0:thin+l
p1:176
p1:cao+kin
p1:188
p0:men
p2:cccp
p1:198
p2:nh+c
p2:tri+st
p2:chp+chp
p2:]/]nh
p0:hu+i
p0:hi+on
p2:lng+vng
p0:ngha+v
p0:my+tnh
p0:cng+nghip
p0:lt+v
p1:c+th
p1:ta
p0:gic+quan
p1:hng+hn
p1:rt+ro
p0:m
p0:i
p0:kh+t
p2:bo+v
p0:rau+qu
p1:106
p1:ni+ui
p1:10%
p0:tu+bin
p2:nghim
p1:110
p1:109
p2:ngm+ngm
p1:128
p2:horst+faas
p0:y
p0:chy+vit+d
p0:th+rng
p0:chng+bnh
p0:cng+sc
p0:pht+giy
p2:trn+th+loan
p0:kim+ton
p1:xm+chim
p0:th+ba
p2:du+hi
p0:n+mng
p2:trn+vn+thi
p2:nhch+nhc
p2:lc+lc
p1:xay
p0:mai+y
p0:m+hnh
p0:sn+nhy
p0:ngha+c
p0:ty+sng
p0:n+c
p1:c+ng
p0:thng+t
p1:+lm
p0:thng+s
p2:lp+xp
p2:nghin
p0:o+ma
p1:yu+thch
p0:mui
p0:khu+vc
p0:trng+ti
p1:tt
p1:n+cha
p0:cng+dn
p1:xng
p1:qung
p0:ph
p0:khoang
p0:ph
p0:hnh+trn
p1:trc+ch
p0:t+ng+m
p2:nguyn+vn+n
p0:ng+nt
p0:i
p0:bi+tnh
p1:manh
p0:cnh+tay
p2:bi+trng+linh
p2:bmw
p0:lp
p0:vn+ling
p2:chy+n
p0:cp+y
p2:n+nc
p0:th+in+t
p2:khc+nghit
p2:vng+chc
p0:tnh+dc
p2:trn+vn+t
p0:bo+v
p0:nhit
p0:nh+xc
p0:bnh+phong
p0:chiu+chiu
p0:qu+khch
p2:p.k.b.
p1:45%
p1:1099
p0:dng+c
p2:ti+tm
p1:l+th+quyn
p0:ng+xun
p0:phu
p0:cu+ni
p0:xe+khch
p2:nht+nh
p2:trc+n
p0:phe
p0:phi
p2:n+in
p0:lc
p2:chy+cnh
p1:thin+nga
p0:chiu+thc
p0:lm
p0:con+ging
p0:ging
p0:b+lch
p0:nh+th
p1:tng+tn
p0:n
p0:ngn+ngh
p1:90.241
p0:vlng
p1:dy+cp
p0:tng+lp
p1:m+mng
p0:ng+bn
p0:khch+hng
p0:-------
p0:nh+rng
p0:vng+m
p0:chin+khu
p1:vng
p0:ph+ch+tch
p0:nh+tr
p0:mt+mi
p0:s+t
p0:n
p0:nh+tr
p0:u+xanh
p0:khung
p0:ci+i
p0:tng+nc
p0:khi+la
p2:l+vn+dn
p0:chin+trng
p0:s+vic
p0:sng
p1:ly+lng
p2:cng
p2:ngi+t
p2:thin+phc
p0:a
p0:tng+gim+c
p0:dn+s
p0:sng
p0:lin+minh
p2:bt+t
p2:hng+ho
p2:gch+bng
p0:gi
p2:l+vn+sua
p0:ko
p1:trn
p2:san+jose
p0:gh
p0:an+ton+lao+ng
p0:gh
p1:374
p2:thn
p0:km
p2:nguyn+ngc+sn
p0:kp
p0:qui+lut
p2:lng+mc
p0:chin+li+phm
p0:l+ng
p0:ng+bc
p1:vc
p0:----------------------
p0:k+thut+vin
p2:rm+rc
p1:y+ht
p2:ben+ben
p1:2.640
p2:cp+pht
p0:hc+hm
p2:xhcn
p2:trng+th+nh
p0:phng+tin
p0:tham+vng
p2:ch+trng
p0:cng+vin
p0:trng+ti
p0:phng+thc
p2:trn+th+sa
p1:326
p0:gim+c
p0:b+bn
p1:mc+kch
p0:ch+gi
p2:cng
p2:thc
p0:da+cc
p1:nguyn+vn+long
p1:hp+mt
p0:th+su
p0:a+o
p2:cn+
p0:bng+hng
p0:triu+ph
p0:v+trng
p2:bc+ngha
p0:kp
p0:phi+p
p1:chuyn+khoa
p2:rch+ri
p2:tn+dit
p0:ting+tai
p0:dy+chuyn
p0:+nguyn
p0:gung
p2:gp+rt
p0:tp+ha
p2:b40
p2:tri+php
p0:lut+php
p0:tng+th
p0:ng+mn
p0:soi
p0:b+
p2:+ng
p1:ngm
p0:th+t
p0:quc+thiu
p0:miu
p0:mn
p0:mi
p0:k+s
p1:cng
p0:nng+thn
p2:dn+d
p0:min
p2:m+a
p0:
p0:
p0:n+hong
p2:ko
p0:
p0:huyn+l
p0:phi+on
p0:mm
p0:lu
p0:ngh+thut+th+by
p0:c+
p0:nh+bo
p0:qu
p0:lc
p0:duyn+hi
p1:bp+c
p0:ha+lc
p0:mi
p0:m+thut
p1:trng
p0:t+v
p2:ngi+ngoi
p0:sng
p0:anh+ch+em
p0:qu
p1:hai+mt
p0:t+nn
p0:rau
p2:ngn+tr
p0:tu+xe
p0:sinh+l
p0:thn
p2:xoay+xoay
p0:nn
p0:np
p2:c
p0:u+vo
p2:bm
p0:o+vng
p0:sn+vt
p2:a+dn
p0:tuyt+k
p2:gai
p0:tia+sng
p0:no
p0:ni
p0:x+hi
p1:m+mang
p2:ia+blang
p1:vng
p0:ni
p0:mc
p0:mo
p2:oi+bc
p0:my
p1:khanh+khch
p1:khun
p0:v+s
p0:mn
p0:mu
p2:ton+hc
p0:nm
p0:mm
p0:thi+i
p0:nc
p0:thy+gio
p0:mt
p2:trng+thnh
p0:tiu+chy
p0:mo
p1:hp
p0:la+n
p0:thn
p0:nn
p2:v+minh+hoi
p0:b+i+a+phng
p2:ly
p2:i+i
p0:tu+b
p0:mnh+
p0:t+gi
p0:t+in
p0:khoai+lang
p0:mn
p0:cuc+chin
p0:du+kch
p2:ci
p0:mp
p0:ban+ngnh
p2:tr+gian
p1:gung
p2:ci
p1:37.000
p2:tc
p0:nc
p2:+bt
p2:cu+cu
p0:x+beng
p0:ba+m
p0:ma
p0:thm+cnh
p0:mc
p0:mt
p0:ba+l
p0:thc+tin
p0:khong+cch
p0:cng+hng+khng
p1:khm
p1:ng
p0:ni
p0:sc+
p0:th+th
p0:nn
p0:nc
p0:lng
p0:bu+vt
p1:b+tr
p0:-----------
p0:con+du
p0:bnh+a
p2:cm
p1:xung+kch
p1:tu+tnh
p0:ni
p0:cng+chn
p1:con+tnh
p2:nhn+nhy
p0:bi+cnh
p0:mc
p2:ti+ba
p1:chm+ch
p2:diu+hnh
p0:vn+ha
p0:k+lc
p0:thng+v
p0:nguyn+th
p2:qui+kt
p0:ni
p0:nt
p1:ngha+v
p0:hot+hnh
p2:v+thanh
p0:cu+th
p0:bo+bo
p0:d+liu
p0:con+tnh
p1:cc+trng
p0:da+tht
p0:kha+cnh
p0:thuyn+vin
p2:m+lai
p0:tin+lng
p0:c+nhi+vin
p0:trai+trng
p1:mi+hin
p2:xa+xm
p1:sm+sa
p2:rnh
p0:u+s
p0:c+du
p2:u+xanh
p0:nh+sng+ch
p0:c+x
p0:c+ri
p0:nc+ngt
p0:mch+mu
p0:l+qut
p2:ty+
p0:ria
p0:u+inh
p2:ing
p0:i+hnh
p2:ni+ng
p0:m+thanh
p0:bt+ng+sn
p2:du+con
p1:dn+s
p0:nt
p0:ph+liu
p0:qun+bo
p0:b+c
p0:bi+tp
p0:chin+s
p2:cng+cc
p0:dy+nh
p0:ghe+xung
p1:hi+sinh
p0:tng+cng+ty
p0:hng+xo
p0:t+sc
p0:bng+chng
p2:hun
p0:tin+n
p1:nhn+bit
p0:tm+tng
p2:thnh+ng
p2:ph+phc
p1:ngn+sch
p0:ngi+qun+l
p2:b+bi
p1:kha
p2:ghi+nh
p0:rui
p0:my+lnh
p0:ni
p2:v+vn+giu
p0:ngai
p1:gi
p0:s+m
p0:tai
p2:tn+thng
p0:la+go
p0:thi
p2:phm+vn+thanh
p1:thanh+trng
p2:trn+quang+h
p2:hlang+ngol
p0:rut+tha
p0:my+nh
p0:ma+nng
p0:u+tu
p0:vi+vc
p0:ng+vn
p1:ng+kim
p1:than+phin
p2:chy+ra+chy+vo
p0:cht+nh
p2:karl+heinz+weigang
p2:hunh+tun+linh
p0:ng+tc
p1:nhp+khu
p0:xon+trng
p0:ngy+trc
p0:ti+ngy
p2:nhn
p0:tic
p0:ten-nt
p0:tim
p0:kim+tim
p0:tim
p2:xem+bi
p0:m+lch
p2:ny
p0:tip+vin
p0:qun+gia
p0:nh+ga
p2:gn+gng
p2:np
p0:tem
p2:xng
p2:ln+ni
p0:hng+xm
p2:ch+ni
p0:m+m
p2:la
p0:nhip+nh+gia
p0:bia+m
p0:eo+t
p0:son
p0:phn+xng
p0:cn+bnh
p0:tnh+nguyn+vin
p0:lc+s
p0:giy
p0:ti+c
p0:bnh+trng
p0:khu+ch+xut
p0:a+ngc
p0:ngh+nhn
p2:ngc
p0:s+h
p0:gc+hc+tp
p0:gio
p2:lin+hp
p1:ln
p2:t+mi
p1:khn
p2:c+in
p0:sim
p0:sin
p2:qun+x
p0:nh+t
p2:eng
p0:ho+quang
p0:thc+vt
p2:m+tng
p0:bo+chng
p2:nn+mng
p0:khung+cnh
p0:t+thn
p0:ci+ch
p1:1329
p0:hi+hic
p1:knock+out
p1:u+x
p2:du+sao
p2:cao+th
p2:thiu+t
p0:chuyn+c
p2:ngng
p0:nh+v+sinh
p0:tn+cng
p1:3.200
p2:chu+vn+tip
p0:qut+my
p1:hnh+tng
p2:pha+trn
p0:doanh+nghip
p2:l+minh+hng
p1:r+rm
p0:hi+sn
p0:bng+c
p0:i+biu
p2:chim
p0:boong
p0:qu+m
p0:my+quay+phim
p1:bng
p1:n
p0:chi+cc+trng
p0:thy+hi+sn
p0:sn+vn+ng
p2:a+l
p2:trng+trc
p0:thm
p0:lu+n
p0:d+ng
p0:thc
p2:phn+cc
p0:khun
p2:nhy
p0:hi+l
p0:tin+hc
p2:phm+v+h+thng
p2:o+le
p2:tham+vn
p2:ch+nh
p0:l+ch
p0:qun+dch
p0:a+phn
p0:phn+thng
p0:hu+qu
p0:hng+hiu
p2:ru+bia
p1:b+l
p0:anh+em
p0:phng+c
p1:tho
p0:nng+ry
p0:x+quch
p0:kh+au
p1:hu
p2:phc+thnh
p0:toa
p0:top
p0:mu+da
p2:nhy+vt
p0:ngc+bch
p0:phi+v
p0:ry
p0:tre
p2:r+ri
p1:lai+tp
p2:phm+hunh+tam+lang
p0:hiu+s
p2:fnc
p0:th
p2:suy+thoi
p2:l
p0:rn
p1:hiu+hiu
p0:hin+trng
p2:ngt
p2:k
p2:k
p0:nc+khong
p2:xa+b
p1:p
p0:rm
p2:trn+th+thu+hng
p0:tr
p1:hoa+khi
p2:auton+geenik
p0:inox
p0:vn+ng+vin
p0:hm+l
p0:nam+gii
p2:king+chn
p2:v
p2:v
p2:lai+rai
p0:nguyn+vn
p0:ngn+ngnh
p0:i+n
p0:vt+liu
p0:tua
p0:ung+th
p0:tr
p2:bng+thm+nc
p2:l+vn+ng
p0:tr
p2:tn+thun
p0:ti+li
p0:mm+ci
p0:trng+lng
p0:lc+qun
p0:qun+hm
p0:ng
p0:lm+trng
p0:ru
p0:lin+hip
p0:thuc+lo
p1:song+kim
p1:rng+phng+h
p2:th+tht
p0:mng
p2:u+lu
p0:su
p2:ngi+thin
p1:li+dng
p2:thnh+xun
p0:ng
p2:kh
p2:kh
p0:rm
p2:kem
p0:sp
p0:vai
p1:mn
p0:van
p2:phan+r
p2:nh+nh
p0:rc
p0:ro
p2:kay
p0:gii+thng
p0:s+t
p2:ni
p2:chong
p0:ri
p0:hng+ro
p2:ng+trc+ngn
p0:s
p2:mt
p0:dn+y
p2:danh+tnh
p0:chn+vt
p0:so
p0:s
p0:r
p0:mch
p0:r
p2:nguyn+vn+thc
p1:qut
p0:v
p1:sau/emt
p2:lam
p0:tinh+dch
p0:t
p0:n
p2:chin+tranh+ph+hoi
p2:l+lt
p1:np
p1:lp
p0:m
p0:ht+nh
p0:n
p0:m
p0:m
p1:bng+lng
p0:th+t
p0:r
p1:thc+gic
p2:xcngan
p0:bit+danh
p0:v+kh
p1:ly
p1:lt
p2:nhy
p0:h+hng
p0:rn
p0:my+ma
p2:bung+li
p1:chng+l
p0:qun+khu
p0:sn
p0:gang+tc
p0:cao+nguyn
p1:qu+l
p0:v
p0:v
p2:lng+l
p0:v
p1:thoi+ha
p0:v
p0:trung+hc
p0:x
